solver_type L2R_L2LOSS_SVC
nr_class 2
label -1 1
nr_feature 47236
bias -1
w
-0.2713316766893065 
0.1989930679397763 
0.3403066160790321 
0.2610955007600631 
0.2753183645241923 
0 
-0.1178003366493563 
-0.5774228390918166 
0 
0.125282631015302 
0.5180702019714158 
-0.5243366617330294 
-0.1563700859767725 
-0.1688916948827598 
-0.3789862652960855 
-0.5586190218223119 
-0.3960371577993066 
0.006508698672392475 
-0.1535516595502898 
-0.04397230354784048 
-0.6096613220350319 
-0.1767046942740557 
0.2214694630897713 
0.06042641390654201 
-0.1934426958401499 
0 
0.07031426684096309 
-0.04736596234406799 
0.1072743048108355 
-0.6657568881985736 
-0.6930601878516519 
0.2923130242030502 
-0.01568341928567297 
-0.04379725983258477 
0 
0.03853192909716643 
0 
-0.2998305396982178 
0 
0.2693263520994305 
0.1660001753054013 
-0.1139755984317802 
0.2829740890374921 
0.2198280203922582 
0.6804304283440968 
-0.006731072951166178 
0.04405385887698118 
-0.3854071147688731 
0.005330711777493356 
0.4652531170371896 
0.1464284387141249 
-0.7775446018268164 
0.4415146133388724 
-0.6092186510171764 
0.0001298585155146923 
0 
-0.01202232020436237 
-0.02361094054686196 
-4.409910724484641e-05 
-0.08300070004594093 
-0.0009532097001011324 
-1.900296067068238 
0.001604513137041103 
-0.04979204332031834 
0 
0.1289556470992924 
-0.4003244885253264 
0.3662232632353002 
-0.6842199192896334 
-0.4647236819287053 
0.001260294463085416 
0 
-0.1584775831492846 
1.655761062679297 
4.779494994379268e-05 
-0.3418866847472633 
-0.102933368222825 
0.2916580232867039 
0.3686187658545755 
0.03292259132621269 
-0.5521422210832778 
0.07964477998351034 
0.2648313273567444 
0.0003644849761768154 
0.0412693634533239 
0.01022530520062969 
-0.07609797533387205 
-0.1123898035427731 
-0.006895420047467122 
-0.500436243333656 
0.0006848615692612405 
0 
-1.232035854003731 
0.4634429220222972 
-1.018919194612116 
0.2100007455957847 
0.1197014040351768 
-1.047954932763834e-05 
0.1780571730463177 
-0.4127400905963177 
0.0852958549910281 
-0.4179236396168222 
0 
-0.1662391804217398 
-0.05423531073128518 
-0.005333445090527761 
-0.01218003239656307 
-0.004695514229645669 
0.001946147733165285 
0.003918079553837652 
0.001946147733165285 
0 
-0.0151106202202021 
0.0002572471900478548 
-0.3859766136496723 
-0.001471028928523044 
0 
0.4036008555524074 
-0.07570937884611253 
0.223624748675211 
0 
0.046238249313555 
0.005530089887887318 
0.0148290978952772 
0.02802480669261957 
-0.008284037247783755 
1.661390802055446 
0.4212876019608189 
-0.05661933596246098 
0 
0.1809921294621486 
-0.0407902465947381 
0 
-0.0008373482739784518 
-0.01585139941817271 
0 
0.0525149650245325 
0 
-0.009024849797075728 
0.0525149650245325 
-0.0553552205871049 
0.0525149650245325 
-0.1210929156756334 
0.2947093907410349 
-0.000329634032025135 
0.1564547568035636 
0 
0.02160590043861805 
-0.9563782638221423 
0 
-0.3834591627069832 
-0.2817728593252975 
-0.7507381506564 
0.3007870088704289 
-0.08344396761154514 
-0.1603122121162583 
-0.0305581892127039 
0.1810427624066433 
-0.2837127326268984 
0.04753714509578448 
0 
-0.08487585445384969 
0.6506322545827059 
0.1642819088486199 
-0.1357172949797662 
-0.2838813094507597 
-0.5323216880655327 
-0.1123489077299947 
-0.01328660126867681 
0.1357098193881723 
0.1470276610924847 
0.2686357854516161 
0.001084728916687232 
-0.09009348544147984 
-0.2769585515549941 
0.5540547854364092 
0.08333170791035176 
0.2933790572005712 
0 
0 
-0.06302563654212637 
5.983542860511915e-05 
-0.822826363154618 
0.001540345365796105 
0.890243159856435 
0.5401766353829525 
0.3835917639524856 
0.3359177961066352 
0.01688440060512221 
0 
1.19863740518117 
1.461016920116347 
-0.3221914078515239 
0.1162611107850507 
3.306803479039276e-05 
0.1320685953870076 
0 
-0.2589974941232865 
0.04590799025671564 
0.3036696391498809 
0.0089440335361415 
0.2701383431559864 
-0.2410401398336003 
-0.05908870581982412 
-0.03848239911191941 
0.1574373219348938 
-0.05833865427945828 
0 
-0.1815960809051974 
0.02725947063712462 
0.02410643054600406 
-0.5671948556480844 
0.2864440236481122 
0.3573897619519154 
-0.4102268975030639 
-0.08457736243550636 
0.004545512336110259 
-0.007318210124847563 
0.1899984970854459 
0.7782529499884098 
0.04966952526664366 
0 
-0.0002260183372418383 
0.1081650333409078 
0.1752174643008706 
-9.703281008290298e-05 
0.5964936415511319 
0.5211714617197436 
-0.5195308810631284 
0.04248796565591149 
0.4252621636522427 
-0.5245061226721141 
0 
0 
0 
0 
0.3133957756571422 
0.02445543172743967 
0.03103286856952664 
0.003186152786405523 
0.0002496194173229572 
0.4172617569076447 
-0.128755236279287 
0.267987241921117 
0 
-0.0003286571978504532 
-0.08199371468909236 
0.01465161435400151 
0.6761694210009552 
0.5459621719744054 
-0.284864587901238 
0.8933074706058528 
-0.03935357870656938 
-0.00923803438716979 
0.3556645525754585 
-6.397696594887109e-05 
0.1433184072487269 
-0.0320654699578197 
0 
-0.509640755248585 
-0.4243677652590253 
0.03974241969441022 
0.0002779627095464568 
-0.529764221966929 
-0.08013047139011203 
-0.5906777830428206 
0.1593407612140647 
1.000238995570393 
0 
0.02584538385696114 
-0.1234534603213965 
1.205324234148952 
-0.007233267445386849 
0.1634769708191915 
0 
-0.07510289178219438 
0.5139331481397764 
-0.2031985994207163 
-0.1017339115196335 
-0.006241823001265381 
-0.2103929279776075 
0 
0.287174078845879 
0.4006742487769953 
0.4964802670564112 
-0.3212209227970017 
0.1222009553099591 
-0.160995418141764 
0 
0.1257952697557319 
0.3902152954224509 
-0.0003195355623191054 
-0.2772578897083425 
-0.1789328800887199 
0.06260997204315905 
-0.004541250065418253 
-0.273400805908431 
0.01462581394071384 
0.3563776664942271 
0.02409849166045651 
-0.2309026901256232 
0.005758951665313606 
-1.200269034393119 
-0.8638980106204097 
-1.533006109955456 
-0.2963470020756928 
0.0002957223526647027 
-0.3880033926551168 
4.468204440606353 
0 
-0.5392442525527925 
1.603441221672989 
-0.1665000285970797 
-0.06655856640094945 
-0.06107515663607731 
-0.2205268626157562 
-0.831230601134211 
-0.06389027749384221 
-0.8257355864488851 
0.1969523248223803 
0.04141392117194938 
0.3501193091717389 
0.21971385268296 
-0.01052090677091153 
0.1038531729902359 
-0.2674162040723146 
-0.05542086454285039 
-0.2307633585434326 
-0.4160970043807146 
-0.5630562187110639 
0 
0 
-0.2191824798531123 
-0.005376687446207755 
0.1067854053053379 
-0.00254315201490744 
-0.6713800123919282 
-0.1211486086500501 
2.668867171357652e-05 
-0.2405892859819731 
-0.07326898083973936 
-0.07279587046302345 
0 
0.3763036249003976 
-0.6903012870842029 
-0.02753259112764614 
1.408677157976165e-05 
-0.2681171958317305 
0 
0.2171835386255144 
0.08094518058035619 
0.236124939325259 
0.03036768604015656 
0.05644667419169158 
-0.01445949251222744 
0.4424386332894678 
-0.1021797057480981 
-0.2674769907020664 
-0.00046674701221217 
0.009130821171336363 
0.1170221228090106 
-0.3369572632520684 
0 
0.3637928813271666 
-0.1366993262000097 
0.03074825750647067 
-0.2866750968274164 
0.04166491066617009 
-0.7416205781500513 
-1.173560791078698 
0.003319834267523993 
-0.3459494905591688 
-0.2769023528008473 
0.930745486910398 
-0.04396130676992787 
-0.5123182154196584 
-0.2665269387170043 
0.2228480332856413 
0.2733588632214109 
0.01950281345689565 
-0.4354314438875093 
-0.0002935377233375555 
-0.0007079404210099936 
-0.4262956028215495 
0.001070863053586365 
0 
-0.08861094479178806 
-0.600189935692055 
0.09676349601537645 
0.005611826543365978 
0.001173233796818828 
0.5024733349074854 
-8.448219642511021e-05 
0.4261801560570826 
0.4691102564363236 
-1.856312881577964 
0.08195845484640006 
-0.2456174115078226 
0 
-0.2276336150259077 
0.01000766184943194 
1.258739636263654 
-0.1198757800799187 
-0.2919108430449942 
-0.9912966080030227 
0.09292245134887205 
0.11379473546291 
-0.260372090672257 
-0.1742020233561528 
0.5477203322876596 
-0.1338593809244744 
0.04400051240252363 
-0.2525377834580388 
0.4050312431311293 
-0.5090774821902588 
-0.002741226666024724 
0 
-1.816450783687481 
-0.3666484096193565 
0.01338780961741472 
-0.422599155281527 
0 
0.8757798970866817 
-0.0955783203919691 
0.01810996281803421 
-0.02819548649004395 
0.0001094553413815027 
-0.002270441181838837 
0.2611043955871486 
0.4114678529052412 
-0.310956014881373 
-0.004551932373564712 
0.03818458664861538 
0 
-1.14532825266879 
-0.5999954541464974 
0.09481767268224989 
-0.0008667174064483057 
0.001220377054057097 
-0.7148007071999904 
2.771917407035109e-05 
0 
-0.1746632652029817 
0.009201731773436063 
-0.02505952805953435 
-0.009677422866181794 
0.7991261707130511 
0 
-0.001369652644235193 
-0.01008260638327682 
3.963833017666662e-06 
-0.2918834965907108 
0.191956221041344 
-0.1790281017668386 
-0.1382339350462931 
-0.004183320446875678 
-0.4607258267062768 
0.0249996103174854 
-0.1576657241931609 
0.06559290106174333 
-0.09104289849047484 
-0.06922503875925168 
-0.0002841061268830124 
0.07815708482936423 
-0.1249626475835946 
-0.1044700602557363 
-0.0527561985657934 
0.0001468392968756721 
-0.3005599799754433 
-0.01988787696354496 
0.1569776872710303 
0 
0.3335134743860547 
0 
-0.08841192166348727 
-0.4267717181495001 
-1.282098014729533 
-0.3024603902692816 
0 
-0.009304451237970635 
0.01282994226152014 
-0.0493338207254951 
0 
0.2812067869317781 
0.03050740512641889 
-0.1720184887197427 
0.1970047761288028 
-0.0351692672259881 
0.1159711573056255 
0 
0.2798075645145242 
0.01674801010484082 
0 
0.07585845510758793 
0 
-0.1492432770233453 
0.004899645490169652 
0.3879150093901569 
0 
-0.000102431535036005 
-0.8171964978382377 
-1.983175780560092e-05 
-0.004417467468940676 
0.004698348066716687 
0.006265179438673905 
0.7427472778676376 
-0.006090805896171631 
0.001141210174400731 
-0.119676329628653 
0.005352216501453075 
-0.7935164305749804 
-0.8115910935466741 
0 
0.444712152742005 
0.002981228943316894 
0.9217163434391675 
0 
0.0006492418599794568 
-0.843291636667282 
-0.03160666115559684 
0.3888943278543666 
0.06148897659270515 
-0.07708387663521986 
0 
-2.010129583431268 
-0.2106380886135655 
0.3207277759566735 
0.3486315390280403 
0.3520545893851548 
-0.04043261875007874 
-0.02407207989368059 
0.0533514452786311 
-0.02688251657701384 
0.6619282306624402 
-1.300580206481552 
0.2097111562493479 
7.164279802485184e-05 
-0.3868739601269034 
-0.6509495423098585 
-0.1742628463239358 
6.59550415660212e-06 
-0.3737008559037072 
0.5521616390951204 
-0.08927517012886158 
0.8152133135612147 
0 
-0.0004500067173051319 
-0.7683071027482566 
-0.0003194674194585574 
0.001968675854953278 
-0.0004555393751962318 
-0.111899325582575 
-0.3445739513742432 
0.3181306931101103 
0.1699008666291969 
-0.08908806217091221 
-0.3300734308722643 
0.2640840969847958 
-0.002147655360648894 
-0.4368228083847903 
0.5150776121623539 
-1.697586781729859 
-0.2922813621620229 
-0.2162637160228597 
0.1343194798913612 
-0.8774947918284182 
-0.2182339783923811 
-0.1424460144186783 
0.000485098596912021 
0.1842206882833115 
-0.845952863231544 
0.2261078917594526 
-0.003366566375703413 
-3.411808025985817 
0.529771114842486 
0.2063685908248617 
0.5357704437439069 
0 
0.1261442916147242 
0.2711363726647297 
-0.01528199519209718 
-0.584886564221448 
-0.1656184821949987 
-0.9273715073063781 
-0.6324713332573424 
-0.4790198156718671 
-0.4739732575748876 
0.5649886881508661 
0.0003508058501024056 
-0.0716224942042326 
-0.6863737927307174 
0 
0.09105733041969902 
-0.001785325331015127 
0.4226184420080701 
-0.1553306345982943 
-0.09611279979397841 
-1.091968543438985 
1.567921943908179 
0.07891799321709256 
0.125317166018139 
0.1583238007721521 
0.8473995285774724 
0.2562336705695026 
-0.3186623649465865 
0.1262238586526635 
0.02773460661034385 
0.2621510181458344 
-0.1775558200364274 
-0.01329916846806222 
-0.1112846844169542 
0.3076590802033237 
-0.3942504847474868 
-0.03464065245816089 
0.1063073644991614 
-0.02781026105218604 
0.2126387693898363 
-0.2215004777399746 
-0.470493209241046 
0 
-1.323051451737511e-05 
-0.1626429608438065 
-0.2807862574259249 
-0.2671196051309199 
-0.537333168052211 
-0.0331477868423075 
-0.1681384054698898 
0.535714014802168 
0.001747708467139156 
-0.6690115511108232 
0 
-0.07187732930017204 
-0.0002634379588199292 
0.4972269885015483 
-0.8781829103669504 
-0.6884235706084862 
0 
0 
0.00136714219802603 
0.2989901673814734 
-0.08851954657942573 
0.02870868350234765 
0.01126180766622971 
1.939573377525843 
-0.2627682446019004 
0.05986043331318837 
0.06970560860967007 
-0.2068869395715255 
-0.1172725503961345 
0.0004725470026003214 
0 
-0.5276042952011064 
-0.05570962250593796 
-0.01565050095343825 
1.230628561178375 
0.3065304267544276 
0.5052343078972896 
-0.5562837679183157 
-0.1006124054809425 
-0.002592264180876992 
0.3710866957084337 
-0.7150100905314926 
0.1768165414117948 
0.03705476997215153 
0.936141987659697 
-0.3503232814681725 
-0.5339845769242987 
-0.03027593633016777 
0.03549860919584968 
-0.1991838587336733 
0 
0.790793028702881 
-0.4318539515896876 
-0.4006213169203095 
-0.5717393651572416 
0.2266033837329808 
-0.1217770377664881 
0.2795383929987434 
0.8612733472266187 
-0.4410305263189725 
-0.02393539641628817 
0 
0.3525767499243574 
-0.0784304092711868 
0.01511563911102497 
0.01738973115253547 
0.1931061269714938 
-0.1444557056388563 
-0.1970534478500101 
0.008347010234220615 
-0.1607104265378759 
-1.130171442154876 
-2.900673976360436e-06 
-0.176388123388538 
-0.2772083888573394 
0.2681278989257393 
0.08801013778525676 
0.3338488714350855 
-0.07592017200347065 
0.2867136905096048 
0.8671271614418382 
0.1339839888297133 
-0.009372008045044976 
0.1551530580243358 
-0.001757362789551701 
-0.1075192846019979 
-0.8310124240500272 
-0.2298238316105508 
0.09440006030382597 
0 
-0.1160554482988942 
-0.1531496736960111 
-1.135715978934573 
0.06523674364761146 
-0.04011361005021101 
1.545135126474242 
0.1437426090380928 
0.1066193581695412 
-0.6823919869208126 
0.4809605260710551 
0.004603973623639629 
0.113557388742159 
0.3210007985959387 
0.6539213815520076 
-0.07478763976629926 
-0.6326796350955542 
0.06284457056379866 
-0.4737797869419227 
0.08870443431537429 
-2.100281032199075 
0 
-0.2206983024998019 
0.6315320891786387 
0.2173328613020769 
-0.3953161830965592 
0.09661082215817862 
-0.0197807695915221 
0.01868001253854771 
0.3075539458041079 
-0.1085277974145544 
0 
-0.05517870115483678 
0.003848520866151408 
0.06238852999430065 
0.005497086801122071 
0.1374746002073532 
0.003026147105437783 
0 
0 
8.478735381350721e-06 
0 
0 
0.1463380700624487 
-0.2477041911385392 
0.03697197587534712 
0.822957398412313 
0.243388565448912 
2.126753467002315 
0.8140725264883756 
-0.001889468625000952 
-0.464029130989091 
-0.07045739091478334 
-0.4253449485868895 
-0.6106684498262874 
-0.0009031856012290643 
-0.2345224248996774 
-1.634419854467941 
0 
-0.03517672014787797 
-0.2950471044198146 
-0.1723046741738599 
0.04608329218481928 
-0.5309374120043796 
-0.6215955659626166 
0.1624678040315636 
-0.4145934724690838 
-0.07482218336004123 
0.04668201307202929 
-0.0008378804791532696 
0.04177170330308526 
-0.7484124698748041 
0.7236299666134748 
-0.5930086840781698 
-0.0001761115000835508 
0.1412583476145142 
0.01894953043788732 
-0.62643021605865 
0.3480953546466279 
0.06650849514859583 
-0.003132126252358642 
-0.5561943641250354 
-0.4669595137510199 
-0.7439386004884372 
0.5016685686831015 
-0.1323006561125084 
0.08620809871077383 
0.1483928788923706 
-0.4116690331000852 
0.3699328532520468 
0.2436255754711311 
-0.177860898321658 
-0.1516696958280886 
0.08556934643138821 
-0.0002166635442680407 
0.3393978809442683 
-0.0008911636905895856 
0 
-0.6989984655408358 
0.4314263623672472 
-0.02147624833916186 
0.02357731023234126 
-0.4308705295982563 
-0.2113180758777575 
-0.5269504590419436 
-0.6008250430260831 
0.01034768346408817 
0.1266795573502334 
0.0180264424635416 
0 
0 
0.01616282164783575 
0.2817825035909747 
0.1976755417773308 
0.04866088471896646 
-0.2487685426044931 
-1.419642692916948 
0.2541403921357033 
0.04073418339718052 
0.1415207905406827 
-0.09091240102295257 
-0.6106121131087603 
0.9567867829900809 
-0.05164917543634161 
0 
0.0007608220587875685 
-0.0550784305281339 
-1.164730111438364 
-0.1254337977311012 
-0.113532291266064 
0.1523213866588405 
-0.7735690262963827 
-0.7964780572447138 
-1.887811247115386 
0 
-0.6362565624988165 
0 
-1.215588361451551 
-0.3553233499839575 
0.01205593651398609 
-0.1254920864641851 
-0.364845171781577 
0.04004481086266524 
-0.170066974300787 
0.03944075675588413 
0.2060847430977553 
-0.5663314781428281 
0.0320580885159426 
0.038951317781592 
0.6082708110344583 
0.00323001765537342 
-2.195870484966873e-05 
0.04933188046859117 
-0.0001044031392511377 
0.8245811750825175 
-0.002055837308279849 
0 
-0.1499727315990639 
0.02313364826458607 
0.08943292130785668 
0.702484485372938 
-0.1173608805238883 
0.7506297264876471 
0.4537072778964012 
0.18681201916763 
-0.6923271013622276 
0.07997101962349695 
0.004167675426143228 
-0.07451914194670618 
-0.5967910038706267 
0.391798845534485 
0 
0.1143145372906024 
0.06396957359039776 
-0.3613359753739098 
-0.2107394353249573 
0.06926889616453703 
-0.003055763403306352 
0.08439231015045179 
-0.2042489016216977 
0.07253495825943224 
0.1999740517659093 
-0.08167187097485795 
-0.2560879731172833 
-0.3114580183770537 
-0.3567330248251088 
0.2173520330408651 
0 
-0.02833007458675768 
0.2202050612745598 
0.5199705213622249 
0.130806530830101 
0.2039825756685347 
0.201583086781933 
-0.08257412489899825 
-1.060466393909188 
0.06729938074894271 
-0.000797669197582499 
-0.002293862041502772 
-0.1816075594398292 
0.8943037949085988 
0.2430679334013414 
-0.2004041176548959 
0.2148152477307914 
0.6606628176232965 
-0.5002556865848415 
-0.003354936829673387 
0.3852182367052607 
-0.003708554471761852 
-0.2488012709964474 
-0.38529540936289 
-0.0505649606735684 
-0.74417405905705 
-0.7804988940501281 
1.221494557764399 
-0.1712295709640877 
-0.3973984368354677 
0.09132947037448487 
0.3722838440339635 
0.2202533043672214 
-0.2009171870799144 
0 
0.232821888596386 
0.07540867637433493 
0 
-0.1524426003795902 
-0.08936029550351646 
0.2714424442611577 
1.144814820096286 
0 
0 
-0.8413780443867478 
-0.01902535944627083 
0.9458531431230119 
-1.21270963369668 
0 
0.3316162036459367 
-0.1152626627032328 
-0.3928144948387985 
0.7905791406633553 
-0.02210809099687452 
0.9365777448937145 
-0.4054769943041895 
1.269652069487015 
0.4241595298983342 
0.03029796260421198 
0.183011496929271 
-0.114369404344621 
0 
-0.8325940660909231 
-0.1942279101413485 
0 
0.04800553294096521 
-0.04886108052869658 
-0.0684413078469788 
-0.3091479625881293 
0.01178433244756851 
0.04364323618510593 
0.052721586757782 
0.04468288313106823 
-0.0009974456866618637 
0.2605574124910956 
0.2958411778813053 
-0.0265686537878574 
-0.03474303191818976 
0 
-0.0001201274004373901 
-0.0009159273650147265 
-0.05034627581831189 
-0.03222049758902234 
0.660130169833744 
0.124998955947062 
-0.006768761404124422 
0.1289363346474619 
0.4123771722844979 
0.06763064621804185 
0 
-0.1105454868932879 
0.0371180732229233 
0.3725699990937057 
-0.1856189693510067 
-0.006457215430567157 
-0.42961893061951 
0.07160339465977096 
0.0003817501309679398 
-0.08960718394892453 
-0.1869786197491038 
0.8336078825303141 
0 
0.09408930396508136 
6.183770231876915e-05 
-0.1747748746552587 
-0.1458836811677537 
0 
-0.1371020450416545 
-0.01333132832448414 
0.3018445143521877 
0.2009941030179761 
0.1966541018833224 
0 
0.5239233893005797 
0 
0.09363987183705275 
-0.6733264187223407 
-0.02336759304034977 
0.1627524034573626 
0.2554304159558956 
0.2587017459604639 
0.2813928824665879 
0.1670336427499671 
0.0525149650245325 
0.1538127230101759 
-0.2760685807315547 
-0.05091440389965519 
-0.2489916059900269 
1.009173910676792 
0.0001163514374308828 
-0.1502275213570742 
-0.01988803360142558 
0.1882343100649464 
0.08414670428883836 
-0.1594306851139319 
0.2067740224543 
0 
0.06467570064812656 
0.1088658813207696 
0.001875561968819128 
-0.2489419030785744 
0.2428745110159548 
0.00220778978458547 
0 
-0.2701293199073356 
-0.0004079155497519547 
0.3073774840901157 
-0.06026639856096784 
-0.0003057796551689323 
0.01922985539159158 
0.00447490453595937 
0.1334558209629618 
0 
0 
0.002310881486413147 
-0.0403027552243041 
0.02693686349353689 
0.1414336724883108 
-0.07535575121010007 
-0.3150876616043237 
0.01839177692741611 
0.004406197862322551 
-0.001083801081755072 
0.1625078213303552 
-0.1162857900094014 
-0.09133823858216097 
-0.02083361839223907 
-0.2986397716308568 
-0.1617733477769989 
0.02022884764087027 
0.0525149650245325 
0.2511845461271788 
0.5714624962413647 
0.525057364714443 
-0.8333193089057038 
0.1357048544487033 
0 
0.02476437406785864 
0.5474091272900703 
0.09260813129485827 
0.6420790000941725 
0 
0.2681388430126666 
-0.7701925147234292 
-0.1555687764356976 
0.0862947103700909 
-0.0004976414264492381 
0.2570902579916439 
0 
-0.1940784533616621 
0.05004293159147098 
0.2249044605530839 
-0.2760921054515348 
-0.004414542100622663 
-0.5895938794456126 
0 
-0.3193112304563889 
-0.3524138564666587 
0.1519930878434275 
0.07177681461319119 
-0.3406964869422182 
-0.3574762725324787 
-0.0005860494692958951 
-0.3806883660527569 
0 
0.1527977419615388 
0.8681199503236918 
0.335198389795331 
0 
-0.04104451378869623 
0.5712018179577203 
-0.06015338982261406 
-0.03240823572368062 
-0.06672164435237614 
0.001595732980917447 
0.009991519659001118 
-0.2709917171576263 
-0.0337271635747307 
-0.34579480548876 
0.01828756503225151 
0.003856589837483774 
-0.01676816443756684 
0.1567130063827686 
0.01024625274199252 
-0.0001907664764909151 
-0.05922003203931439 
-0.4937086938879482 
-0.0339413897578336 
-0.07621729148538677 
-0.09757245813803866 
0.2317292986938984 
0.3518118636158413 
0.241597873467857 
0.1674955393772864 
-0.5527564234568461 
-0.2969551934663627 
0.09485862756318611 
0.05049935076032649 
0.1317983194008269 
0.02608949229183643 
-0.9903347131015815 
-0.1174793027302988 
0.1224397471888093 
-0.0002999035544599326 
-0.07502876621944843 
0.0200581458047872 
0.04685959926158876 
-0.003709396381453451 
0.3666639640204571 
-0.06147074247580431 
-0.155015560373229 
0 
0.3936781924173659 
-0.02901281277553046 
-0.6454936053683367 
0.09164788588035566 
0.07170580088571757 
0.109824817306153 
-0.0002153688164868546 
-4.465574871205318 
-0.1743259452707432 
0.0004932851700387989 
-0.1869176870693519 
0.7356128663184877 
-2.15557795789698e-05 
0.2708900239417333 
0.004169072621183254 
6.779057317458376e-05 
1.02263276497101 
-0.1304972581469372 
-0.09217318236931844 
-0.1921368279013863 
0.06956958463844529 
0 
0.8601360306486088 
-0.0735203263752347 
-0.0003153740452744238 
0 
0.6142531037033689 
0.303436723149607 
-0.4855447180796462 
-0.006370026232616498 
-0.08024449320731272 
0.1444129706921558 
0.007715568338318156 
-0.1505983264181908 
-0.1133677145859509 
0.1691717203768463 
-0.3935035391234882 
0 
0 
0.6907654886378786 
-0.3895648523567388 
0.4745978513234865 
-0.02140969367716313 
0.01573322236541569 
-0.2042122277798458 
0.2975659427063391 
0.2285828085100538 
-0.7069868475650808 
-0.04099207867275228 
-0.0562300426773476 
0.4244063728786924 
-0.8585017097980229 
0.1934153342344184 
-0.1849839583120195 
0.08884942055844464 
-0.03682009713189285 
0.004033164699414712 
0 
-0.0001442270137600751 
0.2232663744628797 
0.3369145360975457 
0 
-0.9041564461817345 
-0.3744193349889148 
0.1312509607238631 
0.03377401220700661 
-0.0363024605891993 
0 
0.3733352165735754 
-0.1025222515931212 
0.03958628625726346 
0.09384142636430942 
0.1017256895702231 
0.02917054174973281 
0 
-0.1030034407981656 
0.6607268565117183 
-0.3583036229829999 
0.1267864271450156 
-0.1229283726799301 
0.3672632154650376 
0.101283822384187 
0.4743967795205339 
0.0525149650245325 
-0.1876625149645785 
0.06166016713132541 
-0.2110218430357179 
-0.004992593314990287 
-0.553000798151146 
0 
0.2849653397633388 
0.05884243490762327 
-0.3201175483042121 
-0.02019888626506128 
-0.008414140942031034 
-0.7130267961676622 
0.0008812755929875379 
0.01258382777126998 
0.0010301138115058 
-0.0009534750708018735 
0.1167634636442919 
0.06067915231967898 
1.085582103352715e-05 
-0.06163771376826789 
0.1004270350351567 
-9.449664830876057e-05 
0 
0 
-0.01845313416750611 
-0.2095484610740478 
-0.2256657162796032 
0.002480241985650848 
-0.1926037025664182 
0.05278384697632679 
-0.3565413753908352 
-0.006722330738970023 
0 
0.0408359457794791 
0.007482507352271441 
0.4432842626176022 
0.7970770780422821 
0 
-0.001962835082460188 
-0.09752403856791721 
0.5498698585221291 
0.01986323416552588 
0.1257161083615559 
0.43599200243994 
0.4075986046576153 
0.0356288929729178 
0.3640985325663973 
-0.2054178423445909 
0.1606865974485331 
0.2035149256523711 
0.1982597235620164 
0.2690015764856544 
0 
0.4028552469874161 
-0.002422978860900902 
0.1813349520376707 
0.1539426864889903 
-0.7564317743333959 
0.5267551659207801 
0.07742617892465428 
-0.004126962707791873 
0.07769251990106446 
0.1091083700358457 
-0.1044099771264571 
0.06843942508315791 
-0.1057634922752335 
-0.4051383399734432 
0 
-0.5202231364184656 
0.1383211818513365 
-0.02661211556590674 
-0.5841165827500564 
-0.002512810464953879 
0.02683040450027176 
0.06107665057245983 
-0.3816870577372729 
0.8322109146293704 
0.6940412551482993 
0.0006000001523774976 
0.1859420389136593 
-0.05724099001126468 
0.150539635973084 
0.1040357664686783 
0.01836447560131186 
-0.01328414966478047 
0.05800457772751261 
-0.0928344958791669 
0.09890764253784479 
-0.14154523145407 
-0.03102508733738738 
-0.05860301475777267 
0.4582044449563902 
0.03100309896470596 
0.1371974220700843 
0.0005170038342471462 
-0.09376326706433658 
0.1564246736382553 
-0.03007427795011208 
0.0463848312901094 
-0.8181791179511044 
0.1531559831295472 
0.7083990140148585 
-0.2514571661195377 
0.1038787615945537 
0.0007602198241530559 
0.0002898130687340652 
0.2901653958528929 
0 
2.317279063231348e-05 
0.08390011861731911 
-0.0005131843156693432 
0.03292427162491494 
0.4058341383570522 
-0.1532566986318082 
0.3795937679907692 
0 
0.231455932890239 
-0.5878143115661206 
-0.2817535728248626 
-0.0008499649490824744 
0.01205753363946002 
0.1612554676086166 
0.03023415408050339 
0.2578787556660501 
0.02042895637720739 
0.5086116599657876 
0.4227141812338198 
0.4193108395806516 
-0.1869219116100166 
0 
0.010409596376704 
-0.690633215472534 
-0.4490948922563675 
0.008203896086381082 
-0.266429216807161 
-0.04585741390761026 
0.08108314923876653 
-0.03505617045578815 
-0.08619352696974655 
0.6472694453745327 
0.3240756211665696 
0.0868743209971774 
-0.0903627261258457 
-0.02263017808076273 
0.1900209370354575 
0.08529560562644675 
-0.3346402277238082 
-0.2966260052121352 
0 
-0.08887597833876486 
0.01568593852331843 
-0.2848542652303473 
0.6275022785491744 
-0.07211925597606753 
-0.1967821851959133 
-0.05927095486965749 
-0.255878515897201 
-0.1510953785104712 
0.4677298653486779 
-0.1683859147597887 
-0.00551195545209332 
0.03512281111776176 
-0.538647693529644 
0.6503923702441157 
-0.2932471357983293 
-0.0005002052409332139 
0.004089867427471318 
2.927625515034639e-06 
0.2487654285697161 
0.00582815968394761 
-0.866507407389878 
0 
0.9428543076868948 
0.837906972584752 
-0.1367906059231815 
0.01205067019100588 
0.0006849726838823232 
0.1074601350727263 
0 
-0.0007759475111145111 
0.003125948721983856 
0.1120678642326794 
-0.7232442146755889 
2.323545027128171e-06 
0.02398951458355544 
0.09584370708545079 
0.0006375171525370256 
0 
0.0004071023468555935 
0.0003807917922668775 
-0.2148317357241863 
0.308928868720537 
0.0002753031493303648 
0.05411770392429611 
0.4405518102901916 
-0.03697204708964998 
-0.213275794838035 
0.07572864975273588 
0 
-0.003199405953169952 
0.004206200955881621 
-0.2933190735739598 
0 
0 
0.5599323321502859 
0.01055286786439507 
0.6890319974274073 
0.518404894361172 
0.3116757352661546 
-0.02245340569843219 
0 
0.03850633427631481 
-0.0001451170651973049 
-0.6858264346235884 
0.05383934487088937 
-0.1952784088771883 
0.1651750813638155 
0.2242386193760197 
0.1446044970855922 
0.5481253578287899 
0.02463908423534159 
0 
-0.1590591296620968 
0 
0.04195136160301815 
0.01222655349079555 
-0.0002571076364267993 
-0.2564851275592293 
0.09398539124100558 
0 
-0.3329488583281394 
-0.07090494822115326 
0 
0.1057566674327238 
0.71886976128643 
-0.002703773583293594 
0.5524777447461001 
0.08529825254842813 
-0.4020458614837976 
0.001519925593777357 
-0.03946109034084272 
-0.3100432455409418 
0.5905093817711807 
0.1702573149194672 
0.2283071342475373 
0.09047714613398294 
-0.2282946948582939 
-0.06671705931077587 
-0.1232210878477586 
1.587958631910676 
0 
-0.5058524996697933 
0.1487021184155358 
-0.4458047917637539 
-0.5816764993054919 
0 
0.4585761296358914 
0.03524748765268867 
-0.1013404940865706 
-0.05836409077737258 
-0.146741615174755 
0.424227339928568 
-0.3899733175239362 
-0.04535158213606551 
-6.073779474100704e-05 
0.4014074891510121 
0.5317944607861947 
-0.2413820393632213 
1.377369849449193 
0 
0.04991819230635985 
-0.273460726790922 
-0.4301919052042121 
-0.3873630110754391 
-0.08603235779090082 
-0.3273412627077518 
0 
0.1836863113523002 
0.3675892788898798 
0 
1.037408212778363 
0.3250703962223064 
-0.03483282549290557 
0.04799779715740952 
-0.07955345663753879 
0.4875815243583218 
-0.000872176347207855 
-0.3392784921102433 
0 
0.6569057919190183 
0.1063108254117784 
0.07174265577526891 
0 
0.008173491127067901 
0.007109110960897136 
0.004506556732710586 
0 
0.2582439162577559 
-0.2484844220374761 
0.007156943143628568 
0.05173209245950369 
0 
-0.05736410381084202 
-0.003297314659103826 
0.0005038870596205211 
0.02759914107935595 
0.8222494074952991 
0.08869214455089171 
-0.4034404692844427 
-0.00151998056225551 
1.222883652360555 
0.04313168775721946 
-0.4577192304683441 
-0.04561741219806026 
-0.6235322642563923 
-0.06943590816731325 
0.1312011538330553 
-0.005426088882005101 
-0.08975838419892279 
-0.8357499445874492 
0.6700299751189596 
0.1542611697391458 
0.001350587063866729 
0.349738626430398 
-0.0003574218772484652 
0 
0.1316980719806039 
-6.343809372084243e-05 
0.4569171029307346 
-0.0002565272278770809 
-0.4390355786597828 
-0.2743968479061016 
-0.5321911655476222 
0.2379752551864054 
-0.0001941116820581238 
0.3337094201307718 
-0.7005520716240793 
0.132600172828062 
0.8993510721140396 
-0.09129575691711064 
0 
-0.05047379574639525 
1.994719207228461 
-0.352646139895795 
-0.9854547991462147 
-0.3013986234129643 
0 
0.2381384084257827 
0.2276214125718821 
0.7032763589292863 
-0.0002938869253683202 
0.0006828331540661237 
-0.04697979965602327 
0.4143775641393019 
0.3961257056702181 
0.2977337144841833 
0.4943960819657925 
-0.5954857706777699 
0.3637886088620638 
-0.03969705447815657 
-0.1049932357112782 
0.4880170068857502 
-0.04988939053253309 
-0.334232266910219 
4.486027648296601e-05 
0.02464627249086551 
-0.7684469989526541 
0.1240033545047505 
-0.2064509419823123 
0 
0 
-0.1719969867047348 
0 
-0.0002324756872582594 
-0.10250845474231 
-0.09160356844595148 
-0.002419034805356334 
0.01353297656385984 
0.5644643752804237 
0.4987494374229981 
0.01421702372474609 
-0.3658770050290698 
0.05280830645315644 
3.582494224945014e-05 
1.355981329749225 
-0.1727978693638281 
0.2671538780109378 
0.01830675803077392 
-0.6928834278471103 
0.03659169041445142 
-0.341766645819842 
-0.1338901327395867 
0.4957758993495688 
0.002900216541798208 
0.3418084274255678 
0.3655267891940986 
0.116291978955278 
-0.7365791508237431 
-0.2215900328160808 
-0.02035197725120851 
0.04232606664711228 
-0.00148959996271307 
0 
-0.2049308075482023 
-0.3690551544257363 
-0.2607037869429011 
0 
0.02423730949272831 
-0.1725881319010988 
0.01016683263456841 
-0.1327944671375278 
0.02852973857701694 
0.1315589856423588 
-0.6932352175657873 
-0.006563219368163538 
0.3411070852976077 
-0.01208555595495355 
-0.9984929177450225 
-0.000568305608235945 
-0.002961609481444595 
0.1150857964105541 
-0.6171289676395306 
0.03014937253575307 
0.4984150960064723 
0 
0 
-0.2695675572615175 
0.1446678421572091 
0.2669741061628515 
0.009719450428109035 
0 
-0.0426012414479764 
0.001149166599074023 
-0.008871194060636536 
-0.03406008171509082 
-0.1022731524318133 
-0.5319992835531767 
0.06358332587216312 
0 
-0.254149362074489 
0.3742512633531512 
0.09018019482953051 
-0.1532362329599252 
-0.03949796407598543 
0.6950136796654798 
0.2291883493137771 
0.6575489127412758 
-0.01406515373912302 
-0.9303899550042168 
-0.2686792666429013 
-0.2306903426604935 
-0.1767368139732248 
-0.3373253325184039 
0.0005109178758444572 
-0.2575835925424871 
0.6554884112656384 
0 
-0.07005986836181513 
-0.0004329423977913347 
0.1787311625401537 
-0.6872477342432277 
-0.001018260317015395 
0.03166937119061045 
0.1706004191616459 
0.2658305739043961 
-0.002114415310840235 
-0.07202195575979337 
0 
-0.2988278656001462 
0.3238751903058851 
0.3407768267684042 
-0.003623555469668068 
-0.09120416717916027 
0.07847551671736835 
0.03490534920681964 
-0.08232329492660254 
0.005809525639831514 
-0.001494206949682848 
0.6628329199234435 
1.501138365320972 
0.004473193773223642 
0.003568722636305049 
0.5280287058164269 
0.1016728885838024 
0.2006497259811628 
0 
-1.196080992320777 
0.07072901810618139 
-0.9892427004989868 
0.9076083027083648 
-0.3164183967995049 
-0.1400384798489251 
-0.423616156309935 
0.04161580971270308 
-0.1715253592492195 
-0.7900183660551356 
-0.3053284530912552 
3.857064833542615e-05 
0 
-0.001176059073030175 
-0.3575875851129771 
-0.828771263208574 
0 
0.01724365993552955 
0.8540906332777927 
0.386582043778565 
-0.05374439459725334 
0.1693894638530718 
0.3395950724187309 
0.4240081966599994 
0.4486972512242364 
0 
-0.3972017557482011 
-0.0001764196308692543 
0.02459429735174817 
0 
0.04278217873811043 
0.3149887829683846 
-0.2504696867528582 
0.1601905670002226 
-0.7732845850780745 
-0.08433576376147267 
0.2052747598691854 
2.408974180826593 
-0.2842651220711985 
0.04555693560945736 
-0.02123291715069918 
-0.06540612324864691 
0.436895419129049 
1.408099003912332 
0 
0.08647379111897484 
0.08089868123984208 
0.2656865629246153 
-0.1574006801065007 
-0.1916832998372602 
0 
0 
0.01524999450742813 
0 
-0.5227414412171159 
0.2226401241585046 
-0.005288522012672039 
0.2610545524428894 
0.043385224645466 
-0.1202493959969197 
0.4932563500119809 
-0.02467362666436585 
1.377434391708442 
0.3852570158978429 
0 
-0.3097075305038891 
-0.03423057976882003 
0.02688979379512188 
-0.05443280372254772 
0.0003904270324949079 
0 
-0.571927034100837 
0.02714323859195775 
-0.003103017684419084 
-0.0008022395744317554 
0 
0.06823867989080482 
0 
0.1771744049805712 
0.02405421154320245 
-0.2476619525653606 
0.03793770893088869 
-0.02620384317496213 
-0.4450734045807413 
0.8925792228673769 
0.3215964338097926 
0 
-0.0003148858517306671 
-0.0008277419587984086 
-0.08405732152272959 
0.1782850855364966 
0.3372022012766899 
0 
0 
-0.8795823664827889 
0 
-0.0004321589213806768 
0.1371465061845122 
0.0656248432236432 
0.07062669459143342 
-0.5092225176932692 
0.04858481232414928 
0.1917172489391241 
-0.0005063988522839234 
-0.01108812028471663 
-0.2542389221367436 
0.2926831189758999 
0.03007312054835577 
0.12043529580133 
0 
0.05956137448606566 
-0.01963953956372874 
0.1324765699677562 
0.2207382747920367 
-0.7613413117399022 
-0.02722732552764578 
-0.3964690022536006 
-0.3303309417219978 
-1.112039392403594 
0.02838189003108108 
0 
-0.381132892664554 
-0.2931102096588263 
-0.61335759720994 
-0.5338073561098957 
-0.09132426507835453 
0.008824591089143713 
0.07262346933882981 
-1.021223042484763 
-0.2542983291323307 
0.1034553874897608 
-0.001827104416800795 
0.08584288633824902 
4.912462933619612e-07 
0 
-0.05106398009688157 
-0.3700734651913888 
0.1270016809231402 
-0.05627113251958964 
0.0152565327056766 
-0.0005497454152936369 
-0.04133774716720752 
0.3137848354989705 
1.015330733544549 
0.1547733262180868 
-0.038627196021383 
-0.0004660033908326946 
-0.119359262998476 
-0.04063060541380923 
-0.3836366622243491 
0.08777699381293902 
0.003256988981622186 
-0.1099682676161543 
0.003707558711705743 
-0.005921956997955717 
0.1913377857479409 
1.55759438582859 
0.7447406470955429 
-0.06027049734908122 
0.1048849876891873 
0.1110927368315363 
-0.2737317294798124 
-0.003591536906651793 
0.1400360976725032 
0.02888227160392075 
-0.0005506393463490527 
0.1653159917086975 
-0.2300436710173026 
0.07808189779258642 
0 
-0.0478819719733241 
-0.1432500066246492 
-0.0918987214772567 
-0.0001010009229929512 
-0.5139702945475082 
0.2807240948927608 
0.3735044103490498 
-0.4396899582943044 
-0.258584551352222 
-0.3809431233274807 
0 
-0.4881081298384403 
-0.317020497387716 
-0.007894857180488669 
-0.000260796189188697 
0.09963745310608303 
-0.7546677656356245 
-0.1470494598257255 
0.05048419251156433 
-0.7310568377629834 
-0.09655852334850784 
0 
-0.08617874734445921 
0.3244956779438112 
0.0261598064182007 
-0.8132069353666158 
0 
-0.01909749567110205 
0.6060620564914889 
-4.553391494512627e-05 
-0.3007891717080741 
0 
0 
0.3513648118831995 
0.825178529202789 
0.3032887375271315 
-0.3606458041115411 
0 
-0.4497422135629123 
0.1896449892537226 
-0.235697712393628 
0.4591695718020639 
-0.08714389580714965 
0.0003569307071253232 
0.2285272236344765 
0.0134339683180361 
-0.5084209385338412 
-0.08468258423423013 
0.1400128727648204 
-0.3339663987574361 
0.4054032659455078 
-0.1617771508366407 
-0.07376924294637424 
-0.04936285469003149 
0.07908115048027929 
0.6598278542421279 
0 
0.007290766826857534 
-0.1469646034399661 
0.15735893711753 
-0.6722353375991892 
0.1880145687363121 
0 
-0.444665069610124 
-0.30990205383104 
0.3174287398080953 
4.185622087547217e-05 
0.1971782333707034 
0.2132756147826893 
0.03193670923848232 
-0.4916366290693842 
0.3104377838057966 
-0.7670187996287416 
0.2847502504065683 
-0.1556259869940531 
0.04517006942134066 
0.01834570316187884 
-0.1494456767470502 
-0.0009164753353368416 
-0.3078197815188236 
-0.2693162393046868 
-0.3934181746001817 
0.03972384797226695 
0.3371473670786934 
0.1009396566861127 
0.7289296601853652 
-0.01579980044097097 
0.331955103336281 
0 
0 
-0.01375290936597618 
-1.104185177338859 
-0.551260393978544 
-0.0003492169119821919 
0.07981429141193802 
0.1516659392133254 
-0.2817946858584844 
-0.02749950980151492 
0.6671669975726131 
0.04261008536188014 
0.00575527471706317 
-0.6875105979486941 
0.05682828325411425 
-0.09015667571131578 
-0.009519472670983117 
0 
0.7227457210436952 
0.1124489854511879 
0 
-0.06435332217812036 
0.03483182844002931 
0.0382878610068819 
0.0525149650245325 
-0.06837386292627282 
0.3320338198222894 
-0.2470467816959088 
-0.5921497510775838 
0.9072124327060012 
-0.01827973409428647 
-0.006744536844818141 
-1.06567640429668 
0 
0.004625838389893834 
0 
-0.265968759877881 
-0.3026281871479589 
0.08498982870560487 
1.016011238681339 
-0.001008494462265759 
0.1109644005286885 
0.2998555926943165 
0 
0.169761429811228 
-1.205262589430929 
0.3231764688107736 
-0.4696261627277599 
-0.5727057124792576 
0.06633011298526806 
-0.2444338129368086 
-0.3038342648534907 
0.1959088718869089 
0.5298038550371889 
-0.203320831574766 
0.03706077676369861 
0.3513454210537692 
0.01023284275367018 
0.0167808552841139 
0.3334912281146169 
-0.849853464657243 
-0.1636768052264143 
-0.003323731814989929 
-0.4889785456124146 
0.04924545857044746 
-0.6451941611164322 
-0.3114294723953463 
0.2965405859696432 
1.012030259587702 
-0.4509671473628147 
0.09134785962872251 
0.486831051060806 
-0.03613515612606949 
-0.1571109709788174 
-0.7288795809919771 
0.07364443334232744 
-0.05917980086413192 
0 
-0.8131905562487927 
0.5381256532365872 
0.1346889731069446 
0 
-0.01766721426393564 
-0.0008101183734980452 
0.07704461663250138 
0.6604676675378439 
-0.8756696472121146 
0.2475941489775754 
0 
0.002159622431517932 
5.64653031723524e-05 
0 
0 
0.002356263800062861 
0.1168124897972107 
-0.001064726308577565 
0.02421988837937535 
-0.2788321365685667 
-0.002405106950964547 
0.026897411535883 
0.00015153510169158 
0.04256567207206127 
-0.2467405641674372 
0.5913148828481269 
-0.2008971024209685 
0.5016500498314549 
-0.0004133449300635875 
0.3342087090775196 
0.00649929741775193 
0.063267159759335 
0.1255558993970483 
0.1269047493659342 
0.107992750577668 
0 
0.1986400833004091 
0.1456984339013558 
0.2453406214603022 
-0.1140103817528167 
0.2417399010409966 
0.3789436548218937 
-0.6646252108193063 
0.2148276424456685 
0.4784354314473875 
-0.2425880798804561 
0.3514624846479262 
0.2721862809601268 
0.02952472738597935 
0.8778109672067715 
-0.0008434866043759449 
0.4361375029014857 
0.5322764666481498 
-0.2084539985046065 
-0.5644082106887185 
-0.6778272303174396 
0.4031131126534355 
-0.1349089541699685 
0 
1.818923654110807e-06 
-0.08932822823422695 
-0.001139299395529689 
-0.2514004760285722 
0.08883028678408492 
0 
-0.5186601053229375 
-0.4122789237299744 
0 
-0.08562012319921605 
0.1848166408590506 
-0.3874858000541563 
0.08369912823975467 
-0.2680323716611822 
-0.1374892851980125 
-0.4974861847592332 
0.4928752418200731 
0.4689709192481405 
-0.03996075338765948 
0.500431930461035 
-0.05297374094359952 
0.1754935928724746 
0.07449227736436911 
-0.03374352636510861 
0.230360294038694 
-1.157099526013014 
0.2780415343350866 
0 
-0.7275860065344731 
-0.2220748024689942 
0.9566624145535905 
0.3633994905062767 
0.0003754390912677582 
0 
-0.03396725321908444 
0.004823687111403914 
-0.1589723664643841 
0.01436097670150688 
-0.1761431003986323 
-0.8841473343766757 
-0.05329131300869001 
-0.6031854935074202 
0.001956379362748159 
-0.008508812621344588 
0.01442016559590195 
0 
-0.1528371676378498 
0 
0.12871046399803 
-0.3265659803763657 
-1.019076757866928 
0.001361627195756836 
-0.1035580232376588 
0.1033609892129961 
0.6665768846739786 
0.003801311657021023 
0.4637147790985247 
0.266373761122353 
-0.002306619082604773 
-0.4985824137124241 
-0.6502394332597434 
0.3308148477951388 
-0.6691526214523751 
0.06200851728962861 
-0.229626022213595 
0.3094611429005596 
0 
0.04091740862035127 
0.1587219309857187 
0.2045646939741675 
0.137198409600716 
-0.2153017794090191 
-0.001123564198789806 
0 
0.2136719157598438 
0.09673381641566574 
1.061465987408122 
0.2840029805415545 
-0.112517965158193 
0.4017161352284268 
0 
0.03549184735365446 
0.04963892733640255 
-0.3506230009189957 
0.3080862131129176 
-0.5058346731337207 
-0.00187857876249172 
-0.2152259066621552 
0.1876843164378303 
-0.406095671084888 
-0.1140028976607565 
0.109022042821745 
-0.6283576451117344 
0.02494455773672013 
0 
0 
0.09800412946999315 
0.1784888199603447 
0.0009935581808161332 
0.01401263715985811 
-0.1406417733801042 
0.2080964943656264 
0 
-0.0001991558362163588 
0.3455993792188418 
0 
0.3441176470264681 
0.09159164261602495 
-0.9846998700163248 
0.2829841258610789 
0 
0.5972471129342667 
0.4261037000653848 
-0.03918724623509696 
0.001839387798824423 
0.3356687983659828 
-0.3482836328785892 
-0.1590401527923989 
-0.6067779506705469 
0 
-0.1147211598126436 
1.435294506590889 
0 
0.00222730127785936 
0.3173975887486417 
-0.2861851254461596 
-0.1165939592558358 
0.2675119426488588 
0.003608165259982283 
0 
0 
-0.06515224263117828 
0.08489792358399778 
0.341271985322081 
-0.05013244927180409 
0.2459563595493316 
1.489052367197442 
-0.3306680951813719 
-0.1295996599290635 
0.2113892680062255 
-0.002313722210274073 
0 
-0.4775101882364469 
-0.04825220776268001 
-0.1733876574098937 
-0.2301973342007408 
-0.2795084025242734 
-0.01028136543456655 
0.005428900223445584 
0.05321828655391769 
-0.8695100037001715 
0 
0.06430620570954301 
-0.1441001944226051 
-0.01252782343271187 
-0.4772281245550741 
0.001120996959486721 
0.2650321635896818 
-0.2385436672453272 
-0.406432407936955 
0 
0.001426683460747524 
-0.02876292536525057 
0.001576383141392386 
0.09949379676598015 
0 
-0.4206388916955952 
0.1920415166572656 
-0.04144852200095649 
0.003303029773153986 
-0.01880456555429327 
0.0001833372074937185 
0.4038853585604773 
0.02681945598369675 
0.07121704881253263 
-0.2202037683196585 
0.2181941912434964 
-0.6279206901302958 
0.02679991567979872 
0.4096978888303079 
0 
0.003939227487687857 
-0.001309174673219758 
0.0001974911969113368 
0.3407964940488208 
-0.2698571807225717 
0.2945329096751645 
-0.04531475865757241 
-0.7510393026372775 
0.007127350306054985 
0.00448015990065672 
-0.0001222234174818179 
-0.278302004492967 
-0.2754700657784503 
0.002477096727992429 
0.155651173074567 
-0.5627581189830615 
-0.7864115028454211 
-0.06071444898952644 
0.6135689232202906 
-0.1096489360566324 
0.2031897931927502 
0.1567256866995426 
0.04826488215271726 
0.08543401316066754 
-0.2398062233201328 
0 
-0.8603326867708603 
-0.1919131436935547 
0.001136431084582113 
0.3435809615257533 
0.422214760797908 
-0.1020763965402214 
0.04156647502036445 
-0.03758827705264187 
0.5657695288726972 
-0.2647730192027697 
-0.0001246118607842685 
-0.1555283414891287 
0.2990465885532559 
-0.1254938419242901 
0.3854793789613729 
-0.8567662983402441 
0.001829385774585505 
-0.5544437785276231 
-0.1367126878482152 
-0.00252553281283986 
-0.2052872105083208 
-0.2252990262848788 
0.05472416915537665 
0 
0.2858131947940643 
0.01399497116505303 
0.04328522752011416 
0.3829326746876848 
0.03510051579998563 
-0.4137465243307512 
0.006158834022832344 
0.5061046263407971 
0.5936977013714643 
0.05669555255587298 
0.0009382084213260763 
0.3437146525783042 
0.309152833348758 
-0.06508081164093776 
0.5106226568811076 
0.3174136096839681 
0 
-0.0009399800742000314 
0.4207444474685527 
0.03498281808800405 
1.38640235375389 
-0.145512903967333 
0 
0.08949458151575898 
-0.003878744455639872 
-0.3668842541827507 
1.505864078600823 
-0.1786257023237384 
-0.5199043810420092 
0 
0.1623751106233654 
0.1919702238535852 
-0.1962706014522342 
0.01725024427361697 
-0.2405656313761945 
-0.0674320527519616 
0.6986006048830257 
0.0515721041678167 
1.466558388290817 
-3.859042363320647e-05 
0.2763149047806931 
0.02181043131890319 
0 
-0.8160083935487638 
0.4177576738549463 
0.0308850794446773 
-0.3409024282571194 
0.006591771559459343 
-0.009435801004872513 
0.01324455958448093 
-0.2359910520477963 
-0.003493116932445385 
-0.2052077144416932 
0.4601257024680058 
-0.1188664708286819 
0 
0.08934242258901048 
0.1939867889689634 
-0.1419659282454641 
0 
0.4565227485701315 
-0.000392781907518521 
0.5901448035061645 
-0.6212189514960758 
0 
0.2722930869242535 
-0.115994866997402 
2.448141798338358 
0.2553952913008932 
-0.001763021851360271 
0.5106700943894411 
-0.1592562652546745 
0.3983789299711745 
0.140725028606781 
0.8887231771609768 
-0.1740349419021277 
0.7233238597100303 
0.715483996388305 
0 
0 
0 
0.2930373065874304 
1.115913723527445e-05 
0 
0.4759722552033119 
0.02100777708153233 
0.2012289005557205 
0.5954192427196758 
0.1605683274558106 
0.3806650034084038 
0.05929654343315755 
0 
-0.03739396373201807 
0 
-0.03361163620798817 
0.01140991254250692 
-0.3865088241084529 
-0.3096884221836658 
-0.1144611041903182 
-0.02171155492022274 
-0.2188110683170194 
-0.2765787300358743 
0.6197637558424837 
0.2691557668710788 
-0.132361000099968 
0.6318502915871291 
-0.4559215587691923 
-0.5061518882636689 
1.138096227760777 
0.08099327666306989 
0 
-0.08025987402387907 
0.0003429973531349582 
0 
0.3740723063019721 
0 
0.8486856804651611 
0.9282502090581557 
0.5430317015859294 
-0.4552007832385588 
0 
0.03711795889571278 
0.5997011794903628 
0.001155664859898584 
0.08130869745007779 
0.0861735938846605 
0.3705072142098902 
0.02712294472181073 
-0.07364603164324414 
0 
-0.02551208414317211 
8.591863257300851e-05 
-0.0007739894868052915 
0.6724752361670665 
-0.003232512227609286 
0.1026045233903383 
-0.003176536619481259 
-0.09706135341396711 
0 
0.6935467632843378 
0.1781589695595835 
0.4836995926687023 
-6.40368816065723e-05 
0.9705268523505735 
0.6731243190454291 
0.0660404708618078 
-1.229633975810358 
-0.5138092857159439 
0.1616608399761988 
0.005027609478752896 
0 
-0.03109664371388771 
0.09694647261547118 
-0.1305379377089796 
0.02212149057638896 
-0.3010051632687144 
-0.1439216211982686 
-0.7417633354947324 
0.4536505421568285 
0.463342347745904 
0 
0 
-0.401825997374307 
-0.8946214518398286 
0.2454885170614125 
0.06359405561463052 
0.04654483357886986 
0.1155940797455075 
0.002914564236486812 
0 
0.1904272238262291 
0.0003094107767848714 
0.265020356117711 
0.2811750144523328 
-1.139974922825648 
0 
-0.06698695468103563 
-0.09054619091662897 
0.008484221608893026 
-0.0307076190073549 
-0.004099861784344875 
-0.05019949913343197 
0 
-0.5812542721814083 
-1.100747362962989e-05 
3.409749590554601e-05 
0.1503157303395393 
-0.1107571619965444 
0.003711912516027275 
-0.008930414123775512 
0.07502837684865453 
-0.1456876669167353 
-0.2664021442158648 
0.394539490729185 
-0.1209876058614102 
0.1767398639418365 
0.916454656336208 
0.1309348694873869 
0.1288004624558333 
0 
0.1509936249399845 
0.033825005654809 
0.3789016720396405 
-0.2519140482981345 
0.01215604729234501 
0.02468653137067699 
-0.1916907047629103 
-0.4184358151183628 
-0.0101530102930904 
0 
0.2520868384945635 
-0.1731061288784322 
0.3976978801680406 
0.002060459391898216 
0 
0.02469275082516373 
-0.003095623588314211 
0.1410980106387265 
-0.1657904332702222 
0.2490086483033488 
-0.1851046521672177 
0.08795468659800564 
-0.4464780933660434 
-0.5948856091178237 
-0.177957197698654 
0.7955613180993439 
-0.0980996329260411 
0.007288570117986415 
-0.6150789272323787 
0.15756384673021 
-0.01906124330039984 
-0.01834807611391243 
1.08851939638865 
0.1139118224372097 
0 
4.0909767332527e-05 
0.01515508553484319 
0.03653175536155545 
0.02634366613014595 
-0.6109510589004403 
0.9565941783798826 
-3.360071325952145e-05 
0.06846367585429253 
0.3840936677012605 
0 
-0.3337371844400285 
0.0003966458789441258 
-0.003903276180723811 
-0.5142146937991383 
-0.3939315988166392 
-0.08402730360730673 
0.0936679638546071 
-0.3426418933158251 
3.409749590554601e-05 
-0.02125379257949722 
0 
0.03095484392312654 
0.05103536936012941 
-0.01575210500682234 
0 
0.4263008486428743 
-0.1647727680564858 
0.2887699490139944 
-0.000944667621914811 
0.507880095185778 
-0.3135415312801039 
-0.1038727545090708 
0 
-0.06915539746517448 
0.288757346409793 
0.02653214832970194 
0.2150413674018404 
-0.1717927134912453 
0.392320595672372 
-0.1148894739835772 
0.01053566909896032 
0.2066168454115992 
0 
0.01251215121044938 
0 
0.002913373291044987 
-0.3239265072813972 
0.0004067235244413489 
0.5759892304020909 
-0.205006845497224 
0.5478097408021114 
0.3265957902533499 
0.1723059459248337 
0.6706066955999485 
0 
0.1941903902271771 
0.8930404209445035 
-0.4982004145699584 
0.08901000653246666 
-0.0001128864727753832 
0 
-0.03556924909514791 
-0.00762346832137615 
0.312682567941209 
0.07887419013305669 
-0.1095580993352287 
0.524152557013976 
0.07751477571982801 
-0.1432758103231411 
0.05654182272246014 
0.2023928609120876 
0.0006908235543597425 
-0.6697702385752402 
-1.34410227218863 
0 
0.9667827503420172 
-0.0001932417277154953 
-0.1484410258318765 
0.1989969763693543 
-0.6801862536158017 
0.1055179842180598 
0 
0.05842346192102464 
0.6481203808818305 
0.008096875686644203 
-0.3129702282325177 
-0.8211378390919425 
-1.270341979213257 
-0.007173348635426756 
-0.0969265423088904 
-0.0008211107662630106 
-0.001100888722762377 
0.03229693388110149 
-0.05130616609504362 
0.04850556418399928 
-0.4149808811609774 
0.0229850065595124 
0.1690613472998099 
-0.0531982916512003 
0.5187148920413376 
-0.1020818494702161 
-0.1055701307837496 
-0.1442956935993157 
-0.2504751296065874 
-0.3036865804624401 
-0.5015811703517226 
-0.0002868921941305542 
0.01154096145604203 
-0.07356190355654829 
-0.09706167795203793 
-0.2048636759139703 
-0.1665868010903325 
0.7857983764468663 
-0.02272284565856628 
-0.2721902163772664 
-0.1420132024392623 
-0.104153630892663 
0.5319303048907648 
-0.7932091221623347 
0.8655478466577771 
0 
0.04676772802445257 
-0.175950332914556 
0.2740805809691627 
0.04961027423745274 
0.2467917399575595 
0.2193290732550865 
0.6888566658249595 
1.528611419011494 
1.369919195088316 
0 
0 
0 
0.0004553233160455115 
0 
-0.0131875849796269 
0.314701898434514 
0.04203844781480617 
-0.03326917160489358 
0 
0.8261949442907033 
0.2999780262812743 
-0.06529704757729642 
0 
0.04982943635001212 
0.7721729092710108 
0.3061020729758559 
-0.5104647426094596 
0.0002424407254293757 
-0.2080761812597464 
0.1811533348120071 
-0.1170914049201515 
-0.008761813685369747 
0 
0.1881017068229404 
0.0431914738722969 
0.2416883916633721 
0.02201786001043188 
0 
-0.06918184474249814 
-0.0007672390312537591 
-0.1898979889982816 
0.2527527599645458 
-0.05823254188717152 
-0.002999947497054934 
-0.1508063126947504 
1.16941795376924 
-0.1446844398801796 
-0.2066269693133147 
-0.4064086441631176 
-0.1583668952793634 
0.0007154292403619823 
0.4190651594057094 
0.002063700281825785 
-0.0831848063033066 
-0.09178295449203346 
-0.1864978477830459 
-0.01117127765093114 
0.07817176691704744 
0 
0.0008753004135729344 
1.32311657959823 
0.8584359139299618 
-0.005973869123378474 
1.471003946746907 
0.01243049354535743 
-0.01116143591880403 
-0.2302120744493816 
-0.283217594376756 
-0.08367625925347488 
0.0007787216313794388 
0.002379092320777143 
-0.006117333077649165 
-0.09555131950382995 
-0.1380642993165817 
0.1351909885028096 
-0.2707855928575407 
0 
0.4672337705425156 
-0.1111976129145661 
-0.9649402408364012 
0 
0.0002532746771429387 
1.027584535628179 
-1.027124270207864 
0.4199943572000849 
-0.1704862457830891 
0 
0.1776202722291049 
0.02728505974871474 
0.287914382214202 
0.3412033447319313 
-0.2506455641121818 
0.4306396174497168 
-0.7024152771908367 
0.3811287803876811 
-0.04858510370958057 
0.5413167016694785 
-0.03515922353369744 
-0.414285271733539 
0.6213527634308578 
-0.1877821005827371 
-0.05807726242238777 
-0.07862681317993697 
0.2984833269197185 
-0.05110560104569397 
0.09716408521550556 
0.4421982899006992 
-0.003957796030514005 
0.07953243900722745 
0.01195820471266352 
0 
0.3097792462247506 
0.001456949379702036 
0.001151413349816266 
0.0009884839975996887 
-0.1800131129791113 
0.2430813452058105 
0.9931027873441045 
0.003734556745965602 
0.004244890546251157 
-0.3338248829530999 
0.0979254761031659 
0 
0.000110846790860781 
0.1766019708190653 
-0.01527992978707674 
-0.02967467786031984 
0.3260787847480294 
0 
1.091740377506859 
0 
-0.08529817011669515 
-0.07405191075295517 
-0.3262844641418919 
0.2178385695308355 
-0.00642887442474635 
-0.007726705563108827 
0.02187079670847815 
0.02267753118125838 
-0.0002482173385384328 
-0.003794206460834123 
-0.04834121724437957 
0.55036368547361 
0.1773816557284066 
0.1514809186338638 
-0.7822308351300693 
0.05531148931331036 
-0.002887398549557134 
-0.09819378160505932 
-0.06516523754408157 
0 
-0.333382645408586 
0.5567511335165543 
-0.01188242258867976 
-0.01687515043252932 
-0.1850606300918746 
0.1393271227186266 
0 
0.1879296834130004 
-0.2638628934862526 
-0.1059500838127121 
-1.003392365724704 
0 
-0.04704471656263565 
-0.4575624773419274 
0.1611282919228095 
1.744347750657508 
0.2824509348452387 
0 
1.728266203272909 
-0.2035838124625817 
0.1345218102569141 
-0.1654365990086609 
-0.1147963219591413 
-0.4458154139005642 
-0.08412966029939735 
0.4808484845739706 
0.3273860189375858 
-0.4971616512834228 
0.3987389496046359 
0 
-0.1768162430757595 
0.2400407190437675 
-0.2456753874273102 
0.06916731523117939 
-2.051199311378611e-06 
0 
0 
0 
-0.2421360212719348 
-0.4897539191804691 
0.08788902508064085 
0.2865467107078248 
0 
-1.167905477138242 
0.0804357704329787 
0.02546306451260684 
0.04957353974711541 
-0.4930343309578538 
0.4754725324095256 
-0.09090821744782927 
0.1608611104056753 
0 
-0.1104629330586806 
-0.06439527123414958 
-0.06342954909486501 
0.2975424441576354 
-0.4646589237164155 
0.371125523380712 
0.05951819758948761 
-0.1004534070335603 
0 
-0.1241885481204109 
0.2224249689173535 
0.04504134916335525 
-0.02853761325967387 
-0.3051641416060128 
-0.1840561785370058 
0.3366669179837081 
0 
0.09778713162042474 
-0.1766556178510709 
0.01800586570133447 
-0.5058671257785403 
-0.3297669445620828 
1.264904624349295 
0.04006673252659188 
-0.402355541494988 
0.1649229949465785 
-0.06073212723480394 
0.05167247953011554 
0.2960173796679629 
-0.1111900161852789 
0.3062424510315939 
0.06242922712357739 
0.4658437586788675 
0.0851532914473653 
-1.291727477991367e-06 
0.09255794730640937 
-0.01029440564253492 
0 
0.04745303621964434 
-0.001002586562351396 
-0.8531292953448741 
0.2325352324274451 
0 
0.007202291105492063 
-0.6508911784823632 
0.06814395005223178 
0.0006903922152602545 
-0.3407231259661865 
-0.0579507902069643 
-0.07190716681587964 
0.3295643198571021 
0.3716317181389827 
0 
0 
0 
-0.0007398078046302512 
0.3067239274445825 
-0.5280996175825841 
0.00454260954651023 
-0.9666025223577035 
0.6149320860234248 
0 
-0.09154359933032073 
-0.0002388920205101457 
-3.504538712451195e-05 
-0.2470026873586944 
0.9731764469639648 
-0.182783775504581 
0.5634993088908213 
-0.466793178534783 
-0.1049527584881133 
0.05576541832193083 
-4.515310975995826e-05 
0.09360483199388818 
0 
-0.02528131488870964 
-0.2283322918374628 
-0.0006507847468767559 
-0.7415089744732341 
0 
0 
0.4712299544126622 
-0.4405802667424115 
-0.02032376877549114 
0.6395495685543641 
-0.1352952298833178 
0 
-0.01403211147518071 
0.1980572646719014 
0.06870117392416039 
-0.08571637710594286 
0 
0.0006382668954039222 
0 
0.1228124969324973 
-0.2564608075166263 
0 
-0.5859672539992884 
0 
-0.0008945271935088454 
-0.7369820954005437 
-0.1737924657212729 
-0.2402726946373486 
0.006523897295969455 
0.002898268704723321 
0 
0.004681431365877814 
-0.001732218770496553 
-0.0001004587394222924 
0.06748902797498738 
-0.169273640258949 
0.379932506508039 
-0.01498580959024506 
0.4182241941109748 
1.270991758485371 
0.04119516226275279 
0.009763102015697172 
0.3179190280961516 
-0.6783593330006684 
-0.2901717542649453 
0.5429659024032312 
-0.0003821431423694751 
0.07967682723552544 
0.2433421131292759 
0.1347722164015891 
0.0004616365230189559 
-0.2961871653026928 
-0.04580710056602862 
-0.7337218685787639 
-1.441137455697514 
-0.05512040685198843 
0.2748546298020394 
-0.2985692051207605 
0.2095685133348429 
0.02265516945433498 
0.3442343301823114 
0.318108224084961 
0.0003596140690032325 
0 
-0.6871711432727408 
0 
-0.07525137336990981 
-6.934708175184158e-05 
-0.1900733066189224 
-0.04502215417607648 
-0.0003539764175034931 
5.210992700351442e-06 
-0.07702581837330977 
-0.2448098151301074 
0 
0.0644502399476268 
0.1152894514281547 
-0.8177257613900554 
-0.5958979836140907 
0.1898511201376951 
0.005283360131948802 
0.07421840375278238 
5.08554054807814e-05 
-0.21774659813927 
0.00380039016896458 
0 
1.460686726561317 
-0.4153444301532229 
0.2106219454617524 
0.007807251861459984 
0.3881522266204772 
-0.3046602913926286 
0.1274877696575566 
-0.2168609860190143 
-0.1391259229273251 
1.463712590444143 
0.2351316799881311 
3.218286960025567e-05 
-0.2767485403743393 
-0.1743959922156435 
-0.01872377469618219 
-0.2828512578770286 
-0.5295529573191364 
0 
0.08803269253850385 
0.05917562211155918 
0.6289985954862856 
0 
0.4957291040577219 
-0.513528184320988 
-0.4291497205677107 
-0.04378063597520637 
-4.979061344454307e-05 
0.3780704155054665 
-0.1902917175452919 
0 
0.3072454527791713 
0.6934028538699051 
0.1800997584256628 
-0.08169860964325484 
-0.09000197925033367 
0.031213535433196 
0.9606924680005666 
-0.06386899220259178 
0.2817609060182239 
0.1428561791226521 
-0.1682891759908863 
-0.05610453612450604 
-0.2670469700838821 
-0.06820256072799977 
0.6903778402649465 
-0.06992518875143922 
-0.478380402478388 
0 
0.1352265651721107 
0 
0.9624763100894227 
0.1774527640176475 
-0.2722213125799205 
-0.01964648404051525 
-0.0512335758020975 
0 
-0.01383935819314162 
-0.3877911187885415 
-0.1424044324755346 
-0.1930680509369866 
-0.4507730051177118 
-0.1774856015338519 
0.2417557301687887 
0 
0.5269794628054094 
0 
-0.009821457281212243 
0.04564748370241559 
0.2239084678624473 
-0.02591366001457343 
-0.02405242906190068 
-0.4500390845840814 
0.08545331985066437 
0.2361270940817702 
-0.02144464784474295 
0.3756747314474507 
0.03483878793476579 
-0.1370731279736481 
0.005343955174620918 
0 
-0.808070924945044 
-0.415693654311079 
5.721093233669232e-05 
0.5718107781246221 
0.2297357019600923 
0.25109449047481 
0.4212203064508141 
0.08297803098134776 
-0.009315569445228582 
-0.07832303736586169 
-0.08580924707405556 
0.0003038741653755127 
-0.1357737867646148 
0.06529021460917121 
-0.06501392848828873 
0 
-0.04787174689331267 
-0.01804299552469265 
0.0005522347301564644 
-0.6880122476678376 
0.02829044111894973 
-0.0011757928960132 
0.3579296332109607 
-0.230738375140638 
-1.014274024620525 
0.02358621555781809 
-0.09880253672624714 
0.2921559805481441 
0 
1.489658057295045 
-0.0008892036308517421 
0 
0.001150317773979831 
2.235136203657209 
1.283401989525298 
2.784752531774362 
0.1532932086840899 
-0.3046067039726114 
-0.3335665973866411 
-0.2448342458607126 
-0.03609539912235789 
0.01224917975019924 
0.01802671044650657 
0.2279546045521076 
1.360621440031585 
0.1614151779353219 
1.139238246240775 
-0.08126296758805759 
0.144512902225986 
-0.2894844024797926 
-0.001049542525268806 
-0.1702538414758405 
0.003511405397929258 
0.000969978441824992 
-0.3401708851339057 
-0.2840844505722938 
-0.5039470192888453 
0.04978166227697055 
0.03395449785533802 
0.0878852214924625 
0.4438170195995181 
0.6347341242751239 
-0.206903575318334 
-0.5482449401215698 
0.1486102212004 
-0.3694526531514238 
-0.02680353908707051 
0 
0.30055907159378 
-0.008229026188442186 
0.01740537103407718 
0.1685259630154683 
0.5501954223246787 
0.2690689547153891 
-0.008971894274636009 
0.6942112236984466 
0.00416201883881733 
0.01395100936383112 
-0.193334520752788 
-0.000868118022312684 
0.002643594266161498 
0.02598666463765711 
0.01186502760564315 
0.03309926861453256 
-0.1158907817825291 
0.127571020998707 
0.2680650974515784 
-9.298698188850328e-06 
0.0003603875980654398 
0.00276806848677512 
-0.1224611972721298 
0.240968980207414 
-0.0002156819383843127 
-0.1251872342698749 
-0.2623726855492574 
0.4741525902525748 
0.1171790641857646 
0.05746055872337401 
-0.1396821116511067 
0.3929730101857036 
0.07245974773021052 
0.2012197479098194 
2.522067220616765 
-0.419162830107635 
-0.07156568064572413 
-0.07107646736617337 
1.12473750874164 
0.9022739355798289 
0 
0.4975072185575831 
0.05401015702398917 
0.0001336284046041053 
0.0880209568645597 
-1.553680445997084 
0.05421772272146319 
0.05927310995817286 
-0.2152915879808621 
0.09281904277897564 
0 
-0.1950499630184715 
0.1412454269930618 
0.2543921838484423 
-0.4993801774997296 
0.08364278033625748 
0.001117159836834756 
0.1232380796702051 
0.1109114830715767 
0.4666090298952604 
0.2779686476044574 
-0.07015111078120329 
-0.04320799569085126 
-0.1125513582278528 
0.09711252421055032 
0.1366797738231671 
-0.07416457088121267 
-0.02090251653416274 
0 
0.9802689836760599 
0.2425618971730961 
1.377358809777485 
0.9637589414888876 
-0.4687818072877429 
0.04034539811189048 
-0.003144221920763807 
0.09607477271220208 
-0.009449560810490809 
-0.3057472031620738 
-0.1965466230248065 
-0.06417568193112436 
0.1694033462440008 
0.1256495220342101 
0 
-0.2941469750754909 
1.039917867187899 
0.1659543937168758 
0.6685969998352682 
0 
0.1379500272983758 
-0.1112665597879558 
-0.06763505971125661 
-0.3148962568924837 
-0.0006133700282090421 
0.001252926308239171 
-0.1959039916658769 
0.0427093118248147 
0.02637139950708688 
0.0057835189001309 
-0.277320169383413 
-0.3571947033814059 
-0.1808189283602725 
1.165118960881447 
-0.001949449285896398 
-0.004117083207359049 
0.09003598068956402 
-0.01038978956849526 
-0.0001069856190301115 
-0.4136436337943374 
0.3067982584305169 
0.005644796450728656 
-0.06683609061348904 
-0.08470773621736069 
0.1189625596189735 
0.08536456942474305 
0 
-0.02355859565597844 
0 
0 
0.2543244688464782 
8.48336894496652e-05 
-0.101364976667989 
0.1264689757590017 
1.369470324853197e-05 
0.3529067102967008 
0 
0.067399551860537 
-0.04618881096315311 
-0.1502405114872594 
-0.1138944592965377 
0 
0.2859137131141761 
0.0124616413971726 
0.001586358145717384 
0.3882227503498579 
-0.0001150985422547593 
0.1944877781172807 
0.1612248197824083 
0.3905218552751187 
0.2978043566696825 
-0.4836604567709175 
0.1203440259461554 
-0.0004211677018894704 
0.02385181158027905 
0 
-0.217037678807999 
0.4287829451622042 
-0.1566442097955454 
-0.04181852469573352 
-0.1642781806323277 
0.04324821006980652 
-0.3194394228560071 
0.2968145358459136 
0.1247526156200565 
-0.2827356660807644 
0.1729346526191481 
2.927625515034639e-06 
-0.4430167879887996 
-0.1316414945672429 
-0.2182669222217921 
0 
-0.1692579312301152 
0 
-0.03576376111766733 
0 
-0.7213502065216159 
0.01574543594799269 
-0.002002121818251102 
-0.02722856900919705 
0.0001529935287378042 
0.2806534390804953 
-1.156871116200057 
-0.1402917312699106 
0.06571232970710073 
-0.03515921939453523 
0.5267305758343594 
0.002887987857573717 
2.920721861629112e-05 
0.1185841231529878 
-0.0008772861298241401 
-0.3057843024623623 
0.8230463877320486 
0.5744987298286329 
-0.0982161596547596 
-0.04232830574433846 
0.4760354805467278 
-0.005071228520731786 
-0.2056254501486647 
0.04571215258535243 
0.2531278039748706 
-0.006507929093755442 
-0.2365048849478388 
0.1257875773923173 
-0.413775105928904 
-0.08970875993599195 
-0.0002424811036325257 
0 
0.1217361230150131 
0.07597020485937336 
0.2985656024376063 
-0.4511213593968948 
-0.04946269300550576 
0.5080387873390688 
-0.02993849912076078 
0.3794415977892314 
-0.2344971719025908 
0.005709797696317709 
-0.0001115679186680581 
-0.1529601445672152 
0.8358711729412643 
0.4879141693122431 
0.01431768216101042 
5.224770201574855e-05 
-0.6261479791127993 
-0.001009756721744613 
-0.4691233734169175 
0.2423656881205377 
-0.6488479529510655 
0.4010590985868666 
-0.01039076732625431 
0.000651558536384822 
0 
-0.04616959584146764 
-0.005595489031889604 
-0.2264577325655466 
0 
0.001002311196495785 
0.433780099803621 
0.2198852624117676 
0 
0 
0.3798653759660365 
-0.04773976636385171 
-0.3388003939444243 
0.2525170821228135 
-0.3794695962392869 
0.1131317682055307 
0.01281653176666345 
0.3149672955261534 
0.9458891347879459 
0.04335531590632342 
0.4192129157458284 
0.1806607868668203 
0.6839450644778766 
-0.2456776747756643 
7.362515940125938e-05 
-0.7880050020080006 
0.2040843628391328 
0.07660637071489612 
0 
-0.1298771956906563 
-3.19728845494943e-05 
0.001994202170249915 
-0.1503429009652001 
0.2844295173001083 
-0.3177842065910925 
-0.1138251860927497 
-0.7570811404769997 
-0.09998701197249549 
0.5330459755981319 
0.1643457770859386 
-0.09183643715228906 
0.03176453613791123 
-0.00178176983692127 
0.1187913049278114 
-0.2317028424080316 
-0.007333714021467184 
0 
0.2604026915521515 
0 
-1.012588689721638 
-0.1673261458537131 
-0.453865016289299 
-0.004421615368316376 
0.4646331684120911 
-0.0002576078503704565 
-0.07527995848183805 
-0.04998758093778267 
0 
-0.01369443739681803 
0.03978384329045416 
0.00835263802453918 
-0.1700487601476958 
0.2434866878073408 
0.1925578783773762 
0.09590600419576679 
-0.1654509004593188 
-0.4095800190647107 
0.247886247604538 
-1.053470716538724 
0 
0 
-0.590616080859098 
-1.061641831978578 
-0.9375166794873779 
0.2982125814228125 
0.07330764033981216 
-0.1999316086939558 
-0.3324652436738239 
-0.000249639008218325 
0.03648979189068563 
-0.09373741017803928 
0.04379116592359869 
-0.3242831919010436 
-0.08325150702399042 
0.004035905054189123 
-0.008918027495260097 
-0.06335208910695035 
-0.3238773051937361 
0.06854145250727782 
-0.1951929467863576 
-0.7651951111925883 
0.01511749757647548 
-0.5058893806876834 
-0.6795867057305642 
0.0120339793639008 
0.6106068098516204 
0.004309609829155632 
-1.854568323894108e-05 
-0.005591082386999958 
-0.4450094884420948 
0.2878265268901032 
-0.008545203852994888 
0.387748520626139 
0.003357434452197554 
0.1508094964516161 
0.3087544410071931 
0.1585268592763585 
0.0006860649213122484 
-0.01264037945777644 
3.065836129948929e-05 
0.05527350386502067 
-0.2220263723771364 
-0.2684134638085597 
-0.01208749910136898 
-0.02591632491810154 
-0.09314505706895462 
-1.303932992406982 
-0.06120066103325717 
-0.8361661069147635 
-0.2190045093027197 
-0.06360005260115674 
-0.003722889040359618 
-0.001469739553222541 
0.08927831474576549 
0.01724365993552955 
0.09755065779247388 
0.2170466151825234 
0.8941399666123977 
-0.2582275998220909 
0.1698235301451352 
0.01291944227565395 
0.1754854438162666 
0.3065980492995195 
0.006580343574982287 
-0.1509259102434057 
-0.5562852552258087 
-0.01377816736783984 
-0.04021667509111748 
0.3193392776739507 
-0.01666669648025657 
0.02326283767214572 
-0.02425443801070119 
0.04918570502236261 
0.2278484957994956 
0.03852985366349172 
0.3253386604256442 
0 
-0.0305037567640371 
0.1193483879566491 
-0.0695480956078588 
0.4020254769135716 
-0.2746586889011255 
5.042863192705396e-05 
-0.2443304548743268 
-0.2338862300120766 
-0.5982199301904743 
-0.2176722644599794 
0 
-1.054627436141954 
0.1130502636084028 
0 
-0.2286599842181026 
-0.2222358266194923 
-0.7163650269927994 
-0.0006822859487686178 
-0.3171012870211269 
-0.5050859943740504 
-9.25038118398538e-05 
-0.6508339383425974 
-0.0005161041349724632 
-0.2791291312976449 
-0.6322578806350878 
-0.5013757968471879 
0.03199709377609841 
-0.2934747291581699 
0.04663395105044005 
-0.1869558250683712 
0.02477505754707009 
0.4170710811250298 
-0.7156241117665951 
-0.5893772423070384 
0.02733449717186403 
-0.5771543025902753 
0.7235039419377282 
0.07297471739798492 
-0.06561315627478231 
-0.162601863695223 
0.3954672724300416 
0.0001314121881472194 
0.001261285272394513 
0.0001805155900945833 
-0.3253924009947567 
0.004226936765946473 
-0.1669664769319447 
-0.06108205105544502 
0 
0 
-0.06872868038740634 
-0.3159232861262413 
0.07244725207654898 
0 
-0.0008108341589391965 
0.130123684476415 
0.03439298366467226 
0.04477380914104127 
0 
0.2036323437503884 
0.05715753442606238 
-0.0326429820373933 
-0.3801401126407354 
0.1780671895707445 
-0.07546667669678254 
0 
0.157173279684799 
0 
-0.3287907446944267 
0.2471895863706309 
0 
-0.1258906905643247 
-0.08946228428961855 
0.11201652476343 
0.0001160678604434025 
0.006063605787539646 
9.514948932798805e-05 
-0.04381416028530308 
0.02468653137067699 
0.06282531643977461 
-2.622265704320652e-05 
0.2905889739609383 
0.3603691456041274 
0.201918245099399 
-0.0001104643042538952 
0.03853595606780669 
-0.9423043922933489 
-0.31292924090039 
0 
0.2420112122695857 
0.05989037977185638 
-0.3486727618265276 
-0.2918125117433773 
0 
0.6772532782741769 
-0.01475169314143977 
-0.2681371643939132 
-0.04880803366449155 
0.2180725583919202 
0 
-0.1939301194597975 
0.1699010723740253 
-0.0505844350852277 
-0.1694249820250659 
-0.2894988871723808 
0.07694502095118552 
0.1831154213734576 
0.04447151957218309 
-0.002541604164302356 
0.02227637328917045 
0.651010684889502 
1.549276753038404 
0.08539322276160077 
-0.3202058922242993 
-2.818368121053897e-05 
0.2483338637481291 
-0.0764733333224208 
0.05550716798788385 
0.0468521781140076 
-0.4666994682716663 
0.0002577044121716664 
7.381056891340255e-05 
0.4837230445574461 
0.0478756971685803 
-0.240090782211045 
0 
-0.09656852244273556 
-0.000410350875793977 
0.5659168666416577 
0.001810205699283618 
0.141931562011216 
0.001839437268210853 
0.0168856935238909 
-0.01439130259231191 
0.0009960125112884397 
-0.5210470356601726 
-0.1758010728997965 
-0.1150061842345519 
-1.036370505291467 
0.09599503628845452 
-0.1289997048714267 
0.02608910868567944 
0.0005637513968679472 
0.3675607839453146 
-0.00200175005146287 
-0.649922312551099 
-4.555141059702705e-05 
0.006977399178375615 
-1.158913273062237 
0.0001298492501550855 
0.05841672189816107 
0.4685188196385882 
0.0525149650245325 
-0.07519317710756271 
-0.003065057480031199 
0 
0.9679960224968644 
-0.1070765706664259 
-0.03207105923425415 
-0.03736469387290343 
-0.0008887658093309911 
4.646602374002024e-05 
0.0001627179291892436 
0.02537181765641436 
-0.1740138336398527 
1.083239665505686 
0.1167903118491792 
0.1254597948363623 
0.3063795231501777 
0.5950030797977701 
-0.2301531388728419 
-0.1049986397070777 
0.8121654205202209 
-0.04040209726214 
-0.2095575431467095 
0.2017681113052107 
-0.4562664629594967 
-0.6818124847894588 
0.01076669921574974 
-0.384951427531777 
0.1051339069701823 
0 
0.3606056129382715 
0 
0.04351933989326194 
-0.001289829446417134 
-1.340044308265403 
0 
0.1257983927504848 
-0.1062463812286367 
0.2900566757164798 
-0.4384665711178109 
0.747884666684156 
0.09122184970070898 
0.05108623942442732 
0.01623666719666369 
0.001398470793186208 
-0.0005131907589145104 
0.04025524241566068 
0.3145110576979069 
-0.05778075263535885 
0.702490315138445 
-0.00904303460210755 
0.3613936869735648 
-0.2175986780525599 
0.07103150627533594 
0 
0.2090933863158218 
0.00222427993643301 
-0.05814028742384901 
0.1861659461888915 
-0.450772913372032 
0.3193819253926816 
-0.0580561379455474 
0.2856366586919942 
-0.00128255813813526 
0.05219556427220136 
-0.09455138466026659 
-0.9780203403053453 
0.5449470567683534 
0 
-0.9826098737491722 
-0.6710856255637176 
-0.002856895878707959 
0.8564267242238129 
0.0002841622992505237 
0.3759784894624179 
-0.2140100040864052 
0 
0.1848631251144147 
-0.1558208523705877 
0.09428846985446349 
0.3035762279919453 
0 
0 
-0.9322748468678611 
-0.007577037341493245 
0.01349852478674232 
0.4914352684662933 
0.151150596099601 
-0.808558634865809 
0.4911239293896388 
-0.002756623677204246 
1.155213949417021 
1.05437094487077 
0 
-0.4702750250578672 
0 
0.9624839038651821 
0 
-0.004419975435933798 
-0.4395361417464974 
0 
-0.3971717417395588 
0.2055009228202766 
-0.2262836896387531 
-0.09698179679006108 
0.7476346142908437 
-0.1118314625998772 
0.00561130387618681 
-0.1352229487556985 
0.2730093722789035 
0.1607793556473941 
0 
0.2382772643263566 
-0.0133227536588578 
-0.1803754117381889 
0 
-0.508051438112632 
0.6671076533690004 
0.09279935948039769 
0 
0.2226338735136913 
0.3072811877125131 
0.0001318710433658998 
-5.441072790106248e-05 
0.04820510354779925 
0.3920575789489747 
0.5898194046032601 
0.008754970484160875 
-0.06303717599089259 
0.1481404337660719 
0.01530372702282414 
-0.03830413696229244 
0 
0.234293481946707 
0.2232069464075089 
-0.1598326194394886 
-0.4881292900876968 
0.1207776489925988 
0 
-0.0006689791518700685 
0 
-0.1108027096942887 
-0.008111079206049011 
0 
-0.06683127202076265 
-0.334424714775647 
-0.6950058344381498 
-0.1173194144061378 
-0.1237022117962051 
-7.860841438321473e-06 
-0.01343184245775687 
0.2749334531045549 
0.3729879349896714 
0.195489729134807 
0 
-0.429586552769744 
0.1868715799170815 
-1.134698230760239 
0.0329158888134788 
0.05580005671604382 
0.7058269275133231 
0 
0 
0.6893814398613429 
-0.1195662160344649 
0 
0.0002753318168724038 
-0.2992593213382518 
0.3022627786344471 
0 
-0.004182694520058761 
-0.01106418891405267 
-0.01983094548875041 
0.03938604382863266 
0.3349798612575405 
0.04646767612010667 
0 
-0.03684759496120642 
0.1419939461856707 
0.01590843726714686 
0 
0.1575955857654686 
0 
-0.05351980687072116 
0 
-0.02382006348069473 
-0.0002438044111762607 
0.0567787721421287 
0.03016608431092424 
0.04831109531469854 
0.03557804406720564 
-0.169449675921573 
-0.4087602978116474 
-0.003500626866523288 
0 
-0.6379806801623296 
0 
-0.460042618108939 
0.001442175889267645 
-0.05856543091923044 
0.01312404125640933 
-0.008543364573846222 
0.01089230565640976 
-0.001713165245578206 
0.01061039660162871 
-0.5962767946083699 
-0.2358627084092824 
0.2539205809482957 
0.7344230341617239 
-0.06153026125113817 
0 
-9.16855345390307e-05 
-0.3690838602182943 
0.8222872764835334 
-0.003344268910302004 
-0.1185282098620733 
0.04366985342011865 
-0.000140997567202414 
-0.1107639944036476 
0 
0 
-0.000392773478980336 
0.2227951962374664 
-0.1374810480297507 
-0.2208391934950076 
0.0518441059750406 
0.02753130685386855 
-0.00379884292034316 
0.4602731658079979 
0.1129144280181603 
-0.004352216701019567 
0.2977714973814983 
0.09934044174452902 
0.1011551139164349 
0.2709445403442108 
-0.7295568321367563 
0.3736371040692671 
0.3066147330373057 
-0.04094582032291352 
0.5210268795926248 
-0.3948601663623855 
0.3041111332861052 
-0.02680978004207007 
0.1504880960377397 
0.3137741294697267 
-0.001202325644250665 
0.9880514073295564 
0.1641773258248558 
0.1657992534756778 
0 
0.8070995549535169 
0.01531604221469703 
0.3814648804028909 
0.5947883409290002 
0.3431551481901098 
-0.0001042203976611966 
0.690660805908663 
-0.1031177522663546 
-0.6562782225536924 
-0.4672662842259386 
-0.9076119768902997 
0 
-0.6563743411444364 
-1.045636249221374 
0.7951047840270032 
0.3757674173221024 
-0.3409238493078829 
-0.2317665802459381 
-0.09632592017577721 
0.265124777164414 
-0.02774854855529359 
0.3000193981821925 
-0.2734139510832193 
0.2714119101978624 
-0.002660951993450608 
0.0007302352541971931 
-0.6372238354336524 
-0.3089454983715936 
0.05869213474259732 
0.3843880599436614 
5.393990888992536e-05 
0.003627433404957467 
0.342142021323831 
-0.4961325248149012 
0.1699505839550448 
-0.2039418178047771 
0.03977287983796084 
0.1496844530301449 
0.4485201104235099 
-0.1733876574098937 
0.1075612244878205 
-0.4604934981889474 
-0.04748049609174734 
0 
0.1950800136186852 
1.454623711950233 
0.9303298869006577 
0.0590593457495255 
-0.3267720538448124 
-0.02751973412110545 
0.6599990378953382 
0.1642712239375456 
0.1854730469178227 
-0.2194498124672748 
0.1643789966719982 
-0.04006042547949727 
-0.3163455623985145 
0 
0.2202400643777857 
-0.466719768590277 
0.5458087798003783 
-0.006416114969493764 
0.05308034664295844 
0.2198228910327721 
0.0001190050700636966 
0.4065129825755017 
0.08053790144197875 
-0.2317703094755383 
-0.703500804314745 
0.1494805176324516 
0 
0.074263760995043 
0.005985108623093222 
0.5305052446274283 
1.568292053248511 
-0.4394884562627711 
0.30930278662098 
0.2005858726305952 
-0.238827486201507 
0.5591464005413109 
-0.0003324495169338487 
-0.03184747030801566 
-0.02193931912514283 
-0.0002382691538403144 
0 
-0.0001211952314949946 
0.2692983898070449 
0.4032166843267547 
-0.5487295471720575 
-0.1156847588158922 
0.005726308569745889 
-0.02566493176210389 
-0.0863148713870194 
-0.9486616866408863 
-0.2086412391414981 
0.03373326260903086 
0.1073294501581153 
-1.213863175137896 
-0.04810217933753666 
0.04307427654439221 
-0.000391428855055858 
0.001440128230808494 
-0.02816288022280887 
-0.2153877260618224 
-0.04663158919897419 
0.02602219518791303 
0.4286572437578373 
0.3949032825655674 
0.01476672700089644 
-0.08090442760034051 
-0.1126331576189952 
0 
-0.3346480597698415 
-0.06012032939582986 
-0.01312448518868382 
0.4077622201784998 
-0.5490323404883193 
-0.2254372248633288 
0.7284484797126154 
-0.2132198748908892 
-0.04766469011602661 
-0.0001504737444746268 
-0.7939352370303653 
0.1486387989231269 
0 
-1.062625377068604 
-0.3764919933320811 
-0.006512272937175948 
0.09975985432012541 
0.03113678311567339 
0.0783696451130398 
-0.1240576332492929 
0.06828550776988422 
-0.1271737428209146 
0.2525130116762425 
0 
-0.00194317997954034 
-0.002243604656766395 
-0.05018889836279053 
0.2594154622329208 
0 
0.1638062789003149 
-0.4456898158928159 
0.06761723341646161 
0 
0 
-0.03666804092062179 
-0.2525476551413353 
0.7018163623249236 
0.4560303710372281 
0.5890997176592951 
0.5369153736242829 
0 
-0.3256147497144735 
0.1183091925713401 
-0.7348663967043618 
-0.3735654025388646 
0 
0.2347065041554743 
0.1292443748638707 
0.006236329895895629 
0.1687557216831673 
0 
1.101731894967533 
0.01092356754811827 
0.3800733326776207 
0.04640112168536554 
0.03313131196277555 
-0.5031264809850897 
0.2738613688168514 
0 
0.002108627134715837 
-0.08639409776319316 
-0.0003800367826319082 
0 
0.06970964708743264 
0.06014088982703109 
0 
0.3679200698234534 
-0.2367712942948833 
0.0003171612765244589 
0.03610668892356456 
0.0001240301842498696 
-0.2159978978580677 
0.3753432533609141 
0.09607477271220208 
0.1317996015847414 
-0.002650966580650138 
0 
0.0525149650245325 
0 
0 
1.201587157455429 
0.2802832502674828 
-2.022041202276959e-05 
0.7380784240599844 
-0.1446106446711315 
0.1901040581236614 
0.6007635578590538 
0.3047274247367313 
0.07391917464528606 
0.4793234036096095 
0.1841978118669058 
0 
0.2020599502422874 
0.2504213598871898 
0.2976784394235044 
-0.06332975256359642 
-0.0691220737444791 
0.3277249728796795 
0.09418973372160797 
0.09739706023535397 
-0.1437312313556314 
-0.8855821447480727 
0.6100461746740846 
0.1777562172951139 
0.1135141665713645 
0.1634061200105736 
0.6360578282315241 
0.1563522971711157 
-0.06301273783499581 
0.3256030823564185 
0.05773118888627704 
0.4735573105826735 
0.09465993103275704 
0.4113015175764156 
0 
-0.03240945937178676 
-0.5554304743748584 
0.08289903714844024 
-0.06133116670996699 
-0.08243731610150162 
0 
-0.1443262726177068 
-2.445987967603847 
0.3376174584050576 
0 
0 
-0.4680767864768806 
-0.112948199897978 
0.008200340568229205 
0.2965697412950684 
0.2520033795701571 
0.09967252662226789 
0 
0.05765984260381548 
-0.0001433985523148989 
0.04435189597460104 
0.4612900740106165 
0.1990241458969589 
-0.04194384652189905 
0.02589916798088831 
-0.02692762690540002 
0.4299455965486019 
1.134224147436192 
-0.5557907807286082 
-0.002132348061651025 
0.08323601395821453 
0.01866129304210024 
-0.2661703361557912 
-1.149748548313555 
-0.1785458091672628 
0 
0.07411347856631778 
0.2378951338763775 
-0.09534796322719157 
-0.5575820655866046 
-0.07421612654526361 
-0.07134961819748742 
-0.0204414911775516 
0.3752697673282594 
0.4208145485592663 
0.01048032281707358 
0.06614553308188653 
-0.8453296270222144 
-0.6768387069084512 
-0.02375442799123968 
-0.2109270468919847 
-0.08699169674417978 
0.8686048458210307 
-0.00138874963469171 
-0.0007677759028106256 
0.1433340171773796 
0.08872367677238122 
-0.3437159563527894 
-0.3560252433673433 
-0.2286078261973043 
0.6063569519241382 
1.516231859758184 
0.005911654861025831 
0.01332551206447335 
-1.032510659860562 
0.4170414685339996 
0.06683494068411963 
0.1684137222970609 
0.1507192340556112 
0.4037039440330201 
-0.3824098019454024 
-0.1406457904879802 
-0.2252511071979394 
0.07040048174936583 
0 
0.3845272223269308 
0.2935436598207073 
0.006980959232038261 
0.562208444074658 
0 
0.002109056354712995 
0.08793811682041275 
-0.270976663690713 
-0.003339085700840496 
0.09519528560074615 
0.3716746302529976 
0.5163589624331533 
0.09320608597859105 
-0.206979381260221 
0.07310569536466607 
0.4550440836101948 
0.02978158815565131 
-1.283529833180356 
-0.3035424257848888 
-0.02058823421251964 
0.2268144682672346 
-0.1425899357179835 
1.222769527981614 
0.4416970650915899 
0 
0.05475225994073463 
0.0762661080885554 
-0.03358282377154868 
0.0001571751537681667 
-1.629553138863776 
0.02095910423983732 
0.008597546220643428 
-0.2302865643669625 
0.01365705391466179 
0.263001007895428 
0.02340344018242137 
-0.02765828586278077 
-0.4774982390486704 
0 
0.6587371478696478 
0.01999044589056138 
0 
0.4886942100573948 
0.3417161060286226 
0.6095643295678231 
-0.3475353024026748 
0 
0.2437980369514068 
-0.1075531998498284 
0.08538506442015972 
0.4434529422430155 
0.08900542228410235 
0 
0 
0.05414798247367715 
-0.0490989393214662 
0.009553736336787896 
0 
0.04804754212583216 
0.3140429497527335 
0 
0.01353976465212767 
-0.02082527697703308 
0 
-0.03964831600532649 
-0.2526766639942009 
0.168931628610943 
-0.6818967683902224 
0 
0 
-0.2087321832818614 
0 
0.2263275388668677 
-0.427508419845372 
-0.2000859384158167 
-0.1196471201660636 
-0.09257559223458368 
0.0007069415372721006 
0.0003871563860346851 
0.2365759704516411 
0.01623073130015912 
-0.275989530717331 
-0.212887765357983 
-0.128804622217284 
0.009174425742813496 
0 
-0.07365510499450113 
-0.5574838705831769 
-9.925442770958872e-06 
-0.0291215907085941 
0.07792393030168851 
0.1103430054402729 
-0.0001954597197592116 
-0.1282370251508717 
-0.1034788743709251 
-0.02732316563052109 
-0.2223901315860909 
-0.4260686105734737 
0.8190715368382586 
-0.3136862110594317 
-0.04716506139329016 
-0.7707670720520743 
0.2957594388962624 
0.05342505702704213 
0.5968998843194946 
-0.04475256669634275 
0.0914838035011294 
0.08137368175847569 
0.3830754687405377 
0.1108588921386732 
0.5845515397249332 
-0.004688967919048063 
0 
-1.12097096776479 
0 
-0.5240722081611047 
-0.03272827750703057 
0.5701854707434306 
0.2828168305472932 
0.5861600650365938 
0.0001951809150284776 
0.4467990048345138 
0 
0 
-1.039460108499658e-05 
-0.3878780473839178 
0.35014895877605 
-0.4897497654886386 
-0.3898071357619107 
0.004096409504690037 
0.0366351471434205 
-0.03478037937655566 
-0.7107539567178599 
-0.001201592240712506 
0.1026438778403859 
-1.386216459111077 
0.0009136784376842727 
0 
0.08312297754927744 
0 
-0.1540410217656258 
0.6671265764040987 
0.005174957026373118 
0.09133971088059678 
-0.01809841033560686 
0.08845115136885004 
0.4169291545547124 
0 
0.314751403890547 
0.6106975075737018 
-0.09633851569348323 
-0.838777157949565 
-0.0003831613781192931 
0.001236248242841436 
-0.9969858197601026 
0 
-0.07300391111196022 
0.3969801181404665 
-8.739807315881624e-05 
-0.08935241955137016 
0.4335698088586508 
-0.1003635126584967 
-0.1497402099195737 
0.2071600799545375 
0.01833494398702853 
-0.1160791904404104 
0.003110407952263977 
0.1768192483186791 
-0.000919891976783431 
0 
0.2967736277947637 
0.6864355662868842 
0.12998294361486 
-0.0009081667896874403 
-0.2857828251599716 
-0.08998864945556861 
-0.2126815701601188 
0.1225874799636434 
-0.3266805513352232 
0.04544723025013195 
-0.1131570927432121 
-0.07382968973877438 
0 
0.03048212421752972 
-0.3460071188355712 
0.4671026527334183 
0.01148508211968579 
-0.03524800324986428 
0.04776920153464193 
0.1759535976764507 
0.004569641680115568 
-0.2286416787548747 
-3.825295660915476e-05 
0.01049362868989055 
0.3159950399872521 
0.5302214389904717 
0.2157653229268846 
0.3048306464591298 
0.007800257456297421 
0 
-0.0320344761989256 
-0.08885798255204305 
0.02094209800439008 
0.4762176419494328 
-0.1021372006377114 
-0.1327542248546623 
-0.1386085725402129 
0 
-0.01240610870894929 
0.002550683564794561 
-0.3526154054924872 
0.04130351255664609 
-0.02723023346159263 
0.01983598094843869 
0.2238843735237925 
-0.2351493495326247 
0.6154754803117765 
0.02957052313328749 
-0.02191156906718268 
0.1038109775774164 
0.355318142505487 
-0.586298342290946 
0.0009142496473130497 
0.03456816947180733 
-0.001513401302724966 
-0.06064389623988549 
-0.0407110406928833 
-0.2361930091616053 
-0.7617212701366094 
-0.1524103570370139 
-0.9373416458395808 
0.05530812873056028 
0.5413245622658027 
0.1190353625242564 
0.1006580836708645 
-0.004336742976202348 
0 
0.9609727522637364 
0.6371679823678225 
0 
0.0117461352029106 
0.0117461352029106 
-0.2129041799641955 
-7.360075944546214e-05 
-0.03724779551569819 
-0.6194426898335863 
0.2884153868425268 
0.08821721508861821 
-0.03615253582049716 
0 
0.1807041633438785 
-0.0004769073464430488 
0 
0 
0.8957129549430349 
0 
0.3113711922371912 
-0.2470157463573381 
0.4693498802265071 
0 
0.1364334086818741 
0.01918758709400239 
0.08526692249467102 
0.002406252397436567 
0.6011731554527945 
-0.001514881141969878 
-0.0005110393927132744 
0.03128986857943303 
-0.05505696476833986 
-2.569054077981163 
0.3571817730634756 
0.002654420457212564 
0.5516952862124552 
-0.6329283615236931 
-0.0003305396958589579 
-0.1078284776542311 
0.001372731688172627 
-0.1306037202714398 
-0.09401318351842947 
0.3221074349565067 
-0.1309538238053918 
0.2029128422252013 
-0.132829416586358 
0.06005915652793765 
-0.0007048388424383769 
0.1282495359061801 
0.008440418623336764 
-0.0005002164488257265 
0.2669336161042316 
-0.6472671283766482 
-0.05742989981360523 
-0.4731282308120154 
-0.3058674022665299 
-0.5586489180286554 
0 
0.1301969209552953 
-0.1105110731510495 
-0.01666546598489204 
-0.2133273017112799 
0.2822524766962155 
0.1765667886180475 
-0.2735853933544806 
0.8348038107572431 
0.2352303392917258 
0.3388637792127471 
0.3393074061338732 
-0.1197102943804129 
-0.01179552364451952 
0.4409966430774213 
-0.008167474203092891 
0.0103394643923817 
0 
0.01035137839683051 
0.01035137839683051 
-1.110826561048258 
0.7712645823669171 
-0.1754857931538537 
-0.03212444025773441 
0.4289373773318193 
-0.06247086877677989 
0.09698931738711891 
-0.04480991034948418 
0.004500027071156623 
0.2960473371265977 
-0.04086978138987614 
0.06734187732731606 
-0.396352938246661 
0 
0 
0.004238704955514088 
0.005143585726053577 
-0.1111935399899758 
0.1605986834885846 
0.6730122792172391 
-0.3623587030147123 
0.2835627744690538 
0.1711538903560089 
-0.0006825032978155961 
-0.1913105833315522 
0.0008454448969092027 
0.04074829801930117 
0.04767587097155337 
-0.1613934518688885 
-0.001807728372617717 
0.009195360583583797 
0 
0.1217968033445096 
0.02259875895176353 
0.07022866431656062 
0.1676530474914119 
0.005211645014467979 
-0.05148588987745478 
0.06882506685201936 
-0.1392190046277645 
0.05617658449002237 
-0.001653958762362742 
0.533339768964841 
0.06723200799586089 
4.28162736563985e-05 
0.03318216400334097 
-0.2540210753178663 
-0.01279822525034482 
0.03158295310619144 
-0.05848705127067895 
-0.420072316133791 
-0.4553191411969879 
-0.0003245429973745317 
0 
0 
-0.0733930825004673 
0.5253293292357275 
0.02277260389203091 
-0.1407885661240237 
-0.3754691053328205 
0.1134824983973514 
0.2061768970183689 
0.2025883502174919 
-0.09755492924261149 
0.3381801067077493 
0 
2.423847126816163 
-1.30183308440716 
0.5807347963977723 
0.2159233923480724 
-0.3485485442770665 
0.03630614462336441 
-0.03780133919542723 
-0.5583205864576973 
0.3978843132493779 
0.3120499091195005 
-1.010255304463568 
0.4560467887239016 
-0.03902282443852841 
0.7334900900926408 
-0.0003240282932358204 
0.02477505754707009 
-0.3671626120850572 
0.04657600787760134 
-0.1647391150574388 
0.144896826749885 
-0.0130875043153094 
0.8546769481889257 
-0.2396647087949869 
0.313515499042042 
0.0009094022152546591 
-0.5154314509864755 
-0.3187694961573254 
0.4271798055801908 
-0.1573056727131969 
3.283771579865947e-05 
-0.06955088398820897 
0.3324682708683215 
-0.573435293078814 
0.05756934444679171 
-0.01085186589769781 
0.08977761662486361 
-0.0004804271993756771 
-0.3213806409975739 
0 
-0.0002706865186774529 
-0.06100209618916007 
-0.1033688325396669 
0.3100521513626597 
0 
0.2855349662716781 
-0.0966328253885122 
-0.03825208346966481 
-0.09898078771956612 
0 
0.2155896982822693 
-0.20680128166198 
0.00193047624259561 
-0.0006085207040319512 
0 
-0.5577108418192214 
0.009511143405838515 
1.208245410766487 
0 
0.01653059730140074 
0.3731483018794922 
-0.3934704908954363 
0.06062852587260247 
-0.02167391842173879 
0.1499418382085594 
0 
-0.1586205556673598 
-0.02322700955410491 
1.261008062466688 
-0.2752482782705278 
0 
-0.8412172286853439 
-0.1259786831487901 
-0.4197481008117855 
0 
-0.1195774210344891 
0.4014856352918831 
-0.1801022001675243 
-0.720040346982032 
-0.1397252129381596 
0.02479841708360392 
-0.3995832598710287 
0 
0.0001231568093366117 
-0.1845611993261101 
0.1185915576082481 
-0.3253499279138595 
0.323171526946602 
0.03983329476666688 
0 
0.4597605443873731 
-0.3605628199106782 
0.1028016065439844 
-0.01081536821485038 
-0.1034853030993249 
0.1026706775005524 
-0.1209619271364758 
0.01203246694272543 
-0.009698051249181314 
-0.1615175738519502 
0 
0.3577998804198722 
0.1480986888512304 
0.1206443104085017 
-0.3870057003107374 
0.1195863269758464 
0.4465005054701534 
0 
-0.359228482906851 
0.1330797083991932 
0.8499941127560451 
-0.0004079977570972385 
-0.1109818349882012 
0.2772588247431868 
-0.0386344730730121 
0.01666169186107143 
-5.022844830469125e-05 
0.2573968240610313 
0 
0 
-0.3446917559535244 
1.139031846268765 
0.6952240843660716 
0.4354467705107206 
-0.06575905544573724 
0.06438515913127946 
0.1855024893758768 
0.03109066033280021 
-0.7126961093220665 
-0.5149206717472299 
-0.1249518835617471 
-0.1343114261179292 
0.03980670670861024 
0.0343256385658163 
-0.188242680472782 
-0.7308016695663908 
-0.0142432282204377 
0.04972979647160994 
0.5616308693917541 
0.8965379268487057 
0.5112242803329113 
0.2984322266547078 
0.001754543028057023 
0 
-0.01934411571540582 
-0.2141003504125804 
0.03932814023149014 
-0.1049822836681706 
0.1435729381669662 
-0.1313478685827389 
-0.2420880332767197 
0 
0.2252823295443145 
-0.01015868138001706 
0.2614048731927718 
-0.3957331974867176 
0.001012725210815897 
0 
-0.01533296172264334 
0.1646135931814057 
0.01245011068202208 
0.7436631983701174 
-0.1094345945726245 
-0.167268434686856 
-0.1917943413172836 
0.1336040310895412 
0.1401465030734294 
3.124676189107756 
0.1521831335755956 
0.1092334443136279 
0.6685585418793782 
-0.5677833634303265 
-0.2253984464682673 
1.180597070841971 
0.3506102610371824 
0 
-0.00316867132644975 
0.2430023618060914 
0.02059754490513128 
0.8640247292813805 
0 
0.04866541736514066 
-0.3096721786719277 
0.09451654661414845 
-0.003711767818787781 
-0.0008894553712113986 
-0.09432118164519201 
0 
0.1696885371600305 
0.0375328764809643 
-0.1006324790622529 
0.2723754241731233 
0.4381829950894024 
0 
0.0004828491489902807 
-0.1149354207605918 
0.2872236609017944 
0.1905920127532091 
-0.227730496377026 
-0.9482288769588058 
-0.3949233564460737 
0.379660364279505 
0.00271534851923357 
0.07359838228097038 
0.591562163429117 
0.003374470250157971 
-0.957089975337124 
0.0002315343207931783 
0.2912912118427957 
-0.005594443625157125 
1.497209563187478 
0.0009628877644832774 
0.3367398392842893 
0.376492860992871 
-0.004535913855213226 
0.2098558721109528 
0.001159404432428134 
-0.404650566160299 
0.1635899313541724 
0.1407772121778441 
-0.001561467893967358 
-0.005000964754654118 
-0.01287425361698985 
0.4067069281182008 
-0.2593282389656948 
0 
0.04138011454234176 
0.3543635677238423 
-0.1073130927430951 
-0.07306756181726823 
-0.03446225038243996 
-0.07885445351225584 
0 
0.1797410209326958 
0.1756638008053272 
-0.1514274638237182 
-0.1881667595000755 
-0.08443221027741077 
0 
-0.001916295841060422 
0.002089933292743884 
1.132332509354937 
0.8440136707569017 
0.004333273870624006 
0.7248316675678503 
0.4733146459115901 
-0.153154789507589 
0.03612870209146094 
-0.0003314861596989373 
-0.2772419054106477 
0.001154042151021151 
0.4612441799932407 
-0.5991314417296938 
0.3515818684124923 
-0.08117743008769553 
0 
0.1244697376707168 
-0.1660459407249818 
-0.0867860539005349 
0.07993144089018064 
0.3713336297579984 
7.8275267983469e-07 
0.5360483376281546 
0.0003784053194635953 
-0.261266895747326 
-0.00546263379223396 
0.231029898820205 
0.1602813890397136 
-0.0781571868236378 
0.03299107513751623 
-0.8631333105732506 
1.121783620382283 
0.2288208503734166 
-0.1328810045174194 
-0.3858828070575966 
-0.2142981240036877 
0.1219901623576466 
-0.7661586146717463 
0.5290138753626052 
0 
-0.6188056549906564 
0.7007020701248386 
-0.8385810333282075 
0.5497576596543967 
0.1520507021768674 
1.009729570802552 
-0.1183823930352085 
1.170139741244358 
-0.01283700205824317 
0 
0 
-0.09995779165930815 
0.2066437328114269 
-0.08683956487832939 
0.02498656223837202 
0.6016765611361263 
-0.04816931241215989 
0.4291479758222291 
0.9531065794415474 
1.100247652013587 
-0.01201446347924594 
0.0951539065188492 
8.521679422354264e-05 
0.6552296104750716 
-0.0001763727749075578 
0.08214693786142792 
-0.2080031068209492 
-0.04935773965186981 
0.5891265670332525 
-0.006705800076681986 
0.01709995734869073 
-0.1070846353287474 
0.4218764981420994 
0.04875608506970927 
-2.596179039255856e-05 
-0.1962355990651652 
0.07739575449131694 
0.0005732470470130146 
0.1872242808929149 
-0.1926627316683665 
-0.02368437410013586 
0.3827444057442451 
-0.2226295854006252 
-1.053580995395306 
0.1602575971611558 
-0.3933673226996389 
1.269308619648355 
0.09359935129429683 
0.9257968850628775 
1.32165652187343 
-0.2025428069780745 
-0.002324903422183779 
-0.5036963587886342 
0 
0 
-0.3256146761698598 
0.508579144883639 
0.1111352261728846 
0.1223592246441201 
-0.0100550377653461 
-0.1659678575402654 
-0.07342292621814996 
-0.07940779611296507 
2.16430667929067e-05 
-0.006343658079276582 
-0.2173391609902048 
0.4935297160927847 
0.2950453826931077 
-0.02297667448091255 
0.6613194078567882 
-0.004815033391135294 
0.613145395339412 
3.478020484793142 
0.4001028256101187 
-0.1971320846906164 
0.2025730882908326 
0 
0.6342641440073835 
-0.001611287418030963 
-0.1157753568202542 
1.518269702769423 
-1.138994877859554 
-0.1048807527141226 
-0.9110288512034465 
-0.1758926353232368 
0 
-0.0003881891400024536 
0.4516828891994 
-0.7782517518093709 
-0.1556556691092405 
0.3559075017914645 
-0.4622596929685707 
0.2318650335723387 
0.1944749282082988 
-0.5470464545528004 
-0.435516744001641 
-0.6187243269349496 
0.2769869554259917 
-0.005089329095225503 
0.09911926822489339 
-0.3518693862410589 
-0.8477185597991724 
0.6254376481307524 
0 
0.7276131497380213 
-0.09534981721368756 
-0.7812257930065509 
0.2269806057305343 
-0.0006049548385696939 
0.1323438596421265 
-1.086656721310918 
0.7150402173182984 
-0.02248316802470661 
0.180304439729248 
0.505809909034257 
0.2533581391618425 
0 
-0.2150070736197408 
0.656136870376767 
4.012900160829184e-05 
-0.02415513155023839 
0.003027162933423813 
1.025101617269395 
0.08891556496849143 
0.2844775995916863 
0.2126419216198485 
0.1125726662980186 
-0.2957842630091129 
-0.8958091020428369 
0 
0 
-0.08476346588378117 
0.006500733906555404 
0.1687676078137694 
0.1453431377191362 
0.1187814503501923 
0 
1.246842763141472 
-0.6315611676389514 
0.06103409488097969 
-0.1638955694678564 
0.06189758672402366 
0.4669029175192723 
0.0007911453111794348 
0.1070215522706913 
0.4799453832058677 
0.6583414611272875 
-0.04256862562738754 
-0.1689484111254221 
0 
-0.3937307293940034 
0.007529995765508099 
0.5543133547692043 
-0.2805350013810844 
0.06800773727323409 
-0.1524066727796386 
-0.02681056710620967 
-0.8321496647088316 
-0.4602136060140186 
-1.136695141792444 
0.8518244340051336 
-0.01283255212919886 
-0.00341701195621541 
0.2272792408421738 
-0.288814820684729 
-1.031150511230732 
0.7340007621926863 
0.03255261644083095 
-0.05091978584824625 
-0.006374497765243558 
0.1972030886524423 
-0.06687599522450639 
-0.2189718440333962 
0 
0.1515625301088986 
0.2302501011062065 
0.1345057411056094 
0.2664457585151204 
0.5683693126951007 
-0.5359400729766384 
-0.2246201674593582 
-0.3549944204079658 
0.08052412997165129 
0.0002207954966248762 
-0.000804214694688412 
0.1749156811712744 
-0.1045585251552101 
-0.2476817001454951 
-0.7621800126510663 
0 
0.02659863433943251 
-0.1309489334848196 
-0.0005920211911963387 
-0.1984351468345144 
0.001595614974534319 
0 
0.1033868379544602 
0 
0.5799922355872449 
-0.01487001235565625 
0.06748902797498738 
0 
0.117329897857168 
0.4066563641208365 
0.06982908619854368 
0 
-0.01317684679838647 
-0.3035059073074335 
0.09180918068025165 
0 
0.08978226910446176 
0 
0.08946890602905036 
0.00188565314420221 
1.658267004786407 
0.101206023687047 
0.02826114442701984 
0.2092752987993891 
-0.004819189849746698 
0.274220034771028 
-0.1531073241308828 
-0.4018707602640763 
0.0001463027674660943 
0.000459147381692929 
-0.3271101449739204 
-0.3674663321186803 
-0.01834313429072939 
-0.1878964103511566 
-0.1220534750043337 
0.05212135464246558 
0 
0.9210499728450723 
0.3409307500420128 
-0.5699804752248576 
0.001239205490294298 
0.9799129222544293 
0.007685353507127462 
-0.2074392069470058 
-0.3666106281525399 
0 
0.3772313140396064 
0.06263245110686216 
2.258522662115709 
-0.9077340903226017 
0.5836822543030935 
-0.2839565347659231 
0.2625980916940129 
0.003270886287653432 
-0.09436339588344242 
0.5081544159861701 
0.03242448433511043 
-0.02402001872794159 
0.274067626708147 
0.2309003116259226 
-9.131725122569138e-06 
0.9549871797591791 
0.01864434429714812 
0.1020381788948844 
-0.1170770333073076 
0.006194836330546105 
1.744479250962684 
-0.2472512065907891 
0.345658413489929 
-0.1680972102131398 
0.0279197417851099 
0.05504459875972024 
0.7397659727949246 
0.000276295884418593 
0.2117750890418072 
0.5040093805810493 
0.02576382616431809 
0 
-0.1122274282044171 
0 
-0.4882766341584293 
