solver_type L2R_LR
nr_class 2
label -1 1
nr_feature 47236
bias -1
w
-0.1525852245519487 
0.9901976848096613 
0.5773197135260751 
0.8139558646958673 
0.538938878548073 
0 
0.08069455551719792 
-0.5020663907472498 
0 
0.2505312801504844 
0.498575166380404 
-0.3809261201824415 
-0.1842394057548641 
-0.1285618318009233 
-0.343967569198652 
-0.7081593995811478 
-0.4624952867932157 
0.1011999819536233 
-0.1128572768112307 
0.01375045287277562 
-0.01087704878456527 
-0.01356972317047924 
0.2493141756347018 
0.03846664430607746 
0.1670241777110545 
0 
0.05502477754060281 
-0.5804460298585083 
-0.7964305188443453 
-1.399230048030575 
-1.529876526111233 
-0.758216827950108 
-0.0385870889070623 
-0.05758930840747107 
0 
-0.05757168900927707 
0 
-0.2081161247908837 
0 
0.3406360272224028 
0.4201685449948716 
-0.04281684094811454 
0.4570563016766721 
0.2065712568884396 
0.8234112235234029 
-0.01826923419577099 
-0.03933147761073286 
-0.2536791343462879 
-0.1905646074762046 
0.8997434752181019 
0.3384296052126981 
-0.6213139630311073 
0.4419459743947907 
-1.13474977486736 
-0.003840622501762732 
0 
0.03988875193964009 
-0.2163802812609155 
0.0004132576371381863 
-0.01579088145989085 
-0.01084834166365931 
-3.430471175133101 
-0.0009354217814961326 
0.07932828247694931 
0 
0.01508245110866301 
-0.5906710842685148 
0.1732246639519818 
-0.6939354227042009 
-0.5326867382985893 
-0.004512502243564473 
0 
0.1814669365443495 
1.845340873347475 
4.781785715621641e-05 
-0.1778546195226624 
-0.04464282029269966 
0.1638142946075996 
0.469333161384871 
0.003509251548589572 
-0.3429650855926989 
-0.01564514150857715 
0.2675533978833693 
-0.0004951044425173605 
0.02083913291967268 
0.01439232750669324 
-0.05325861454189288 
-0.5107910649059273 
0.007164837759275148 
-1.082562339075836 
-6.504302700261887e-06 
0 
-0.9468222360915849 
0.3699754056335466 
-1.98623078915602 
0.1111883692769073 
0.1060824711950023 
8.924288718457473e-05 
0.1678580126097547 
-0.256092946497813 
0.358962023934288 
-0.01914302975258118 
0 
-0.05501641213444572 
-0.02284416909423014 
0.0100195820974647 
0.02196478747136264 
-0.002561353986001599 
0.02844331574397954 
0.006807559870869794 
0.02844331574397954 
0 
0.002701522745402291 
-0.002512869511483391 
-0.06501708004043971 
0.01124970855051153 
0 
0.3061661505801176 
0.07718233806664382 
0.1106672441826231 
0 
0.04494812809499771 
0.01356765474859566 
0.03904808690419012 
0.02629358988532678 
0.005546447992195505 
1.682676912768533 
0.5181950623351341 
-0.01187742257946895 
0 
0.3301458511493111 
-0.06451496729003595 
0 
0.01725039635815267 
0.0198909054454656 
0 
0.02501326896716017 
0 
0.0178471652821618 
0.02501326896716017 
-0.0727242948181408 
0.02501326896716017 
0.03362185923094331 
0.2939827195746287 
0.01066019461919634 
0.1846249865130367 
0 
0.0137749281997784 
-0.8218555909138689 
0 
0.09676847030261601 
-0.2366417481643601 
-0.3013603207157732 
0.2058784605169277 
0.09676423282263642 
-0.09387190988102469 
-0.07744687567640486 
0.09563510910723258 
-0.3925535503120036 
0.2406126697856059 
0 
-0.1020397626048642 
0.9947160812840392 
0.0764256850738658 
-0.5149617832836517 
-0.2139223184838821 
-1.016261648383016 
-0.05732372222356082 
0.004270941246468428 
0.07753361529694715 
0.1398472216601003 
0.05083841270149209 
-0.01017462372459787 
-0.008120386419420896 
-0.1936952111035551 
0.3939272426330387 
0.0357302826689012 
0.2764988869048914 
0 
0 
-0.2598697193824093 
0.0001698695269022432 
-0.5760340299240886 
-0.0007476792145112541 
1.800845567748421 
0.4674236984699543 
0.1356021926636961 
0.9400346477725796 
0.01726127633609727 
0 
1.530922103081889 
2.170243996141732 
-0.1851992201693825 
0.07815517104966926 
-3.857252592922675e-05 
0.1523042811426276 
0 
-0.1130866191231482 
0.1791636550741106 
0.2781358060006613 
-0.01315026646639907 
0.1957057583172713 
-0.1900314247121862 
-0.07880657222756034 
-0.03243980222815477 
0.03644573788152446 
-0.06362644836434918 
0 
-0.1579353298151801 
0.0214942788834535 
-0.06221566953003241 
-1.050035510437128 
0.1021548158860383 
0.2175800120310985 
-0.7719345234646867 
-0.0324067530144037 
0.03258018964550522 
0.009526253000501785 
0.07586737618330487 
1.864004071504131 
0.1431781540313436 
0 
0.02645920817607692 
0.05180774948989458 
0.685497179442576 
0.0001231240773538157 
0.6144843263895207 
0.5663907590143678 
-0.2192450187778384 
0.1217675281114341 
0.40798074664171 
-0.3284233156598401 
0 
0 
0 
0 
-0.06240617252712093 
0.02262849737495069 
-0.001929567323799643 
-0.1037131077832406 
0.003787819541584315 
1.451991778369568 
-0.0967114715897642 
0.2321595984116891 
0 
-0.001863755320049717 
-0.09432105621837304 
0.001089222746924034 
1.05237557278999 
0.4168134606343721 
-0.1836566550720265 
2.18804208072701 
-0.1139816579705526 
-0.01371730919196873 
0.2031373809014372 
-9.917753018898781e-05 
0.06012678365612058 
0.02177823676166507 
0 
-0.8082071859597009 
-0.558580515743927 
0.02625997861319004 
0.04785164629739176 
-1.415814506088366 
-0.08050896105823999 
-0.3634760117445437 
0.2873567712144365 
2.919312792071503 
0 
0.02893647227762033 
-0.8614674121673489 
1.012645360554229 
-0.01364054707950087 
0.3711396564292715 
0 
-0.1145979352693941 
0.436180566702639 
-0.1493260200432752 
-0.02045824079040267 
-0.03100401959856367 
-0.09722314418449553 
0 
0.1840880394164962 
0.2460083536059688 
0.6458714560951029 
-0.2249238199245313 
0.05180227606862685 
-0.3111064091403544 
0 
0.05739879247518852 
0.3487128996744008 
-0.002606794128484202 
-0.4395490444802078 
-0.9160104503738462 
0.04512855126545164 
-0.005664231893388521 
-1.141221069984985 
0.0258861551506354 
0.1877259005805055 
0.1896858976241197 
-0.5152674622209468 
-0.006013539769727429 
-1.742714543561763 
-0.8168198575943246 
-2.31884483212572 
-0.1671394269166274 
-0.0006124076185113878 
-1.650112751156362 
8.371702452150357 
0 
-0.7030393035336262 
3.821816840710512 
0.2527715437222388 
-0.1542515416186271 
0.06247952531175379 
0.2678720407182829 
-0.9999574996324656 
-0.03193965724451688 
-1.020687551629714 
0.05152976654031838 
0.005489418272077532 
0.1270834926644483 
0.1581982022924218 
0.02570400112055792 
-0.07171734812863161 
-0.1093963672990006 
-0.06350584548666856 
-0.1429126392669628 
-0.06524746462793654 
-0.2884192628863482 
0 
0 
-0.1304906409657546 
0.01138744753517989 
0.05642578130100597 
-0.002721242317300053 
-1.651751139432105 
-0.05695750516340906 
0.00299015465504943 
-0.08374274143128606 
-0.06415903051976202 
-0.08493949578796418 
0 
0.05832645627142419 
-1.135393371086459 
-0.008024710560156098 
0.0003739203078237386 
-0.1832737895321019 
0 
-0.02096389215943545 
0.05139682111733501 
0.6098060399881271 
0.01096061816292361 
0.07705325362994139 
0.01034885145056387 
0.397077628046724 
-0.356588127383511 
-0.2001834521514506 
0.0003994556043938866 
0.0225336470663912 
-0.5372374633703093 
-0.2932819176965606 
0 
0.1039369880236738 
-0.1255415015510779 
0.1953227600271971 
-0.3116521654809458 
0.1294173231561106 
-0.358092902885653 
-4.09049267077464 
-0.002745032121666023 
-0.2233353759230772 
-0.2075416683185039 
0.871978652111099 
-0.03670734603908601 
-0.366155799684719 
-0.6502819666816873 
0.06584527982355334 
0.1916048448385269 
-0.004789580817244971 
-0.4587459649251653 
-7.308212339004704e-05 
-0.008229664146214444 
-0.4323743463452512 
-0.005696485761338688 
0 
-0.08059197238635984 
-0.4202896841362418 
0.03832607607393739 
0.3958630672172373 
-0.00168548883280125 
1.097214244279683 
-0.001152321241144085 
1.701187954093145 
0.3484593105323362 
-2.506286942659609 
0.1130982150456733 
-0.1874724172060865 
0 
-0.1212581973347734 
-0.002331048041941417 
1.876307024022422 
-0.007966191672426397 
0.02602514976613565 
-2.52513472539927 
0.01939088337486868 
0.1624281058000976 
-0.1810865303301575 
-0.1278681076756841 
0.3604239635326899 
-0.1176073994187916 
0.04644443021750171 
-0.1347403841753312 
-0.1804745667274111 
-0.2546986925536089 
-0.01538216784158328 
0 
-2.573222693297145 
-0.216664964400833 
-0.009940805966304207 
-0.153482690286027 
0 
1.663193174363707 
-0.05620800108242828 
0.0263781439171703 
0.01686396420034849 
0.0004438502017934708 
0.001728781199383268 
0.3261187404109089 
0.4550307420879913 
-0.278559805412701 
-0.01393754129893282 
0.01818728831354495 
0 
-1.68081731805759 
-0.4665606544393328 
0.1541852579395742 
-0.01023981511596829 
-0.04031559860474325 
-2.857742460054934 
-4.769957875648182e-05 
0 
-0.05075842276203395 
-0.9838426389823721 
0.0813631958923062 
-0.02464629654172625 
0.9076287713128857 
0 
0.002889598430531544 
-0.04044324856656695 
-7.392003833277856e-05 
-0.681011696015993 
0.1444054343572308 
-0.102487531294001 
-0.05244106712130656 
-0.04949374912288834 
-0.3966276596918111 
0.0205942924574998 
-0.1668064459310515 
0.05392700908096321 
-0.4194602781359474 
0.4141216863895432 
0.0007296874333872422 
0.07772071997955185 
-0.1112863454453169 
-0.03763031196061552 
-0.04843184260822263 
0.001961450172940268 
-0.1772871890799655 
0.03209101844993145 
-0.06939446942109434 
0 
0.2124969324625607 
0 
-0.04732435039332978 
-0.2633852457727204 
-1.061823477140136 
-0.5972944798364735 
0 
0.01716797932207773 
-0.005142221812748477 
0.07654473647878468 
0 
-0.1111514932571196 
0.1313843838144316 
-0.1455593833427847 
0.04886798107042964 
-0.007175214433334211 
0.03326190806816953 
0 
0.2313853107947242 
0.008210961125535269 
0 
0.051161974612284 
0 
-0.0807833952503519 
-0.001186416738773946 
0.08923428184459724 
0 
-0.00376057381787045 
-2.407052200623651 
-0.4943564588415506 
0.01420830552514414 
0.01538457657224088 
-0.0851481069053225 
0.5769621431563284 
-0.01343389102323713 
0.004519495402440435 
0.09017198310231425 
0.03346480959985178 
-0.6086613732404925 
-3.590404944744394 
0 
0.1892804149387302 
0.004964936537258681 
0.8384844268765315 
0 
-0.005011496556024053 
-0.9474992312823455 
0.007235892557135553 
0.07665265573022569 
0.03964813438502555 
-0.9721817251383187 
0 
-1.988435508332959 
0.5648503164837724 
0.191772653512567 
0.2222174223182151 
1.063373302682604 
-0.02734141487466947 
-0.0195829322740551 
0.07774349554712612 
-0.09404842380667025 
1.348884279651784 
-0.9621349645445634 
0.3016687072565591 
0.0002695129981770404 
-0.3384875304973597 
-0.2870673453550496 
-0.172751890588269 
0.001037381852767553 
-0.2563200739560781 
1.350176839560851 
0.009100061779502549 
0.4408469171041679 
0 
0.007471203253464906 
-1.482191691198161 
-0.002240370175806148 
-1.103424702845067 
0.001594911840401256 
-0.08445951409283649 
-0.2112949478382831 
0.2099774514808885 
0.09597359310910863 
-0.08099911199601466 
0.07686766002751853 
0.3291853958449815 
0.002823475241621786 
-0.2316861009010718 
0.5399349453009896 
-5.118668757720775 
-0.2614651223618112 
-0.6314381107852722 
0.2196418654534831 
-1.049318138575249 
-0.2373021778396716 
-0.1527898807310401 
-0.006510751656694831 
0.08128613270467021 
-1.005996686157941 
0.09656333525032838 
0.01400101375176134 
-2.60157845478402 
0.03150531693986501 
0.2550393236906223 
1.659578022302641 
0 
-0.00825919675641229 
0.09311033683279733 
0.130294909258028 
-1.034543413302814 
-0.06862661734508796 
-3.528360637428556 
-1.268492538939049 
-0.6306048021230264 
-1.299392735637007 
0.4361594574778705 
-1.330275496494535e-05 
-0.02938327509246093 
-0.5241735309736831 
0 
0.03027060780424041 
0.0007765362897116689 
0.2297864603883854 
-0.1987977062653222 
-0.1619022561819066 
-0.8792691192921049 
2.012104830267349 
0.04201222751311361 
0.07668145043994981 
0.02015815943583979 
0.6462839284940454 
0.02979228613863056 
-0.3176972411197618 
0.2120107327785076 
-0.05647528199538767 
0.4232186488115234 
-0.2187259020994871 
-0.1647530235060255 
-0.06374506676519012 
0.3082320598185073 
-0.1318194954531165 
0.01153369001220383 
0.05494746088784592 
-0.02368391682239709 
0.06283153465802931 
-0.1186789668734109 
-0.9077456087003126 
0 
-0.005796167455889864 
-0.193281397730581 
-0.1451521711311857 
-0.155999462063547 
-0.1884938149412623 
-0.09244804168075804 
-0.0563572078315548 
0.2348068267846763 
-0.002886562675769489 
-0.9219878951211732 
0 
-0.09270675695466582 
-0.0009052034382309989 
0.453617037274737 
-2.185343285513619 
-0.9585947449551213 
0 
0 
-0.0116683558175617 
0.1313386803863357 
-0.07206865664941188 
0.07807030934336386 
-0.004318824095653966 
2.973187972426524 
-0.1851807905713321 
0.1093556367503995 
0.06838839366714272 
-0.1352318771509306 
0.03492824311566205 
0.005920223547556759 
0 
-0.3219156473504617 
-0.01649688749037267 
0.01237483706329481 
3.633217419721593 
0.6398036711938762 
0.6346307086014357 
-1.728920044642826 
-0.0876700235022885 
-0.005668691365838879 
0.245740241245066 
-1.422131897419211 
0.1160684220253016 
0.03765303243910008 
0.7889643756026123 
-0.3795455205893606 
-1.461258000927879 
-0.07459564459975437 
0.05929702391701449 
-0.09885912908691794 
0 
1.078326646810309 
0.3947878937945148 
-0.2065060057678712 
-0.3683323848229281 
0.1522511751800574 
-0.06252491918508006 
0.03365895135641436 
0.7185573839404623 
-0.2922210211741683 
0.1294857898287902 
0 
0.2242972093670255 
-0.02578610192811568 
0.007920603434795002 
0.02778816867702637 
0.1139565040585984 
-0.2778304617246292 
-0.1104143948992409 
-0.03197300422929834 
-0.1383791931970392 
-0.5877749593344126 
0.0001522292700419888 
-0.0561509228006212 
-0.1218494938595502 
0.3583898582251649 
0.03946584827294811 
0.2188561067587726 
-0.06523903426557648 
0.4049266484420156 
2.460281839208931 
0.3618435380490607 
0.02458461447151328 
-0.04670216136595131 
-0.001816807394336157 
0.008568736718652681 
-0.4875250296273999 
-0.1141897316173469 
0.0353993030696802 
0 
0.01088079877105104 
-0.1979206285524895 
-0.7479185195028607 
0.04731384522014953 
-0.06332819159403641 
1.757663501430131 
0.1168643062517036 
0.1100765423691332 
-0.1970538291313443 
0.4667771320964178 
0.008225744115962552 
0.7799041845875982 
0.09425544786118753 
0.6424034973145262 
-0.02675892679795144 
-0.3951865338721803 
0.06042994002649258 
-0.3355597816684985 
0.105300622074256 
-6.023348442211454 
0 
0.1252439201656295 
0.5399679525163543 
0.0827477393552036 
-0.1858586426396738 
0.06753047556349495 
-0.1016229740261189 
0.01468584908737641 
0.2828503825573178 
-0.0678970046610463 
0 
-0.01472056514719884 
0.01670976093690397 
0.253058688492947 
0.03902048472616996 
0.426712553729427 
0.005115973356113287 
0 
0 
6.266801505753485e-05 
0 
0 
0.05417476939843884 
-0.2585631145123634 
0.02076537349474504 
3.010443387418085 
-0.2071523363158715 
2.525268090155599 
2.090864310451875 
-0.006962748843030431 
-1.631809316406007 
-0.04595898834553272 
-0.2099463722618265 
-0.5286366542051505 
-0.004418173097669176 
0.05899994518899019 
-2.858284196531817 
0 
-0.06043484089769062 
-1.00605957689126 
-0.06078820898636162 
0.01331804337520647 
-0.2052469508991192 
-1.129331391683259 
0.1965985902517824 
-0.2937161086940411 
-0.1500180052482673 
-0.0840269768599963 
-0.00381249594809478 
0.00925703724452405 
-0.6587998714810821 
0.3973782941654685 
-0.6839640691931781 
0.0002769934185625403 
0.1967827603367174 
0.01132987852432262 
-0.6448776754823211 
0.3429318762885184 
0.1190327269306845 
0.07395645462819952 
-1.184196460096622 
-0.2963628918009685 
-0.4942918744197735 
0.2574173480105615 
-0.1292932571290512 
0.02766831246357573 
0.09907105681659704 
-0.985409213059202 
0.1832495976789558 
0.1031887803138608 
-0.03883086612847778 
-0.1333401499988541 
-0.02414394364059955 
0.004085821649027403 
0.1148396208410143 
0.001333788784717119 
0 
-0.7652096913795946 
0.1984285283642912 
0.02257065646155811 
0.1169922258098242 
-0.2629612032833279 
-0.1502570912597097 
-0.25624389286021 
-2.204369898044444 
0.07898591397965272 
0.003263381462274209 
0.006249124840802108 
0 
0 
0.03918015467626876 
0.08986390852317401 
0.1826381842137492 
0.3649521095390603 
-0.1728930444069958 
-1.307529215425978 
0.4267062099628457 
0.04568838812759207 
0.08011525329864315 
-0.03205827837148074 
-1.082629627545155 
0.6917982591848248 
0.05278383095143539 
0 
0.002290504357745996 
0.03650639542465742 
-1.414727667833911 
-0.05444679815089105 
-0.07640839995019996 
-0.004762716311006644 
-0.5479131620404778 
-0.4992388179844782 
-1.329059190143859 
0 
-0.9700391868170041 
0 
-0.9478057236497266 
-0.3388843937328718 
0.0007402327955264639 
-0.1318245018257778 
-0.3397843220647566 
0.06510312748782299 
-0.07506587219642427 
0.03215224229385959 
0.1106379847682231 
-0.273838088397037 
0.02823400253125637 
0.008171077482525884 
0.9908006050662261 
0.1183580578701474 
0.0001971950480376086 
0.02039031388367874 
-0.001005772689045863 
2.949468899701081 
-0.004246170876024 
0 
-0.1275598454828047 
-0.05144192081749338 
0.03239531041759985 
0.745608132257 
0.06578215422261685 
0.5034743410604662 
0.8046275074041179 
0.7162169310239123 
-1.170180577103383 
0.05604324176855018 
0.0580413359653814 
0.02047144934117075 
-0.7551669124095742 
0.140842677324882 
0 
0.09113046853773765 
0.2646108064062989 
-0.4416217200558623 
-0.1229617688501747 
0.01593757775074263 
0.001815959424548502 
0.09933964908339968 
-0.132449968033548 
0.03530580756619824 
0.249677606255273 
-0.02913179306697043 
-0.1378960359245747 
-0.1926944736801254 
-0.4906412984535753 
0.06723158628657844 
0 
-0.003745127978235087 
1.473702117003668 
0.733659954703641 
0.1431475226521614 
1.229565898991448 
0.3371625959597875 
-0.02490065452594405 
-0.8031969331200575 
0.07036223093093169 
0.006754829854401865 
0.00115526073209419 
-0.08843090248565447 
0.6560010914218903 
0.1432183227586096 
-0.04673490536647016 
0.5867302753430867 
0.5946682984036811 
-1.620597934832912 
-0.01487612369583178 
0.6166737774261004 
0.01247056702002828 
-0.239764330494588 
-0.001665826668946587 
-0.02670290311434687 
-1.8565273625963 
-1.02138322090016 
0.9847035566631981 
-0.1104551852115371 
-0.9413688997729055 
0.03689934764710969 
0.1097168401547803 
-0.2699169108009799 
-0.1198762083990375 
0 
0.1222494968018942 
0.1994819367311295 
0 
-0.0003553749175207723 
-0.06395925602239014 
0.2907192111250191 
0.8728166673072264 
0 
0 
-1.148480316396792 
-0.02301577329993267 
0.9017365496709294 
-3.935201633959831 
0 
0.3492443636567124 
-0.2721633804636437 
-1.322809467554237 
0.4785609971949661 
-0.03977202598111133 
1.601449718192207 
-0.4306057862354013 
1.189518465960796 
0.3371381181038506 
0.02556815920745458 
0.03927806493950266 
-0.3117378460270452 
0 
-0.6927594201256058 
-0.6496539981708913 
0 
0.02468564773256935 
-0.1834444917634164 
-0.02451497225026525 
-0.2011342311778155 
0.01623207366228393 
-0.02224703867355744 
0.02141456712835961 
0.04359104678938753 
0.007037119669564012 
-0.1127385336470849 
0.1144829749075016 
-0.01010654818172763 
-0.02939744155569534 
0 
-0.0003807232025059703 
0.00103146250581491 
0.01226417343824556 
0.002223633177764473 
0.976762598967104 
0.04940455347395944 
0.01800647592885609 
-0.008615998116692523 
0.4254123553334941 
0.03421606637033599 
0 
-0.06455457852660837 
0.02559601153822025 
0.2700951110507652 
-0.1138010878490502 
0.005757281344349325 
-0.228635379835932 
0.0489861370249846 
-0.0005808942648007783 
-0.0433678955694041 
-0.1320016788453487 
0.8798843819612315 
0 
0.06105109757084619 
-0.0003162023578194989 
-0.08729912930472133 
-0.07232464925015106 
0 
-0.06572427507155833 
-0.03866239609352023 
0.1404943656378937 
0.6071346561987289 
0.1335919123434136 
0 
0.2558286554963207 
0 
0.02980888373124363 
-0.4705365806012781 
0.002368898598637319 
0.06380696269415084 
0.1508319522838866 
0.356499235084105 
0.1281930480424595 
0.06423241054043553 
0.02501326896716017 
0.1306015264942423 
-0.1406749809201865 
-0.02590014917286179 
-0.1896691147885903 
1.467889845255037 
0.0001250137184020842 
-0.104845664720451 
-0.04643691007919496 
0.05721811320768318 
0.0359420426457432 
-0.1303623121882639 
0.2340164601449198 
0 
0.04382000843246472 
0.2312856288340959 
0.007743625109862314 
-0.08527611263062251 
0.1444331325898698 
0.006341306144328778 
0 
-0.04476472063618803 
-0.001574105521992708 
0.1774064179054985 
-0.01972963212972598 
-0.001797868985577683 
-0.03859823995559223 
0.009874365647921284 
-0.04768098165835824 
0 
0 
-0.002873680768674084 
0.1015236051869264 
0.02108814065893175 
-0.1422943705640219 
0.5589542623341064 
-0.5950114114219356 
-0.03443743694004733 
-0.2209137971605135 
0.0003106489130141452 
0.06362728986823915 
-0.03789937886903806 
-0.08985728236994789 
0.3740347582172564 
-0.1782104315641624 
-0.2750048740920357 
0.04218771049341079 
0.02501326896716017 
0.1637390111258213 
1.587710250182202 
0.2208108106402452 
-0.4703178634068556 
0.270702415893284 
0 
-0.001394205086292151 
0.6241411474622811 
0.2465546107185606 
0.57870013267867 
0 
0.3741842723481187 
-0.4865942808410088 
-0.4162231923051695 
0.04160591391635317 
-9.002524082822e-05 
0.107897671999853 
0 
-0.1214035100473706 
0.0424917151694373 
0.6201958327650943 
-0.1419534540985444 
-0.03071857051879176 
-0.4376411019552415 
0 
-0.34380420993302 
-0.4442696347502751 
0.7103449597380056 
0.167837754478373 
-0.3709020765629782 
-0.2236636208910048 
0.006070503541261645 
-0.1711013841501822 
0 
0.1812808152486693 
0.5658423517782677 
1.376741440676346 
0 
-0.02998127444430406 
1.21123430564735 
-0.3700299882535198 
-0.03392616781655829 
-0.04082194779085579 
0.003925736157523133 
0.02251243412735312 
-0.173878923449449 
-0.1569647652935156 
-0.2595162400760678 
0.01052348189369712 
0.004109789220171834 
0.002589138140595322 
0.07451282060337644 
0.02578171934473423 
0.007572258964168629 
-0.1946722505784121 
-0.5835056827308516 
-0.1716574157974252 
-0.04058925196205519 
-0.03164662913845797 
0.1784713429544065 
0.1751542569856474 
0.1424282112774063 
0.1819188517915165 
-0.3118835438550256 
-0.1981194892418994 
-0.01456376802024451 
0.09554752676030293 
0.1053108073513665 
-0.02028881541608698 
-0.7503729100607193 
-0.1445332062170274 
0.02251571141295652 
-0.0001043425273920457 
0.136845830282735 
0.03766728283663837 
0.04949425791785525 
0.02818429800294501 
0.577146405231977 
-0.0136533955478191 
-0.06821292048235715 
0 
0.5800807873523937 
0.01385050358359552 
-0.6681075656924113 
0.03569342986561504 
0.03612686303301053 
0.05161960898012252 
6.776214046761569e-05 
-11.64665569972789 
0.06031345725100068 
-0.0002375442729373793 
-0.1240996777722495 
0.9538812783425261 
-6.353089930146633e-05 
-0.001155657521859657 
0.4661344589963605 
0.0003349995145236349 
2.929478634811672 
-0.07162953000472005 
-0.01269640977805125 
-0.2199665645228712 
0.0866267105133376 
0 
0.746590239909503 
-0.02168973162287 
0.0005256786661881534 
0 
0.7019411407185746 
0.1978987496766683 
-0.8927443181718121 
-0.02421087532424049 
-0.07288327479078061 
0.1572297748785834 
0.03610822427680861 
0.1659901529251845 
-0.04233851227563933 
0.159340720466113 
-0.1494041898722166 
0 
0 
0.6707458423317681 
-0.201956179247422 
0.2873245101512724 
-0.03645241802044335 
0.01591882737305611 
-0.1269804791771569 
0.5636372208575313 
0.3499024342872327 
-0.4839882059917114 
-0.003260363953672346 
0.133588146734222 
0.2106058472072959 
-0.8882365635865141 
0.1135169133740573 
-0.1089417363210301 
0.0528842720574648 
-0.1798544260938328 
0.02922324564856998 
0 
7.679257102974563e-06 
0.176276181710148 
0.1935575016388222 
0 
-0.6940770442921453 
-0.1086371268951477 
0.04709790361592871 
0.03377665940486331 
-0.007612920381290319 
0 
0.286623016332047 
-0.07116902547510964 
0.02426512646861313 
0.08913344290453627 
0.07039291312686055 
0.01678719187246822 
0 
-0.023067676486278 
0.3766632879859306 
-0.3194437730808437 
0.06859947152260069 
0.2265393864283719 
0.3544286982638906 
0.06070894141607495 
0.3082740793722222 
0.02501326896716017 
-0.2248814673642811 
-0.03928753016851758 
-0.224689880965059 
0.02555593305777368 
-1.126507110341973 
0 
0.2920738636173286 
0.04114987151811949 
-0.1559786570183119 
0.2583095973325939 
-0.0199664559812148 
-0.7678870218677398 
-0.03129773738860836 
0.02322754637907574 
0.00468511509605808 
0.6011992692757084 
0.05934895168104949 
0.07949354151352103 
-0.0001281523049102566 
-0.1627916722245165 
0.04601555479120462 
0.0002903962873331058 
0 
0 
0.2393100001681112 
-0.1207988668652506 
-0.5039895433937864 
0.01634003238432491 
-0.1066485201271699 
0.06544324810904155 
-0.1291504505532111 
0.006243474044852772 
0 
-0.087892005356886 
0.01801954273587413 
0.7829114571630313 
0.4929809991359598 
0 
-0.05337999231168836 
-0.0912710954435499 
0.4002250569090992 
0.01382565957329372 
0.07177451750545244 
1.791820355576657 
0.9607763933602771 
0.01640127939278897 
0.05779069691791532 
-0.1572532629278888 
0.2080080771921305 
0.3139864093952217 
0.09587668610569841 
0.3769348843414424 
0 
0.971571576382369 
0.01337579291665028 
-0.2327495101235695 
0.09466415206088236 
-0.752134295670297 
0.2239147936881903 
0.08487792897768803 
0.0001818013933609312 
0.04387848112992514 
0.1571069746315704 
-0.1070571869586262 
0.2558576214313209 
-0.5324017766024601 
-0.04511138467827673 
0 
-0.4463669723656392 
0.2004898343121358 
0.0005248410568916605 
-0.3716664181170584 
-0.01229032368089627 
-0.004957421091441874 
0.1846374722824635 
-0.286638085456243 
2.540898345739556 
2.389669269388424 
0.002398454714519592 
0.07303676910610754 
-0.3369847468127136 
0.6515161788412864 
0.0898451415322461 
0.02799549700033207 
-0.01755168644082068 
-0.2019536089550946 
-0.1549369194836555 
0.1822765930427226 
-0.06141410380257013 
-0.1144512070283604 
-0.0300445519735294 
1.262175023245743 
0.04572526056901476 
0.09604110075725381 
-0.01004293106317412 
-0.01559350329319094 
0.1315597832051047 
-0.008420420997138262 
0.04724455555750647 
-0.7956796628222137 
0.116527439731012 
0.9708031672231063 
-0.1541116816910251 
0.06789378984372696 
-0.002274901500769478 
0.01572054793797262 
0.1166703180203894 
0 
-4.403337041315603e-05 
0.04097668153162738 
0.0004963697005850173 
0.0327110534245918 
0.431494610656268 
-0.09067968566125328 
0.3755520928018686 
0 
0.151047741700453 
-0.7267044221480885 
-0.04301474385189285 
-0.04182852666859475 
0.008795420821157276 
0.1294135764525138 
0.05994180537411534 
0.1106545789335226 
0.01322401024415942 
0.6752674407614037 
0.2073436155883147 
0.7864599653025193 
-0.1161026925513797 
0 
-0.005664788324773574 
-1.031307115857301 
-0.4449625865175697 
0.2611034873482062 
-0.208923679183072 
-0.01178759630747318 
0.003767437341361394 
-0.1051678022824553 
-0.0575298599638085 
1.577255815836161 
0.1591227855823159 
0.01979057981679653 
-0.0264788560215228 
-0.04433773842795601 
0.08784491070596173 
0.07389535741228828 
-0.2893823237105567 
-0.2202518088774503 
0 
-0.196542959110605 
-0.3541787113805002 
-0.6915516619212713 
0.2907613360948226 
-0.03598588824825406 
-0.146358400501358 
-0.1011075942117798 
-0.4813369147481091 
-0.07598170098258686 
0.2715495985352261 
-0.1219565705466008 
-0.04119327188230638 
0.05201341934404254 
-1.24023335784549 
0.5340882120591977 
-0.9832993834416245 
0.0008142921671005964 
-0.01209199865593801 
0.0004383936468692455 
0.4961772517135876 
0.02118739710082138 
-0.9462908446650435 
0 
0.8827894807574479 
0.6093534267750417 
-0.1140418629789475 
0.02175506028649607 
0.00235866325376574 
0.0597755801342898 
0 
-0.01736057110731661 
0.01820811435211166 
0.5314869878441359 
-0.6397028957807323 
0.0003253386215875837 
0.1783571638359057 
-0.003139446082414673 
-0.0006192067993352799 
0 
-0.01126035190317832 
-0.006395160029822097 
-0.1723923326777641 
0.2831560030422947 
-0.002438813976045897 
0.0159457537959813 
0.3594509635769517 
-0.1222994936343853 
0.03605240073140983 
0.05110500740915157 
0 
-0.007751306989281575 
-0.00551020896007373 
-0.1558914592540331 
0 
0 
0.9366500795872212 
0.0116013867718496 
0.8708661085378681 
0.6896572923811153 
0.5832618654346114 
0.06875830839380825 
0 
-0.01159687120223373 
-0.003365644119564381 
-0.9183673440367242 
0.01886200472724067 
-0.07804726536721784 
0.101170334867488 
0.1191045063976066 
0.5182610946935733 
0.4344176024707204 
0.009487818002939508 
0 
-0.07146988701088243 
0 
-0.1043236663292932 
0.023035488453461 
0.0002975005613597545 
0.1911654464039947 
0.0804438237427969 
0 
-0.1914880999064873 
-0.2189410153196574 
0 
-0.01105568775061954 
0.9772432939671521 
0.002116673393539726 
1.108905761978995 
0.04644855074146485 
-0.2471958237093374 
0.02139126012684488 
-0.01969036702845365 
-0.5749907074215468 
0.512938388766363 
0.2642196888026459 
0.09010088675705835 
0.04349471380014078 
-0.8646332848180941 
-0.1130993426790373 
-0.04099094142100153 
3.495636086209648 
0 
-0.3675736184082665 
0.07083445112378267 
-0.3220181022487137 
-0.8817475996673615 
0 
0.3031212775532185 
0.08263824710897372 
-0.1238227511106434 
-0.06335354937877014 
-0.1082049360824362 
0.4575356412508325 
-0.2568918042794437 
0.1094553002613123 
0.0003283774233865347 
0.1300174123344546 
0.3844390197843592 
-0.12859158415415 
1.139821124542335 
0 
1.400592939326746 
-0.1086002858420941 
-0.3120849542089097 
0.07135952179300309 
0.0712041056304033 
-0.5125075288109271 
0 
0.1577360959657588 
0.2966832045133806 
0 
0.7140958517548845 
-0.006290649981092314 
0.01897860241429663 
0.03328365477488709 
0.1440251071199641 
0.9131986451102173 
-0.1820553025536102 
-0.1916789881797657 
0 
0.3825777329092714 
-0.3904347450914071 
-0.04144198358411274 
0 
-0.02011197504393795 
-0.0008583982536624405 
0.02310840152525109 
0 
0.05823586671679463 
-0.1428501513463024 
0.013075318500875 
-0.04113726507655703 
0 
-0.3633127124039305 
-0.0207299995776086 
0.0005036433037870827 
-0.009313073221788811 
0.4455236525022743 
-0.02655621368999232 
-0.2843095095359927 
0.0004777489485951868 
3.591263595419866 
0.05971552849695377 
-0.4628678431992907 
0.01191671814181744 
-0.9545864124721014 
-0.09314549263595974 
-0.04957144501826931 
-0.03830117521700808 
-0.04835942153495147 
-0.8456941130487223 
2.302663288379744 
0.1957317617145538 
-0.01519583381735313 
0.1808865127972848 
-0.002764924573612938 
0 
0.06460846677375527 
-0.0007778266965494344 
0.4733406487163613 
0.001233119858296525 
-0.3043380508358864 
-0.1629779096432606 
-0.3210125573046408 
0.1695782525541219 
-3.672906651071647e-05 
0.1205047376824668 
-0.4610497768937347 
0.05894165071578923 
0.934371837019053 
-0.06379548654467158 
0 
-0.04889811629305683 
1.495075884448875 
-0.2478424632225962 
-0.6810350580151655 
-0.1841507585024309 
0 
0.7129731803668187 
0.1097555355068445 
0.4749391195248624 
0.0001154213384171537 
0.002077842101604246 
-0.02342419612481187 
0.9853651136319146 
0.2006973834609975 
0.211716443910572 
0.2594010424592655 
-1.143880286788453 
0.1743444250733786 
0.03624583288273667 
-0.04170582450511251 
0.5357260508287123 
-0.009071256960600424 
-0.182271533711799 
0.000483150194730011 
0.1094110068624931 
-0.6621728013328869 
0.02164211824091282 
-0.5158142476464547 
0 
0 
-0.8090797195162374 
0 
-0.001628572459681006 
0.04721676402952705 
-0.2485270599601047 
-0.001005785829325045 
-0.0391245883119786 
0.7720341315333553 
0.5278250728428845 
0.3926396598133335 
-0.2772808487427729 
-0.002236231805572414 
-0.0001939002633635509 
1.986955896565013 
-0.2739532055745971 
0.2519643151840594 
-0.009907262415769492 
-0.4929457779274634 
-0.006331436870367829 
-0.2439544656223488 
-0.0780321868886508 
0.2472274589587693 
0.0009997303948080299 
0.1839812015389827 
0.3235171120117873 
0.3046127627101906 
-1.043728514235398 
-0.1447981718940287 
-0.02075318264638229 
0.06579550727346849 
0.2362896158867718 
0 
-0.3011596800074557 
-0.2595512502787294 
-0.1807103779188624 
0 
0.04295401457418549 
-0.1034743545236087 
-0.02537292988839004 
-0.09111974766532821 
0.1000229250762723 
-0.04255437923035615 
-0.51735653533272 
-0.0193326017176726 
0.3795091595497204 
-0.1747447149186416 
-3.338556859399908 
-0.05557314735367794 
-0.00884789741748037 
-0.04411403989241349 
-0.6437204046902227 
0.04143673448941316 
0.3480716985516264 
0 
0 
-0.3656535036868296 
-0.03536088052819844 
0.3853480738040556 
0.04200485858553563 
0 
-0.05817113515987822 
-0.01381201698407726 
-0.02335526231550163 
-0.01886369774700546 
0.002599507459634692 
-0.4534974134552451 
0.04602509882137312 
0 
-0.03307538238583591 
0.1840597048856205 
-0.06713274698690636 
-0.1542843826501304 
-0.05107418039831253 
0.4611809805181103 
0.307247866114248 
1.512510066694879 
0.005590863326821051 
-2.851178105902934 
-0.1283126325377216 
-0.1639422885186067 
-0.4747181480173215 
-0.152884644388349 
-0.001695844920845047 
-0.1424353213960689 
0.5581108036404203 
0 
0.1257435663347849 
0.0007941914174210652 
0.2260728356764455 
-0.1934460764658021 
0.004747465899200739 
0.005826301100247767 
0.01460542567784048 
0.2227938723064929 
-0.01509477590234967 
0.004366828064981414 
0 
-0.2585887217432944 
0.2970004327237903 
0.5158729266573401 
0.002456669403572277 
-0.01171604344109092 
0.05242771647616842 
0.0403961382303049 
-0.07258595713780717 
0.01059729769932869 
-0.0004897908425056569 
0.5784003900181225 
1.491165969540304 
-0.0008853685393361592 
0.02086908212944966 
0.5087362731190618 
0.09706792016517046 
0.2327753857146089 
0 
-3.41151932723637 
0.134190479179557 
-0.7178201102286853 
1.456866240399351 
-0.2724538950141873 
-0.2410405598074098 
-0.2608357841312673 
-0.01623793587431826 
-0.0685785055916527 
-0.501409366114429 
-0.1764648618718418 
-8.626570549764856e-05 
0 
0.003358590994664851 
-0.1415763272472544 
-0.9869313841773385 
0 
0.02139601946039613 
0.9680929025522967 
0.5424720976726258 
-0.08988959384885586 
0.3334643731745322 
0.4906020230559163 
1.913997338587812 
0.2221616765980965 
0 
-0.2920913589486584 
0.002065529215666775 
0.03238763762348508 
0 
0.07727229084561764 
0.3128149065602894 
-0.4401486545284407 
0.8628210691610072 
-0.4361573795225198 
-0.04871953873994844 
0.3321629184679075 
3.652359636136127 
-0.1555103543429494 
0.08651123492262752 
-0.005757729629958913 
-0.03856767167089008 
1.06967407706304 
1.313522451088215 
0 
0.0480317774914988 
0.1248057961690681 
0.379405187729916 
-0.02862999315103779 
-0.08067264117513984 
0 
0 
0.007201320169833663 
0 
-0.2278148351026929 
0.215121230369774 
-0.02188802549567997 
0.127217872397218 
0.04598685801978879 
0.6764274580425796 
0.3682477726068783 
-0.01036949317837066 
1.464254902411464 
0.2214154825096701 
0 
-0.1662312744692461 
-0.07468861868681717 
0.01559230463848436 
-0.1146626681149529 
-0.0048674932690148 
0 
-0.4869992851586706 
-0.02470499923650846 
-0.02265499032103828 
-0.02532886156767819 
0 
0.04370072255605607 
0 
0.6482452487720183 
0.02386355388275585 
0.1102713820733272 
0.04102272413111251 
-0.03387958629700502 
-0.3340586095527928 
0.9147865054388294 
0.1678056602989398 
0 
0.0168948986143633 
-0.1943683158241658 
-0.06501155611166903 
0.02768492436822445 
0.2046571483365228 
0 
0 
-1.648275356090215 
0 
0.02345843408031638 
0.1956004728572605 
0.2093605924064479 
0.05634930692231136 
-0.5581808255859383 
0.06384984281302054 
0.6878739574334928 
-0.0003317044206077954 
-0.02816973013474251 
-0.01185385631385834 
0.6482575520515816 
0.04291044247132726 
0.08727433213727079 
0 
0.02289265532135145 
0.02019169626821428 
0.1635289400379796 
0.04902880185086066 
-0.4167039508152403 
-0.4225944808606844 
-0.2550862242842401 
-0.3284162872147491 
-1.222128690692644 
0.04225207155870553 
0 
-0.2252611630027505 
-0.1432228281783113 
-1.146368160564241 
-1.11196818675442 
-0.04247824615685455 
0.08541757075375014 
0.05332122905874355 
-0.9562102426562877 
-0.1641236551183721 
0.172978463668802 
-0.0002630468807297117 
0.03998266832182402 
-0.0001244756130203441 
0 
0.2630501620999696 
-0.2229264862591692 
0.2404206100651031 
0.3783969851559905 
0.02108434834819322 
-0.002244660908295396 
0.1311233811695317 
0.3013021252269684 
1.411521954580435 
0.1683900711986204 
-0.01274778315410881 
0.0003580052676703937 
-0.125140400608542 
-0.08773533660143507 
-0.3569516963420361 
0.1249224503906452 
0.01605049814644998 
0.005740509903585494 
-0.007972399718179941 
-0.0007848683432668643 
0.08087783196538757 
2.295366512438507 
0.6901338091129208 
-0.02212878182052 
0.08289090534456557 
0.6489924293433957 
-0.07690210638964101 
0.002538526546591795 
0.4397887978865271 
0.008394804103048659 
-0.001620419998862984 
-0.03268615240661479 
-0.10679794520844 
0.01928218729032685 
0 
-0.01191805653719027 
-0.07509471269377754 
-0.0643854612790454 
-0.0008161345789149821 
-1.890620974909159 
0.2194816139752231 
0.2249490881160394 
-0.8376766330673716 
-1.54325560052838 
-0.415477869016597 
0 
-0.2695498929249454 
-1.241529823896323 
-0.009836653380259398 
0.0007449340618669655 
0.1857269496601872 
-0.6594204789576715 
0.09375072877433993 
-0.01592505237297267 
-0.6131343405924113 
-0.0983584224594915 
0 
0.0369940320467521 
0.1516018002498363 
0.1501913105585981 
-0.9433323299953605 
0 
-0.01243384009862789 
0.4250006400772292 
0.002247441711444777 
-0.2651247632052309 
0 
0 
0.1338352098014558 
1.479419824980226 
0.3506934700974469 
-0.321936149406875 
0 
-0.192389977082182 
-0.3395087524244289 
-0.08334962198537435 
1.293960493666706 
-0.03475447679692795 
-0.00294668397999368 
0.1666089347079818 
-0.006878736066287916 
-1.040245695516464 
0.1827907461019633 
0.04741943841518292 
-0.1234594556756315 
0.2542517840018359 
-0.1720193642737984 
-0.03796023218289882 
-0.0163827823760492 
0.1419763181421057 
1.30625937623149 
0 
0.00346557736027996 
-0.08559974157487998 
0.1186755250889886 
-0.5656119954700249 
0.2075475761175195 
0 
-0.8308183208259092 
-0.4448440705895468 
0.4016470455374107 
0.0005762497536811827 
1.540147298763835 
0.1104677412397918 
-0.03312317208170191 
-0.8103340667313388 
0.2634383680183645 
-0.6992995336899325 
0.1169671937577699 
-0.04643124000971059 
-0.1291284639468391 
-0.01129780441551435 
-0.007464434149793218 
-0.02435430351213221 
-0.1540227258779478 
-0.1660243502185711 
-0.259615805242228 
0.01934098035365494 
0.7410679101163971 
0.1177554676192409 
0.5555328887885563 
0.3492948978050427 
0.3267236344401981 
0 
0 
-0.01147406820070966 
-1.969206727303836 
-0.5552763041837298 
7.714380887948015e-05 
0.1605610324781343 
-0.05640649875853788 
-0.1888612570085512 
-0.02826709096524758 
0.561719400700105 
0.0615463069085186 
0.008678532108653663 
-0.3994840060841475 
-0.009865493541935683 
-0.465779129022403 
0.01896105767838464 
0 
1.196372779525276 
0.1500851461355772 
0 
-0.04081815479355076 
0.02683701744286541 
0.0207702104101128 
0.02501326896716017 
-0.121531365561312 
0.2692592631175439 
-0.09382342838041949 
-0.5790018018815297 
1.028341687692613 
-0.02407085228935224 
0.009826082595261061 
-0.8005252991486305 
0 
0.01092533688230608 
0 
-0.2788119941806007 
-1.37141052162251 
0.03235213266588609 
1.63499134930571 
0.002711490697241318 
-0.1657431886841094 
0.1636359352998916 
0 
0.2069296234301288 
-1.406212147743173 
0.1594631737749708 
-0.4293813744614066 
-0.311498028629689 
0.2583961805379174 
-0.123879751811023 
-0.1725278107632118 
0.5251689261677712 
0.2649524276931516 
-0.1458759402484532 
0.01511062980738778 
0.1624760283084949 
0.1013883338605788 
0.0108009074382867 
0.03313008397346318 
-0.8655425128817826 
-0.02073052979764887 
0.01169329521932016 
-0.699874983570999 
0.02280836447286837 
-0.1862235041534068 
-0.3677573856984351 
0.1943248768035833 
0.9015494770271311 
-0.4107959339156524 
-0.04685152095111506 
0.394707928047991 
-0.02413908251317072 
-0.09956021153840602 
-1.707521696738604 
0.06502715575169159 
0.01809273824555606 
0 
-0.2705033857129358 
0.8994917132935594 
0.2418546353996527 
0 
-0.02182912166917007 
0.003276739042470491 
1.301654710251542 
0.3441217848111953 
-1.330493772922314 
0.2873383203887966 
0 
-0.009695527280235892 
0.001028081607337867 
0 
0 
-0.001763052822262011 
0.05964023684949177 
0.00195365991138725 
-0.05297671655226479 
-0.190993437274882 
-0.01145462835520749 
0.149687065096826 
0.05217583062949888 
-0.08053203147766576 
0.1075204675259952 
0.9308148854067371 
-0.1212661375145652 
0.8858628151548539 
0.0005658159663185904 
0.1687095120470294 
0.02598070022523427 
0.04936571106964214 
0.1248726142982027 
0.09424998803227025 
-0.01572290506096411 
0 
0.1626250864333958 
0.1344271249757572 
0.4722682293977159 
-0.08775582227153279 
1.147199792321901 
0.416915186156486 
-1.604018274905882 
0.678332864101823 
1.296999069477959 
-0.1779470284972789 
0.2715031093954068 
0.2955716191340303 
0.03205948935773281 
0.9119984713815235 
-0.004020055620029426 
0.2589408848753798 
0.9935741089895922 
-0.5455226542026117 
-0.4305229711412787 
-0.2605599960487782 
0.5933734813217957 
-0.07920177793705169 
0 
0.0001692918100676886 
-0.05171108444159034 
-0.02818864899751495 
-0.09968298278851882 
-0.2516164877655726 
0 
-1.418792108649219 
-1.238594419426178 
0 
-0.1727975800215829 
0.07888985187259684 
-0.2328568781971764 
0.02698614379709093 
-0.1518090787654258 
-0.09938404402816645 
-0.6794440017006707 
0.5930751546420243 
0.6036963986435983 
0.02045791830083039 
0.4305096340347105 
-0.02080861100821245 
0.2361075226695382 
0.04331715326724921 
-0.5465192676805543 
0.1300845290070918 
-3.723540221967495 
0.1603608581742561 
0 
-3.130476904081998 
-0.6397806765183288 
1.433824807451543 
0.7407577917125806 
0.005033196360115911 
0 
-0.2354787040127632 
0.01294515715544565 
-0.03261283741568286 
-0.05412668521295733 
-0.5499272469883727 
-1.458069016021713 
-0.02830330625000657 
-0.3592719661298362 
0.7436499644630212 
-0.05205772498343191 
0.007399351528055131 
0 
-0.9892634590229411 
0 
0.2330171962152222 
-0.4501175871274502 
-0.7395977460426247 
-0.002536372681687399 
0.02634757168592842 
0.0453188391070443 
0.427285993183978 
-0.003946011611136252 
0.3790599983947538 
0.1731487404087973 
0.07027064185475636 
-0.2767078698632454 
-0.2859423372794728 
0.06597017723397748 
-0.7215148195125095 
0.03054752356125315 
0.5618458799684277 
0.6466581304731247 
0 
0.4482138270268505 
0.6614240165639182 
0.3414520070544889 
0.07977313755596405 
-0.09881478436901382 
-0.005249872109841876 
0 
0.001320333076060644 
0.183453376210558 
2.030897196964888 
0.2406776494230349 
-0.08516508671149926 
0.3936593088219276 
0 
0.3530869477265985 
0.01548749674968113 
-0.1782340544036529 
0.2228475752966877 
-0.2175947869730319 
0.0019329962792622 
-0.1007448035035334 
0.4355947094952058 
-0.230499722756141 
-0.07109637483377487 
-0.03875257887927774 
-0.3445246283253182 
0.1845320908815464 
0 
0 
0.1333075601314336 
0.08760989970287464 
0.02736209394376816 
0.04223664744487299 
-0.04710373870008077 
0.1011666490757207 
0 
-0.0002816463385368748 
0.5316666036458051 
0 
0.358781407902689 
0.3248293414409361 
-0.9466669741897057 
0.4191045009406982 
0 
0.6937584046104331 
0.2164625005994403 
0.09500765376982882 
0.0003409229921828153 
0.4546564074639967 
-0.6976439714920657 
-0.4055556473133866 
-1.02321304445174 
0 
-0.04371110159146097 
1.473193624315164 
0 
0.009319291280199839 
0.5973180101933565 
-0.02544716513396903 
-0.06353670624219679 
0.1717347058271194 
0.02854444089226176 
0 
0 
-0.04305153074084413 
0.03721298519765909 
0.3438002572959185 
0.180363296528937 
0.4265904478918688 
1.503524128113164 
-0.1048826849060895 
-0.3757434780667404 
0.214887078394027 
-0.02885778303337315 
0 
-0.06660873446112094 
-0.0122808199583021 
-0.07746114671117454 
-0.1532881495841494 
-0.3556091380665743 
0.003846612846972112 
0.006905463814594601 
0.04947206804267468 
-0.4940409326205258 
0 
0.1917292036390488 
-0.1217127352177562 
0.007058965907069947 
-0.5314366521281637 
-0.006182713458300343 
0.1519130414920956 
-0.1444922297596719 
-1.132145081182681 
0 
0.004068673147189054 
-0.02106954613270123 
0.001697651190959681 
0.04766191710944824 
0 
-0.5685412051884259 
0.2278841592502875 
-0.07450347194267115 
0.007058073828370982 
0.08279859192832609 
-0.0003550488016062736 
0.1548277678515593 
0.02094511538902516 
0.1152277299455643 
-0.08227580064228013 
0.04400934910712459 
-1.167896719262834 
-0.02996334220966434 
1.507505975177164 
0 
0.007559581570199205 
-0.004625123054884163 
0.000624055877364351 
0.2602259893253148 
-0.2095324340734102 
0.1561231435433706 
-0.02902670357349814 
-1.809691057701765 
0.04591798800179867 
-0.004774875138021719 
-0.0009876125987241719 
-0.1030286410827094 
-0.2543422612297697 
0.0007135730112863491 
0.4229906725593531 
-0.2838819108220143 
-0.8819272349309837 
-0.09700445267482845 
0.4148426599784487 
-0.06414609349883757 
0.1879924973006027 
0.3544297714839022 
0.06885135918173424 
0.08836079507220433 
-0.2039198959229443 
0 
-0.3750385394959554 
-0.3743513907791252 
0.0005892062665146957 
0.3570097455292839 
0.3129996398064638 
0.2654556886701679 
0.02133797562999823 
-0.03171558264879502 
0.3707343023689749 
-0.2021621257463238 
8.384079651898863e-05 
-0.3802276474612097 
0.4463358178879528 
-0.06184941834683462 
0.2220067013367399 
-1.197390248728727 
0.01530570704949234 
-0.3379520777114826 
0.04286437983322525 
0.006034094351639794 
-0.1574507302636663 
-0.2318301306828353 
0.01859032755635882 
0 
0.3845760889429741 
0.0234529960711199 
0.02713603815164353 
0.229964808644779 
0.05124942462106102 
-0.7687265929867704 
0.01456326042563175 
2.10807639291188 
0.4243311657924425 
0.03972680303723135 
0.002297452194658232 
0.3970209465480741 
0.2280949474268465 
-0.09507648285548766 
0.301550178175603 
0.7634239058269952 
0 
0.001223394691227285 
0.4038158824361165 
0.03338156634834157 
1.16632643676374 
-0.1656862256153759 
0 
0.4775170837852104 
0.01268502354597187 
-0.6583523657400918 
4.186048291814647 
-0.1140126104319023 
-0.5587865193268378 
0 
0.1006663988402754 
0.2656730313449165 
-0.09148706736326481 
0.01115420461398413 
-0.1533054496817454 
0.2617230272106437 
0.8338542654720851 
0.136339019209735 
1.40578404761169 
0.0007273670990797172 
-0.03897875373555881 
0.0189329487667462 
0 
-0.6565441404405516 
0.3962992151831222 
0.02748807879301892 
-0.08490179043990932 
-0.02534970609465878 
-0.07534304779335758 
-0.007591731946852911 
-0.3414882153337778 
0.002432329378522561 
-0.08151881249425014 
0.3965766463736754 
-0.0854432386971927 
0 
0.1651620846736132 
0.1760746873814036 
-0.1025160730800018 
0 
0.3963077322719006 
-0.0008804534126612524 
0.5275694970858872 
-1.208476806306589 
0 
0.1510602292850191 
-0.4322646101119676 
5.586622390621615 
0.1746875597450084 
0.0006402130133460558 
0.37149582311556 
-0.06596117273581736 
0.4182843565268571 
0.1603413780649516 
2.834059368944216 
-0.07358892996660446 
0.6004494388559629 
1.047859983285391 
0 
0 
0 
0.03780880447656415 
-0.0001173015269245216 
0 
1.270448813167731 
0.008261358499828956 
0.5254817822453163 
1.410835553535895 
0.2175482300813663 
0.0943941579792089 
-0.02045710704066549 
0 
-0.06274369044912864 
0 
-0.1161834994386596 
0.02635442680615811 
-1.026135573718447 
-0.2959361614078899 
-0.161611742258674 
0.420624132878791 
-0.08772359452323814 
-0.1296847839530102 
0.5821663261591639 
0.2460940195483421 
-0.05460890052727862 
0.5351918857938347 
-0.3890063600456736 
-0.3300569931011166 
1.629760655809328 
0.1837289792534472 
0 
-0.01251267004507318 
0.0006173455666294637 
0 
0.3836022587603866 
0 
0.8324809685732687 
1.003207538233478 
0.2912387076895405 
-0.3485700373491293 
0 
0.04117834337804845 
0.5632475986444412 
0.00782384191823611 
0.05177083543444985 
0.07078258924590583 
0.2495413712574427 
0.03461754355557848 
-0.09785883708871357 
0 
-0.3027121487455269 
-0.002721331907733319 
0.0419127506679448 
0.4055405856814121 
0.00883800125623355 
0.04479521252465826 
0.004089999173732995 
0.06196684492562571 
0 
0.395487147316855 
0.1367241753076516 
0.3814442526307951 
0.0001575583723318579 
1.087588583429509 
0.5889342904721315 
0.07391815395305977 
-2.050949255068793 
-0.8371032470797829 
0.2009028714243122 
-0.02500857797195895 
0 
-0.02521913302390383 
0.06763249065042223 
-0.1670149395852544 
0.04689444996325784 
-0.140390525438286 
0.01991465621703287 
-0.676695483781612 
0.560341600340912 
0.2754741126731768 
0 
0 
-0.1598494543238831 
-0.6450278107948043 
0.2389038337977866 
0.4387857633400607 
0.1562282877393286 
0.04959932795507764 
-0.001461922107933399 
0 
0.2819473114032672 
0.01103361502365079 
0.2473924594203894 
0.1191392449440966 
-1.208931421831867 
0 
0.003391503037635777 
-0.23654108464607 
-0.2659298364892848 
-0.02264111676016056 
-0.009794801525534733 
-0.05068834520098309 
0 
-0.421653343926595 
-0.000113768683635005 
-0.0002428801721137162 
-0.1164921513265238 
-0.121655460313306 
0.01955962874342262 
-0.004676550855937441 
0.1178832755487229 
-0.1966947805071849 
-0.1418480010036574 
0.8074839379085843 
-0.1021970048893553 
0.2099846582070358 
0.5617545133869262 
0.1694370072671577 
0.0500091636348881 
0 
0.03089749014205645 
-0.1045388521655455 
0.1318554455822895 
-0.06844211389513943 
0.0305273591243954 
0.01059210245075763 
-0.04575940330224704 
-0.6203306314761298 
0.02150124578934819 
0 
0.5091714582253746 
0.1074402591985229 
0.4610652111197007 
0.005705695260989936 
0 
-0.06176537872536377 
-0.0162068966586183 
0.06872528286225359 
0.1106179868149323 
-0.09864181793635395 
-0.09205738119803947 
0.002450410920188762 
-0.3267290934793121 
-1.814925418228496 
-0.1097465478126075 
2.444945041869128 
-0.05018415719823731 
-0.04372802723844529 
-0.5393105676082701 
0.242434640014883 
-0.0386063293613836 
0.1355217295621884 
1.055056338549003 
0.08804159554362859 
0 
9.365944263118768e-05 
-0.006590527072786265 
0.02306714625027331 
0.05798091705434884 
-1.607435057775055 
0.6794994902865985 
-8.205050768661474e-05 
-5.707237080113114e-06 
0.3089422918311294 
0 
-0.06281882234242346 
-0.002410201256643491 
0.005694029107229524 
-0.4880083471928754 
-0.8332561716124703 
-0.1288208836318194 
0.03069946875734095 
-0.225937069186821 
-0.0002428801721137162 
-0.01646134687009184 
0 
0.1214592669147696 
0.07549908966433191 
-0.04232263308366215 
0 
0.3106751025800522 
-0.06082553499927347 
0.4068068261584404 
0.009362872567293646 
0.1952216503822595 
-0.3142352238054885 
-0.04405762793855346 
0 
0.0107123048825915 
0.7345728881480349 
0.01899834177598336 
0.161253403841074 
-0.01472720119251368 
0.180383962186529 
-0.09711595277842575 
-0.01713753687889564 
0.2455121081218325 
0 
-0.03510052479344088 
0 
-0.01634587082830031 
-0.2114553037694213 
-0.001758458999475431 
0.704048011060737 
-0.2073074634411739 
0.5538748704870604 
0.3170301744282595 
0.1037722607903595 
0.8752962913229005 
0 
0.1034892368894971 
1.588319930106084 
-0.9426876382110947 
0.05579757987685734 
-0.00196558512741527 
0 
-0.05329525748572436 
0.0007983620900339299 
1.312790719569898 
0.1521202523921187 
-0.02468990093541959 
0.2905151193288429 
0.1128129440972223 
0.08752117303206071 
-0.01840648270101665 
0.7760282608438306 
-0.001026345172219175 
-0.3598958498969008 
-3.652984521705133 
0 
0.6956831817965807 
-0.007349803608740033 
-0.3084459508330957 
0.08934050661904408 
-2.122007442440036 
0.1242008594173071 
0 
0.02928126192135533 
2.409035328416457 
0.04514075825307948 
-0.05618888958392702 
-0.4077656209972231 
-2.81329075424729 
0.0009066211259742267 
-0.1656488295957414 
-0.0004464863342264245 
0.005418667132645152 
0.008848288286238116 
-0.0684569032575803 
0.05158250772589629 
-0.4063349218443741 
0.009862039370945243 
0.05196250978169353 
-0.02915055686394824 
0.4147653602818892 
-0.07445057885142212 
-0.7196162394137047 
-0.09822364380286365 
-0.8325678768091622 
-0.1535142172073293 
-0.3261235864757152 
0.005342739002278506 
0.0126247338240172 
-0.05190032289098044 
-0.02701202997969382 
-0.1287119883146262 
-0.5051667560490944 
0.6983791748126549 
-0.06144416381922431 
-0.123971115909728 
0.150088913976757 
-0.04015546733246907 
0.237202474473498 
-0.5573847366568607 
2.521160127853363 
0 
0.01829056056057201 
-0.1919026835531969 
0.1911689543426649 
0.01364919582032082 
0.2608735797393749 
0.1310066095638971 
0.4546091211974818 
2.423060817157936 
1.384693746998239 
0 
0 
0 
0.005453618359204011 
0 
-0.02481102649901466 
-0.05418663203947556 
0.002399495123110817 
-0.01136684362000747 
0 
1.453214932784273 
0.100488623276949 
-0.07125737018823654 
0 
-0.01753138642555364 
1.418507882206873 
0.2084514705993541 
-0.3443391506395054 
-0.005490760997644378 
-0.2248714207021333 
0.09483354696200902 
0.1049757134578459 
-0.01049964992219601 
0 
0.07980663077651536 
0.08453460498521072 
0.5973171550907002 
-0.02066848386601914 
0 
-0.03594951399657364 
-0.008539915329314319 
-0.1016123771372626 
0.0228839029976258 
-0.07511385301315252 
-0.01116807157603368 
-0.08237215465464555 
0.7574626316762725 
-0.1174792844438374 
-0.1143345360393839 
-0.2506315260826043 
-0.1220500425176847 
0.002427712248722329 
0.2808756199467319 
0.1627165299122121 
-0.04122862712077839 
-0.06719031520034664 
-0.1099117318911892 
-0.03019327433949111 
0.3394944675089268 
0 
0.01968768585633102 
2.749508215889554 
3.323966785910415 
0.02487233281853069 
3.484558821384546 
0.005860778596633818 
0.004573188811830168 
-0.1317931829415414 
-0.220999475670406 
-0.04730290074017614 
0.005484907136478367 
0.001509548102773058 
0.02566667465623032 
-0.0624624849317084 
-0.08406064778581569 
0.1016536001745402 
-0.4852103676773395 
0 
1.610772389971962 
-0.1840963715150569 
-0.638622132443093 
0 
-0.004763581759681663 
1.47013331361912 
-1.389211582146977 
0.3470523853784504 
-0.155273540111654 
0 
0.8936332406965951 
0.01701938206736211 
0.3217138638672058 
0.1683783504921512 
-0.06762540163881117 
0.3235036651640265 
-0.6249594762763606 
0.3310699006198904 
0.06941526692863845 
0.8046550140007104 
-0.1077396057803223 
-0.1870751572021627 
0.2003592735782146 
-0.1169468077802165 
-0.05510280200285161 
-0.1204544059836127 
0.2671600538228385 
0.0231279641118836 
0.03235059868838523 
0.3099636439201451 
0.0005718834794094906 
0.0944040054856419 
-0.01863155349440508 
0 
1.45740574383758 
0.00689158143157511 
0.005696020537605232 
0.00642123563559131 
0.09882747799702558 
0.2708779514975989 
3.435361997426811 
0.1060034261108994 
0.01478794011317149 
-0.6720980247863352 
0.2317261072534966 
0 
-6.910007650205003e-05 
1.325447977029669 
0.009916114434837166 
-0.01203930849427519 
1.26083043617178 
0 
2.761570814639261 
0 
-0.1182157695384104 
-0.1122101034265443 
-0.1468026937991949 
0.05566367832428092 
0.05288523183838343 
0.009453121426449678 
0.09857536482290635 
-0.01809020399339551 
0.000926883071784434 
-0.00104798716884191 
0.03807862642455088 
1.621109121347205 
-0.003922812647499326 
-0.01616665317914953 
-1.111416089565117 
-0.2806593375811145 
-0.001119340476565232 
-0.06232447637797328 
-0.04960835895339868 
0 
-0.2381898718402802 
0.6907812187680028 
-0.01989738266962299 
-0.01542306723051581 
0.001686819510613016 
0.02803303763109959 
0 
0.22227338471122 
-0.314848104348731 
-0.07740245934377671 
-0.9456415976076946 
0 
-0.04124555498844886 
-0.07346253903924978 
0.06570980063610136 
5.26289997101185 
0.05054775464961136 
0 
1.952993541400238 
-0.185431580871881 
0.09784298917756544 
-0.4235763612915436 
-0.05925350607454188 
-0.6933083908891097 
-0.5465031148873387 
0.3287626153745456 
0.4580763975484222 
-1.069080291623015 
0.278936377377474 
0 
-0.08573643370658822 
0.04340694750009219 
-0.2046469897730456 
0.1046807221219013 
4.275229428319527e-05 
0 
0 
0 
-0.1766545350783842 
-0.3197759927412466 
0.1515877521672803 
0.3174184585616159 
0 
-0.8203778218952007 
0.2551234651088087 
-0.0221948169277262 
0.02301366045536378 
-1.569929086064997 
0.3611767403938921 
-0.07095959244857609 
0.07202889901389949 
0 
-0.1073848995676518 
-0.04732453460407574 
-0.02467038223799638 
0.2302933338002568 
-0.245917759262788 
0.2025462844633705 
-0.04735022734825671 
-0.1091304976605448 
0 
0.003313649697434253 
0.1303771844594676 
0.07223035934624128 
-0.07358143945751422 
-0.221884411068397 
-0.1806300436606235 
0.2315902236642369 
0 
0.1615918608985092 
-0.08773757214988775 
0.02167434094426897 
-0.03776911123084176 
-0.1906200823580623 
0.9382767606162201 
0.02866948587599727 
-0.6309206576543572 
0.1337093177847487 
-0.02715512887809893 
0.0544121131501399 
-0.006098535716059486 
-0.1731686026181585 
0.584400279849005 
0.06202914055439034 
1.880524105008981 
-0.1774832354573949 
-7.759091852073657e-05 
0.03500436706156811 
-0.01618786491594274 
0 
0.02075309461865496 
0.0009898309160747693 
-1.700815589364649 
0.5850733848620892 
0 
0.004865747933661436 
-1.419859226014229 
0.07798047724520375 
0.006646835137739096 
-0.159195404463402 
-0.04639075074541676 
-0.02789164690704965 
0.8020115833100337 
0.4460813288949662 
0 
0 
0 
-0.01703059348615295 
0.2855045225078278 
-0.476382728421108 
-0.006978830654139028 
-1.770792914143007 
1.082549224119224 
0 
-0.3795872918028601 
-0.003774197871861976 
-0.0001490742990854023 
-0.7130167017590805 
1.207347063386295 
-0.1990021017290157 
0.4771431537838707 
-0.1778144114399593 
-0.05732880374598431 
0.02546144981372701 
0.001116257647954023 
0.1791196967877497 
0 
-0.06709240104610459 
-0.2170823876749409 
0.001264231875903476 
-1.07140633240774 
0 
0 
0.6825197519963919 
-0.2560004310296717 
-0.02033149139427377 
1.324840194934206 
-0.1419418321563176 
0 
-0.01959805721906344 
0.9527698185651975 
0.07649525679854216 
-0.04766828934419151 
0 
-0.008123971938975591 
0 
0.02936030536510383 
0.01727116682174712 
0 
-0.250758455807326 
0 
0.004318197971904665 
-0.6060545578928924 
-0.1800420740779955 
-0.1622039978426312 
0.0115618220782353 
0.01390354182324236 
0 
0.08119538535439182 
0.001202114468158366 
0.003326056884556277 
0.0417278855163396 
0.03866848152707257 
0.2121206236036394 
-0.0813803601298676 
0.5499277725940661 
3.859896980874534 
0.05203713214487036 
0.03040669121349797 
0.1669996249474158 
-0.6146421742978557 
-0.1896212226986558 
-0.01445980030639774 
0.001562887651668458 
0.7082271732022517 
0.2969947918235495 
0.01411846159925851 
-0.06695332670336661 
-0.1901328019642012 
-0.01213429518037698 
-0.3285541524522977 
-2.744823488896948 
-0.07346607975195713 
0.3471260901863766 
-0.258482378984492 
0.09442890892972997 
0.0052191760697943 
0.1680709727168529 
0.1646265534769213 
-0.0005345130111197396 
0 
-0.5833123662298237 
0 
-0.05177471125378066 
-0.0002245374263163984 
-0.2920873092937706 
0.08396716364646502 
-0.002687622136684833 
-0.0001184750853938267 
-0.09827034555910623 
-0.1505093639645192 
0 
0.0007462710890621255 
0.2417515691740765 
-0.6287961499253296 
-0.5522403500131907 
0.1125929590191652 
0.1316923846307983 
0.06210351480765038 
-0.0001405730888490078 
-0.1858138216524939 
-0.006505131995627314 
0 
1.307281902905084 
-0.2643027933890498 
0.08478769671053804 
-0.01207168819182179 
0.2641076593864538 
-0.1616468544608799 
0.0709705039900011 
-0.01787720680505738 
-0.1212990421968249 
3.052648159289591 
0.2081067219720981 
-0.0002683889773085129 
-0.1311126535781822 
-0.08167224111154295 
0.03536735220196195 
-0.4704671953087761 
-1.363306851997158 
0 
0.07149276103050542 
0.0002225938006312771 
1.519964571080411 
0 
0.3495109417244864 
-0.2813154381958249 
-0.1736146441127644 
-0.01681171647908133 
0.002559247533862398 
0.231369475319603 
0.1665747293327789 
0 
0.0951218381485973 
0.7302467007638478 
0.06715257932591107 
-0.04273853344206147 
-0.0838495497939519 
0.00726340674655244 
1.070860812489401 
-0.1479782900341988 
0.2698208982776186 
0.2798890520595362 
-0.1332203128156589 
-0.01480209299838842 
-0.1216590364421574 
-0.0653869779995216 
0.4208453724778583 
0.02402197262321273 
-0.5588970362383401 
0 
0.08533933258732528 
0 
1.045630052029282 
0.07910865324465227 
-0.5238211118785726 
0.006931422839253083 
-0.07598099966541265 
0 
0.2444456702656678 
-0.2338560753785423 
-0.09499294678161581 
-0.3421389664440797 
-0.532837478053403 
-0.08041685374711219 
0.1553297481693339 
0 
0.4250554041575377 
0 
0.01450894649410125 
0.04294531811618384 
0.1249762302967685 
0.1086117986891005 
0.0593135001365468 
-0.2905867998037806 
0.2532668658545157 
0.4013602331744817 
0.09665908353168351 
0.2517268760911097 
0.1602562586528838 
-0.06578695193326885 
0.01694614115494584 
0 
-1.192084835970035 
-0.2766793193781177 
0.0001085447610059597 
0.4398828808029333 
0.09930096740528065 
0.2177978852512769 
0.3142702385529795 
0.4498037892603549 
0.01376013991518173 
-0.09130653221943691 
-0.1327220899656057 
0.002328526431343601 
-0.1435671848387077 
0.1241785930921337 
-0.005332626846102409 
0 
-0.2003842148962687 
-0.09083496179232442 
0.003091451008412582 
-0.3849685024106608 
0.01805901999841512 
-0.0170635798641207 
0.215275271988127 
-0.1390655769881928 
-0.9024481734887873 
0.1345382262070003 
-0.0941528489851764 
0.2036946541090237 
0 
0.9676674837690142 
0.002544821004694549 
0 
-0.01110766985726165 
4.741185401991992 
1.809349390014585 
5.02101745591867 
0.3478742329389246 
-0.1076101901848977 
-0.2060349014401767 
-0.2338957590558112 
-0.07910533381509097 
-0.02163370952281587 
0.3515320418638738 
0.07480112526862211 
2.499640895499322 
0.1636245536024131 
3.298839489657476 
-0.816285866797871 
-0.2687563316029658 
-0.8896997194462868 
0.002473067235250175 
-0.2281551400670548 
0.009574580435385354 
-0.0003956746861165805 
-0.1883385386500752 
-0.1708737300238426 
-0.1741678774677753 
0.03588216603086045 
0.02828180194110496 
0.1114652664045577 
0.2462039423639481 
0.3840203775396805 
0.1769954679035537 
-0.5798008013347877 
0.05613880823852943 
-0.1176459962428374 
-0.01084625585764116 
0 
0.2091208201761678 
0.0264881417507791 
0.03974063862129233 
0.1341839783542872 
0.1006956096734384 
0.2288045617124878 
0.01364584285218712 
1.424592870068683 
0.01512865431115243 
-0.01207127224473603 
-0.1314554255635869 
-0.07916929707367526 
-0.0447056205340406 
0.2290436120368126 
-0.008936789407784041 
0.04179441892435931 
0.1318506831403502 
0.1216625154786897 
0.1578259719236181 
0.0007567924164143181 
0.01248223877659668 
-0.009878051988918942 
-0.03395469521159628 
0.1171963296465226 
-0.002956628676034337 
-0.09180999373650542 
-0.1449804934856651 
2.151361852190545 
0.1676008953384568 
-0.03344494429448914 
-0.1147022787468691 
0.29767565493059 
0.04921726553415632 
0.6032994009326962 
2.841936878958256 
0.5997836681683966 
0.005208149323818904 
-0.03578663492699462 
1.659806593006249 
0.6620650856170329 
0 
0.3852768016436156 
0.04802685554024971 
-0.0001894857594937262 
0.07724333485894773 
-2.590491522350554 
0.02764683113414792 
0.05889430927877005 
-0.119039751023444 
0.03407203780707589 
0 
-0.1251018851607117 
0.06828230204993016 
0.09501509220582988 
-0.4393233206019981 
0.04261999773814812 
0.01794341364992606 
0.2346526266818255 
0.09175359818361484 
0.3746134555889771 
0.6866989013729509 
0.3519860823224935 
-0.02578837398045516 
-0.05898288845159336 
0.004567504729549417 
-0.04840580589514165 
-0.2400851853968354 
0.007914446312018313 
0 
0.8822025419874433 
0.1139766211403749 
1.954287117061876 
0.6895254233058492 
-1.224469397356093 
0.02285510827515609 
0.004397019333306687 
0.1783188762726648 
0.002903926857543391 
-0.3229942383596838 
-0.09640587285591123 
-0.3400074942046468 
0.2021875681500185 
0.07860699676759045 
0 
-0.1792725282328177 
2.170984184592765 
0.04783959927462025 
0.6712141265473384 
0 
0.07486597486446034 
-0.2810643963980342 
-0.04029582554972086 
-0.7546644399343534 
-0.00678228652750028 
0.005977740316641753 
-0.3007730926057726 
0.01989388006145231 
0.01638715662524524 
0.03205967576226058 
-0.1334382504454777 
-0.1918636546674475 
-0.1165904795764196 
2.997427986142485 
0.04995709596915954 
0.004089567938815247 
0.005191432703886646 
0.0197497441994431 
-0.0005535280985538916 
-0.5758834846678651 
0.4955044100855187 
-0.3019140642853548 
0.016904526324538 
-0.06340875386174329 
0.04053745513815978 
0.03848308413504924 
0 
0.08818928124340372 
0 
0 
0.2120446652811553 
0.004834889503248855 
-0.2195171679021178 
0.1832547276022299 
-0.0002085131141705113 
0.3125156101602134 
0 
0.2562090106686554 
0.0733413734598807 
-0.07917634384901598 
-0.0575811930750874 
0 
1.154805561650012 
0.01842347651220988 
-0.007300214582899194 
0.08253438333465574 
0.0005201327488120824 
0.2659611978686678 
0.1968576106263419 
1.066693494114408 
0.3073983502888007 
-0.2327865589020088 
0.1557173410552856 
0.001844946969586498 
0.03092081288107612 
0 
-0.1997350191568824 
0.1735460244206831 
0.3995287829318843 
-0.01234166455423608 
0.03517647360491216 
0.04138374483836524 
-0.3634418133714468 
0.2386501472174174 
0.03410478962911875 
-0.4888110163297873 
0.1354401569542863 
0.0004383936468692455 
-0.8544269315374138 
-0.4715229840259607 
-0.0858335136539306 
0 
-0.19545316374268 
0 
0.1136149429474257 
0 
-0.2440668316721623 
0.010587092078873 
0.001380291066026355 
0.04384363578399537 
0.001098842456341641 
0.21884896687411 
-1.171208686749758 
-0.1343272451630877 
0.04621988294823123 
-0.01869332938884887 
0.459435499041012 
-0.006537370418747046 
0.001244124221382763 
0.1078836340862546 
0.003009838112133913 
-0.7332325641576054 
1.226176268083939 
0.2197558567509849 
-0.00513888491318433 
-0.07639828629524258 
0.3115361130423379 
0.01110368682298286 
-0.1149374777063379 
0.06304440829142502 
0.159053812425889 
0.0200799176335363 
-0.3061468909060374 
0.116080951653508 
-2.869927391250496 
-0.03441588923744762 
0.002788395856101978 
0 
0.02445111730173762 
0.1606653766180169 
0.1780378758283709 
-0.4091541986661405 
-0.07473204310181267 
0.4155050798290902 
-0.03172101867441835 
0.4451910779886523 
-0.2558574345889825 
-0.007857854829232808 
-7.177108564455442e-05 
-0.1245064847476361 
2.047898859573705 
0.1254047645387372 
0.01034834472554231 
0.0002901289239232974 
-0.3601435737906448 
-0.008428486472200857 
-0.330642327929237 
0.2150476708481881 
-0.3851202175038136 
0.5181017924753648 
-0.01555786179122065 
0.04086186121128519 
0 
-0.0252760792396891 
0.0007543573185170271 
0.443365803933563 
0 
0.0317642309214172 
0.503434572440038 
0.153301069449881 
0 
0 
0.4673313388193253 
0.07503776328246245 
-0.2150849578416379 
0.3466365548218279 
-0.3264027202585733 
0.04185339814648221 
0.09311674378015609 
0.3220161740780804 
0.7506324626484331 
0.0173184097461091 
0.7417738824632254 
0.1093805384280634 
0.4138384466116457 
0.03788422843655111 
0.0002636999534255284 
-0.7867735310705413 
0.1598310305517529 
0.03707973122598698 
0 
-0.1702485962112558 
0.001142197017902237 
-0.005059667174009947 
-0.1365886613864783 
0.2583568820249073 
-0.1902221405983106 
-0.01568876848956877 
-0.9705724376394843 
-0.03516459953889829 
0.2147237995108975 
0.11020530626478 
-0.1741686220349508 
0.03381632763809461 
0.001235861147827385 
0.0793662463872625 
0.115877407058617 
0.01180044651627584 
0 
0.5576676174668547 
0 
-0.612656495901545 
-0.05944870862734698 
-0.1429844651927266 
-0.01870236375393209 
0.9135624455479145 
0.01576270822541774 
-0.01690454791899256 
-0.03950470758239941 
0 
-0.01624431603898753 
0.1016485803651964 
0.05999906166761595 
-0.01645056662022175 
0.1763640331420103 
0.1116346296403368 
0.004740468291362621 
-0.02968829638879493 
-0.1302560329094003 
0.19704359581041 
-1.084116120451724 
0 
0 
-1.176019019549462 
-1.02250254901057 
-1.556132439558412 
0.1442118314164529 
0.05758196208479654 
-0.08915146820767887 
-0.2821127287468097 
0.001773994944581751 
-0.4299501336508053 
-0.155174784164905 
0.02561983374535752 
-0.1495046153479085 
-0.05358356950083298 
-0.003639171450844154 
-0.0105953392799833 
-0.05664084689881647 
-0.5049613780916032 
0.1830237863676202 
0.06932593216644942 
-2.123491659037554 
-0.04769787687012915 
-0.2792828437662462 
-1.19273741988971 
-0.008637465243220829 
1.700861750639302 
-0.1163610096581331 
-0.0003494379631176415 
0.02139239149884013 
-0.4657082848016224 
0.1341084282875047 
0.0424163897318914 
0.2536376488473412 
0.009276528818174241 
0.1810836065472138 
0.3370560455134238 
0.1165107288542932 
0.007693633673197199 
-0.007714248069786002 
9.468044547255504e-06 
0.01491740439924772 
-0.06366475990086862 
0.01857027831503387 
-0.25588374051339 
-0.0425889168636167 
-0.0469251342647078 
-1.729890855014941 
0.03156879271881652 
-0.7827229739428316 
-0.1080529440606863 
-0.1046278896599171 
0.07563158730363181 
-0.007534051392428655 
0.1732691941162606 
0.02139601946039613 
0.02272725562626869 
0.2376793176960293 
0.7959038203405697 
-0.2699324904803919 
0.08719846426471731 
-0.05674854055635375 
0.04392045062620002 
1.007776328361387 
0.01184652223567692 
-0.4963056607215616 
-0.3646051453826188 
0.06789273124274905 
0.1061048881714976 
0.2318904595902232 
0.04883818681775171 
0.2956876890310062 
0.05502567802274792 
0.142666593446072 
0.1431909235371032 
0.03307502909503524 
0.2107892226494507 
0 
0.01352096186103439 
0.05288487603516825 
-0.6693001961123182 
0.148897456002898 
-0.404475906900911 
-0.000336043315159518 
-0.1575486862583517 
-0.2440161178406889 
-0.6266331464942119 
-0.2053610416416103 
0 
-1.263659792532135 
0.1701757080541273 
0 
-0.08007591393576723 
-0.6518024388203929 
-1.687613092331944 
-0.00797488159217619 
-0.3672539288809116 
-0.7466747713885059 
-1.756999242362618e-05 
-1.117907586871225 
-0.00138937503659905 
-0.9755850638856227 
-0.8273064828862646 
-0.5353667909368386 
0.007555789688621999 
-0.01141870287028402 
0.02812831342753591 
-0.02367626430848453 
0.07351494396515393 
0.2578923027492394 
-0.4663166736839905 
-0.2639321698577956 
0.001139746043189109 
-0.9328217263648572 
0.5651745969572595 
0.247652184205733 
-0.1322506671542824 
-0.1149833623188582 
0.1825549795423433 
5.998117233916477e-05 
0.03057201281679303 
0.001802574265736546 
-0.3487234090228778 
0.02183980191327734 
-0.1243678129336487 
0.18704738682615 
0 
0 
-0.07116482741185332 
-0.09350933321160296 
0.07343520106188957 
0 
0.000433833292328017 
0.1983382957166874 
0.1777085862673229 
0.1858171246079651 
0 
0.1836199627518814 
0.2671916268004581 
-0.01522151626293497 
-0.9565538066039051 
0.06999110076557563 
-0.03102601442191341 
0 
0.1330496823167951 
0 
-0.2082605139142125 
0.1659143565685595 
0 
0.0323184917884842 
-0.0311801626458531 
0.283142145233501 
-0.001216490624222421 
0.02852121385196335 
0.00121019173217398 
0.005114059028033807 
0.01059210245075763 
0.03420473780738116 
-0.0001657736061484751 
0.3642623116687447 
0.4459688144942758 
0.6416673205785629 
0.001185531030657099 
0.03972468691572252 
-0.8639083958257074 
-0.1151018992370559 
0 
0.08145477736244215 
0.115313667958728 
-0.2650090145959836 
0.03611540310961175 
0 
1.826937598241543 
-0.04708266475074868 
-0.2003441979186729 
0.2494461362468259 
0.1010645927798963 
0 
-0.3057471034572014 
0.3294489952455621 
-0.03789384521263126 
0.3445093666245981 
-0.1075004022921348 
0.04131778574693993 
0.1835007828609351 
0.02854234758170962 
0.006889253380488063 
0.05775564268316942 
0.4523639510660419 
2.716031442469615 
0.4141843293843832 
-0.1762397516237067 
0.001132912699616975 
0.2218513246724657 
-0.003200291380138029 
0.2091746239522621 
0.06272897034886342 
-0.3852130076881025 
-0.001676242374398212 
0.0001307325696021598 
0.2286488814720088 
0.08699656406532842 
-0.1422495174845094 
0 
-0.06819319465031977 
-1.048935803230649e-05 
1.670022025934853 
0.01243006007044785 
0.06951872457763733 
-0.004550055561198592 
0.07696934418899636 
0.062560715972514 
-0.001929545169125923 
-0.3114932904617296 
0.1106246560763939 
-0.006235214898002682 
-0.8185828525427927 
0.07451356213089748 
-1.120834259749031 
0.01699732574790383 
-0.009696285815067963 
0.397510313629895 
0.001296529846298194 
-1.490209063990463 
-0.00112092679797305 
0.003256589565735667 
-1.033658562779384 
-0.05254734209392548 
0.06013783107702223 
0.3561381234836722 
0.02501326896716017 
-0.04861859059782288 
0.003939206430325675 
0 
0.9460276020740221 
-0.02966176116797992 
-0.01373832484872213 
0.04728633862555036 
0.006395130526433754 
3.860115257762187e-05 
0.0001652793887563409 
0.01063828117404355 
-0.1461516181582547 
3.180719034043353 
-0.2574554434757235 
-0.06493550043675703 
0.3866444359939173 
0.3504182930920433 
-0.674682384906809 
-0.1318367078257301 
0.5285120992930719 
-0.1002747059790094 
-0.08134702778201877 
0.1396289837303133 
-0.5017863372753465 
-1.423937263124875 
0.08911989694848267 
-0.2986162555108151 
0.6096824188874634 
0 
0.312687019168529 
0 
0.07872548631580988 
0.003515804628961355 
-2.329230598867426 
0 
0.3581580517181236 
-0.0327305888046641 
0.1914501855112593 
-1.185885672207231 
0.4653952816939689 
0.04427685831452842 
0.1217460947639189 
-0.04506764769484571 
-0.004094835799803737 
-0.013740920388951 
0.06482442492550747 
0.2406957534744683 
-0.01644435988499238 
0.5807588972579389 
-0.02172878344349226 
0.363934752366361 
-0.04086073565125957 
0.108346006573771 
0 
0.3651937919249998 
-0.1764711117623512 
-0.03265238960840524 
0.2459063096303771 
-0.3032328693786306 
0.1233387839624253 
-0.01080846558512708 
0.2581644931497744 
0.04436126865683697 
0.03066698687939996 
-0.09381995513463122 
-2.739621080349072 
0.8302566042658084 
0 
-0.507706194585487 
-0.387255413860289 
0.01289138199745209 
0.5994657016368381 
0.001643957310064584 
0.218582054499428 
-0.2022816941161779 
0 
0.135199163360682 
-0.04797172288481094 
0.07266959740443281 
0.2998989915788884 
0 
0 
-2.24427353817784 
-0.1582758718234769 
0.0154719285325333 
0.3468899886859441 
0.07962851203854807 
-1.230902865406426 
0.3268547337346261 
-4.214718240615477e-05 
2.696138654820606 
2.53736999980209 
0 
-0.4372126476266685 
0 
1.170971461047388 
0 
0.00379566219447767 
0.03789616947003051 
0 
-0.1076495123559132 
-0.03954405669684452 
-0.1481697253815867 
0.01682174056080835 
0.449778142957608 
-0.03578244810427999 
0.02229674963403457 
-0.04070303213347265 
0.1331512227270415 
0.05210172946588018 
0 
0.5621461254591776 
-0.02872891610339047 
-0.0008318257071706493 
0 
-0.2724155228782782 
0.400953675699363 
0.0871442625050963 
0 
0.04045777182662155 
0.2719795859204917 
0.01209568716197418 
-0.001025091623060642 
0.8419999623311804 
0.3377433606677564 
0.4617243927438873 
0.01891729174911952 
-0.07371672099158291 
-0.02880981358876272 
0.02172236906208316 
0.03234899508525509 
0 
0.4865701471546973 
0.08280830809692885 
-0.0158313166384681 
-0.6035175351134375 
0.07010444195299427 
0 
-0.01202360154244508 
0 
-0.07593067981793233 
0.1454712362690534 
0 
0.02303250838482405 
-0.2793662118412204 
-0.4093196946432465 
-0.1090342526498657 
-0.07724245732233792 
-5.212705238069064e-05 
-0.009306624421985845 
0.2524533168588003 
0.3567194605511739 
0.1057268508973011 
0 
-0.2623346647039536 
0.2054025294380736 
-1.00584079431707 
0.02367616840686116 
0.01907763319038756 
0.6825974389192994 
0 
0 
0.6323960626940446 
0.02314225343660354 
0 
0.0005084610252829356 
-0.06091392754134967 
0.2918965419452531 
0 
0.0201387498655786 
-0.02810077058735199 
0.01743053010974234 
0.04945492121371479 
0.2718875281255002 
0.07419611261967332 
0 
-0.01089696840111896 
-0.05767114271623528 
0.01020312112591146 
0 
0.02516781790719155 
0 
-0.01303978098306228 
0 
-0.04398805808350151 
-0.004736050931442201 
0.05020819971695208 
-0.1118954394685485 
-0.2487674093062646 
0.02204731409297669 
-0.1136539332950836 
-0.33712262901443 
0.009409124014298088 
0 
-0.5057982340725942 
0 
-0.6330631272449536 
-0.0039484312635416 
-0.02464467698111165 
0.4152297787178743 
-0.02417588816067413 
0.02378411875419138 
0.005201716094132288 
-0.05475842493462545 
-0.5318544361732481 
-0.3307928255132466 
0.1564386294235137 
0.4507402383852617 
-0.04918892674905574 
0 
-4.508132830403486e-05 
-0.929570484010703 
1.159028070380743 
-0.009777048197662938 
-0.1242168798608978 
-0.05671973923191194 
0.001017246004760884 
-0.04559729886603886 
0 
0 
0.002611308809293912 
0.2184004964154976 
-0.2729307751975271 
-0.03773984988715091 
0.03964411801359109 
-0.01765788539991497 
0.006652008675106304 
0.2876590307276892 
0.01044783170433974 
-0.0179090349039102 
0.2827427094567806 
0.1456531270230105 
-0.01535334980628189 
0.2639184074837195 
-0.5580839241978524 
0.2956716518087711 
0.3036502976784235 
0.2224363160857499 
0.5230535016260113 
-1.691898986029651 
0.8279699496359224 
-0.1520659031149929 
-0.0369762910833023 
-0.3668712800829625 
-0.003919316830901536 
2.442805472167883 
0.8701132106476286 
-0.3722748092228148 
0 
1.777913839123106 
-0.001752553071007786 
0.806388631042851 
0.4768513069274386 
0.2274473507519457 
-0.02446861490616025 
1.27959305496454 
-0.1122240848790074 
-1.354559232486579 
-0.501267570852386 
-1.054450550592344 
0 
0.2320051407450029 
-1.092379070603458 
0.4158303123248047 
0.3817311500304388 
-0.3879934655960284 
-0.1172303253354526 
-0.09703304132083715 
0.1997390273353276 
-0.03292429168695758 
0.05554775926696515 
-0.06161706471314154 
0.1173793991237596 
-0.03749974592964007 
0.004630157039763365 
-0.4995824294808511 
-0.2505984908282125 
0.021081548116391 
0.2417012696450246 
0.000674982721229658 
-0.001137691823777644 
0.3270458461074522 
-0.1843069185605609 
0.0882266544355334 
-0.3765509543833944 
-0.100679730506779 
0.1782324750142808 
1.79943344525528 
-0.07746114671117454 
0.1768376671258453 
-0.3127881994774059 
-0.01135720007110982 
0 
0.09518190564462239 
4.992761725997562 
1.120225418702149 
0.05795590061248876 
-0.3158348896463061 
0.0279500656304395 
0.6485309951354621 
0.09271386145101136 
0.09112772680143327 
-0.2383806087692641 
0.0209375068084848 
-0.01667524545677188 
-0.1969448770397502 
0 
0.1144404805026085 
-0.3195365968862541 
0.3411987825313206 
0.006213762989417578 
0.09847447069820943 
0.1790423061982676 
0.0003557911623835444 
0.390147646049909 
0.2131952615890941 
-0.1211462348212471 
-0.3641545486401687 
0.0891068066301942 
0 
0.199033233489469 
0.01814762293466673 
0.3456112413549017 
0.8158611331410464 
-0.753248439946996 
0.2926174174360247 
0.2839333263000279 
-0.1772097066277567 
0.348891328590989 
0.0005131583230895186 
-0.02452439032708558 
-0.02061926852734512 
-0.003681652912676209 
0 
-0.001990277953930534 
0.1974249885423805 
0.1501022283508017 
-0.2851269068855929 
0.03419333292704944 
0.02394433639436704 
0.003191655161584833 
-0.01234208652806335 
-0.5281932457787902 
-0.1184641021082359 
-0.05424009216629494 
0.2657177727414986 
-0.8024812605427021 
0.04574169102031984 
0.05446331031716915 
-0.005858263430300908 
-0.004973325002147594 
-0.01661361740050896 
-0.1206868663404811 
0.05721741314611205 
0.02327750503217377 
0.1639928603378756 
0.2158858039693974 
0.01077823925082243 
0.03417217094374406 
-0.07305026643532544 
0 
-0.1609954020026529 
0.02084943402906076 
-0.1065697941685135 
0.2151031696680485 
-0.9805784139302886 
-0.116898715729277 
0.4343308927277867 
-0.1029301841657444 
0.02235790040538073 
-0.0006802000532618056 
-2.111609301606006 
0.3302457293214383 
0 
-2.172241632068132 
-0.2668256653002857 
-0.008346636858437818 
0.0570304068963728 
-0.1181253871687952 
0.04955381815810327 
-0.09730121700619487 
0.06454804843059202 
-0.0487244006148085 
0.1095643641791777 
0 
0.001821944958545232 
0.02411131870390973 
0.002501212563928672 
0.1227309175659423 
0 
-0.07609200009400877 
-1.391278234696034 
0.05133157151176353 
0 
0 
-0.01142530074268184 
-0.1540688403365646 
1.13049331687695 
0.3027300357840003 
0.7197415705084846 
1.165295442965064 
0 
-0.2257389238170732 
0.481847706479725 
-0.322183903610945 
-0.2726294052491203 
0 
0.07620469249141952 
-0.06248093132735155 
0.01138951598943334 
0.07473500537191666 
0 
1.125594187246863 
0.007640895836128077 
0.7005178197723485 
0.04166982421493751 
0.1571081431250747 
-0.3768510220398829 
0.7479184436857713 
0 
-0.003226970270057938 
0.1713780585465807 
0.001225322204264142 
0 
0.0376317459928899 
0.03506710236241885 
0 
0.494856229544313 
-0.1172082393856246 
0.006156487362027324 
0.09830009699496649 
0.002017388878464501 
-0.1447332003546685 
0.3967373069974647 
0.1783188762726648 
0.2630757556344753 
0.005632244947771737 
0 
0.02501326896716017 
0 
0 
2.492199102556485 
0.2373811635129684 
-8.670875330142803e-05 
1.408483960157834 
0.2334406864678682 
0.1092793404139821 
0.6489766436063632 
0.131672634000642 
-0.08968384622852035 
0.3771252581848463 
0.3310992974376925 
0 
0.1089895558704202 
0.2110543495732528 
0.1567793210948089 
-0.05569496062759602 
-0.04249161944338926 
0.239353781846783 
0.0413492625527757 
0.428821176329415 
-0.1038501105334683 
-0.4230322487640137 
0.5708184698513994 
0.3887749340745383 
0.01658714766334297 
0.5139405257975003 
0.3399252083691175 
0.08703293154155931 
-0.03685315429396618 
0.2678693617269197 
0.06948331328043029 
0.5648285828679975 
0.0252696186368812 
1.586631342031304 
0 
0.00579336413300858 
-0.7379985375971456 
0.1078264107664863 
-0.01178322453209408 
-0.04519049593974116 
0 
-0.1298561938750902 
-5.218963090786705 
0.2922801919135566 
0 
0 
-0.2979335752531491 
-0.04635552133152724 
0.01450302948805585 
0.1487236300327132 
0.1840887176601126 
0.07723466286670476 
0 
0.07684407301400935 
0.0001794072290915311 
0.05666323676835484 
0.3452135570226703 
0.08207829574680835 
-0.04960159250211661 
0.01595439357785915 
-0.02118898558367109 
1.247289439952613 
2.473926184413041 
-0.40637058024633 
0.003608257826108685 
0.09577453347817982 
0.1496735131937872 
-0.1652206439685508 
-0.9625896551675968 
-0.1708897074782689 
0 
0.8898230975501122 
0.1881096113084428 
-0.04934943826202776 
-1.183155238251225 
0.106918567860194 
-0.002831251096828937 
-0.01311771206346093 
0.2251505300804082 
0.2976344823114234 
-0.01295200297285725 
0.01535785945312254 
-0.4077274366847852 
-0.3727971741324492 
0.1372600108362431 
-0.1363189218075088 
-0.04052450234349675 
1.078443643503226 
-0.007556888690065044 
6.457191962602364e-05 
0.0984763543590688 
0.03411414301734739 
-0.09781678975613878 
-0.2074461034191918 
-0.7590983206520894 
0.8415816783029737 
4.835107576092049 
0.01855755161390181 
-0.305999644109044 
-0.9195739122764668 
0.2259175159458354 
0.02771197459055356 
0.1243300521318865 
0.2813464552003822 
0.03754621349609209 
-0.3556002985445589 
-0.07492681218643993 
-1.004063676186189 
0.08576774425957426 
0 
0.6921752781695171 
0.1176772951544766 
-0.008102278473266823 
0.3472761311644861 
0 
0.01347856223670227 
0.4621249702072638 
-0.1699977072495576 
0.01270670937925221 
0.07139107910753585 
0.7837959217072595 
0.3740019244753436 
0.4681365911379187 
0.02993869723180189 
0.04816838646755547 
0.204392383238319 
0.04690796200733772 
-1.626863984368282 
-0.08514051766793412 
0.007167973475318175 
0.1341763514454302 
-0.04587951919945941 
2.150592121258753 
0.2419877668172825 
0 
-0.005510055029388904 
0.5741767557053821 
-0.0004861846896716746 
0.00212510568237029 
-1.258786842121165 
0.04817688920611644 
0.01863886983425412 
-0.5349962708677155 
0.06216664575640265 
0.4424790975144765 
0.02787069073334905 
0.005801547362979588 
-0.3870240556758904 
0 
0.6773294650547236 
0.01741124651769592 
0 
0.206904928086609 
0.242187310326992 
0.5785114344664377 
-0.3157148455770079 
0 
0.01534668533073457 
0.006653929862056318 
0.04339724544353897 
0.1369629267300626 
0.3021283383416509 
0 
0 
0.1709349094098623 
-0.05744617074873499 
-0.1728543989548014 
0 
0.2668092673149163 
0.2298981320800727 
0 
0.0284937807627865 
-0.0599293945348706 
0 
-0.05303774822085666 
-0.03852052037443403 
0.1179641693095758 
-0.399503277284434 
0 
0 
-0.009812607590429498 
0 
0.1970408382853509 
-0.4182559371551209 
-0.1341302977567559 
-0.2666953557326911 
-0.01627538273802006 
0.01124428224403107 
0.004014870879330094 
0.1941678575665117 
0.02677976723734898 
-0.2101721224759449 
-0.171416317195557 
-0.0770449512005876 
0.00251079912252636 
0 
-0.02292444720900613 
-0.5490082097902225 
0.0009075549410295028 
-0.009158408084424802 
0.1045051372773184 
0.05913214989127693 
-0.000701871371656158 
-0.05515178218824774 
-0.1180446320253182 
-0.138099547019369 
-0.1259896071093694 
-0.4635217980418186 
0.3560163531469034 
-0.2262361560012475 
-0.01589351683059 
-0.4937333117810356 
0.4468270816958854 
0.3337077666384025 
0.4199581250059233 
-0.2375132293820789 
-0.1382452847067159 
0.1095307995467585 
0.6439618051013696 
0.06679347260598061 
0.3825577151720519 
0.0005584151057006412 
0 
-1.06013432242413 
0 
-0.6327512939077745 
0.04475111192716287 
0.4741667823439285 
0.6025228643117916 
0.7278546651544459 
0.008644012934031213 
0.006425759588252852 
0 
0 
-0.0001983048566720821 
-0.3891289591423602 
0.201388692301174 
-0.6813570203907037 
-0.2939301551131928 
0.004517707279839538 
0.04617027409821245 
-0.01009456893715798 
-0.8862530527633146 
0.001813923355577106 
-0.1679792022207824 
-3.795841062873579 
0.004054939510021512 
0 
0.1173510900103383 
0 
-0.08667420544960758 
0.514781223402983 
0.01291139932453426 
0.03246286877803378 
-0.01966969526049652 
0.2030459431355119 
0.1910912588391528 
0 
0.3063886723014434 
0.3097750727203015 
0.003638509549314637 
-1.112905446101671 
-0.0016799810684415 
0.004409342364709643 
-0.5148044383650467 
0 
0.1529809464522641 
0.4255143420231332 
0.004074292043679646 
-0.05085973936288309 
0.3004836213140359 
-0.103339037596892 
-0.1141583619229559 
0.1955481503776595 
0.0163318692210318 
-0.06830424963961075 
0.01087408714332049 
0.2152525420192546 
0.01179515777189726 
0 
0.2269437066414385 
0.4502726247989056 
0.07580474057598324 
0.008574974774537456 
-0.5833578576963687 
-0.3460319350949715 
-0.114377623224327 
0.2938491690044784 
-0.2753534957994852 
-0.006667573415902352 
-0.1199825117192033 
-0.06239163089437021 
0 
-0.05483442880103677 
-0.2007781982657139 
0.7237385593054657 
0.009752230501781964 
0.3297682402907813 
0.07248434627884424 
-0.007017011132162933 
-0.003335803658624174 
-0.04807808562715815 
-0.000719146110351979 
0.04068813595981599 
0.1660452271198863 
0.3748923925003251 
0.1349246071516161 
0.191016971055653 
-0.008095927407668145 
0 
-0.00983484448952804 
-0.03515759734473976 
-0.005734141817496373 
0.179997464858418 
-0.03826815283693937 
-0.1045981990172205 
0.4553511145883612 
0 
-0.02749563194485588 
0.009851434371387963 
-0.8927329030062643 
0.03877831637120334 
-0.02307112529867222 
0.05443830971668857 
0.1921459978458234 
-0.076920162904656 
0.3463817084594245 
-0.0345306473788866 
0.06841019492543077 
0.2452410052522035 
0.5357626420357986 
-0.3061478294352367 
-0.0007410983068386605 
0.01964993319899534 
0.01911909317947515 
-0.2149907984077848 
-0.1277138163181754 
-0.1412945625527946 
-0.5479661308739978 
0.04457020530548581 
-0.7610525774588159 
-0.07915623076494142 
0.7489478431738632 
0.1341694556819052 
0.7837476103569636 
-0.02186654373321378 
0 
1.013955386518269 
1.136925733692676 
0 
0.01100501592918121 
0.01100501592918121 
-0.1598109927966376 
0.04000301874345333 
-0.05005818987217359 
-0.2901497790373926 
0.7484582961009667 
0.4193065140394437 
-0.02780125722653893 
0 
0.1096064595571511 
-0.003142541492219366 
0 
0 
0.4575572630535119 
0 
0.4977103646003974 
-0.1519679242402617 
1.082745424103424 
0 
0.390839359636017 
0.03505901347659626 
0.4112675440506253 
0.01199166518093485 
0.4064766047759236 
-0.004757476595819755 
-0.005305582401746905 
0.01545620923674705 
0.05720730639496854 
-3.486902101038535 
0.2645590853514671 
0.005655181416923437 
0.002505235886372637 
-0.7580164190324854 
-0.009959238309005391 
-0.03746479029573285 
-0.001261837195170012 
-0.7590568031573536 
-0.03401842726525657 
0.2541607059823852 
-0.2487675185912781 
0.1580066972528067 
-0.1260170700685203 
-0.03588514136190013 
-0.0556508563968322 
0.1261814100436208 
0.0348863568445891 
0.002678842707944522 
0.3494676884135983 
-0.5238997539334144 
-0.03913120480770902 
-0.3160752741120023 
-0.2243859776564687 
-0.3671528368167826 
0 
0.2861778218705018 
-0.1226637528842571 
-0.1345697627629282 
-0.06819755883907015 
0.2954634510907835 
0.2054019742700911 
-0.1693961417945095 
0.5211070124342229 
0.2318720310967054 
0.4761970120738916 
0.2503862074770306 
-0.003998791162336075 
0.01182427901130114 
0.4356887082239801 
-0.03968717145783362 
0.03147577156793816 
0 
0.03178674305429016 
0.03178674305429016 
-0.9216339046080392 
2.736865519857679 
-0.09771530884692473 
0.167077670891921 
0.3131088537065977 
-0.03843310551714089 
0.02419996979301682 
-0.067780301239371 
-0.01012794507248882 
0.1667464230166699 
-0.01007957773691036 
0.3129563746399215 
-0.2307253569131195 
0 
0 
0.0207221606015112 
0.01020848487419116 
-0.06332402468736187 
0.1738101973487904 
1.201881499993444 
-0.1893872023492014 
0.2986228531686898 
0.2576893850175079 
-0.01550870340664597 
-0.09045319396328802 
-0.02159638470636505 
0.03436346974476891 
0.04882211643482719 
-0.09970702050875341 
-0.01614815792813297 
-0.008891782869286716 
0 
0.463225169129193 
0.03286172342010987 
0.009050436004371786 
0.09678053562990553 
0.006996602049252463 
-0.08961019914853668 
0.02446183294993302 
-0.1363341850169625 
0.05651666564486956 
0.00640397530361222 
0.463628172709331 
0.04171427519547394 
-0.0004131573062315347 
0.02077677140289727 
-0.06752187064797481 
0.007170061605014356 
0.03205697169313202 
-0.03898811566073318 
-1.196451782004686 
-0.3196762556253636 
-0.005481125402899396 
0 
0 
-0.07145734220109165 
0.6191868856306633 
0.03429908346744599 
-0.03266290159900581 
-0.3693658615790342 
0.09319928810609918 
0.2440879466603551 
0.2454610222379459 
-0.02395106059796677 
0.1716038386927396 
0 
7.547317603613078 
-1.037247565725764 
0.3587338351376119 
0.1263843486535676 
-0.208982904983871 
0.05597667678977258 
-0.006056058398498342 
-2.119560039160739 
0.5788624285897452 
0.5339556625512059 
-0.8842848709330036 
0.3715509674172333 
-0.07653097399582441 
0.8442412489294628 
8.079385844842195e-05 
0.07351494396515393 
-0.3517312357374012 
0.03364802170840364 
-0.1353662068186806 
0.03326609960715474 
-0.1939560728701966 
0.724456412843814 
-0.17078295151009 
0.207272924526528 
-0.005785455562650197 
-0.5668892444793956 
-0.1531104785587311 
0.2317570425365656 
0.2669001567658653 
8.568385438990316e-05 
-0.007278992376566658 
0.3823879524518274 
-0.7827342799606234 
0.01914178578253278 
-0.008386654793507827 
-0.0596033868537556 
-0.008229816067973898 
-0.09467265663896349 
0 
-0.002995918002345629 
-0.01572825354447764 
0.008624660102770977 
0.2279599348154606 
0 
0.4809346476698948 
-0.05949718305630504 
-0.02132267942850688 
-0.102650267661183 
0 
0.1450536845294635 
-0.1500596593577664 
0.004679518387662923 
-0.001871172019225862 
0 
-0.4052876663663049 
0.02822258997425395 
0.9812771749265944 
0 
0.03923453131529418 
0.5307581773959554 
-0.5809215326896779 
0.1783303204012682 
-0.03224590864502966 
0.1174027770872194 
0 
-0.05948856382302892 
-0.02955972829481598 
2.132458907905751 
-0.239716619645057 
0 
-0.5790109428036632 
-0.1541382726946761 
-0.4877468663520575 
0 
-0.0765311445722323 
0.162146944093816 
-0.1286851296490842 
-0.6452669256569157 
-0.09227801090719925 
0.02675433653907089 
-0.30572103465627 
0 
0.004699351662002107 
-0.1799021437359566 
0.05729668522777467 
-0.5204126764671937 
0.4000454439898449 
0.01694581295362544 
0 
0.2055499371102902 
-0.1494428216630346 
0.04118064172165427 
-0.04674617478615223 
-0.08957745278230145 
0.366211543216087 
-0.08534967526818965 
0.4443511399726991 
-0.02163450920313218 
-0.06332566123865126 
0 
0.7903675664052893 
0.1074720089082364 
0.2925362858294769 
-0.02177326739805915 
0.04815777540635809 
0.55578513431534 
0 
-0.07531118306765866 
0.06239199221610566 
0.4312350601268635 
0.002516120107677532 
-0.04307664278218291 
0.2153730615016818 
1.4545281690109 
0.01498493077620447 
0.001570091203353009 
0.1378739164374034 
0 
0 
-0.2520573729837128 
2.322431622204815 
0.958587969087106 
0.3726944746464389 
0.01099040407635439 
0.04071600538425421 
0.1026480228683398 
0.02613139621865191 
-1.299062079571296 
-0.2569984896973445 
-0.04373061869442708 
-0.2310734445190019 
0.01423525571638865 
0.1554471300507183 
-0.07360684716496095 
-0.5700727638572811 
-0.1039038924071499 
0.891805663185351 
0.4050725676252163 
0.6475148162621571 
0.3979634025620029 
0.4128761058202097 
0.01901903585184881 
0 
-0.04451246851734162 
-0.04419768921354374 
0.1767269152126105 
-0.213558035875252 
-0.03494386811873466 
-0.0330878802766619 
-0.3316771684625886 
0 
0.1553288311214819 
1.379629236135729e-05 
0.3907150938600847 
-0.2115322806580512 
0.01435727777644341 
0 
-0.01064480344110763 
0.08372707478528699 
0.06419628908923972 
0.3402954586219926 
0.05595922854899749 
0.1242093118125798 
-0.1402551610230232 
0.08576453367066594 
0.111896375631471 
2.967817448617694 
0.06966079525648532 
0.1256646791688359 
0.5263816739391936 
-0.4183416817163917 
-0.1483440979141854 
1.051138356792032 
0.2461967238424329 
0 
0.009895552880711783 
0.3229704638525526 
0.3230114177223403 
1.476967156220142 
0 
0.01985466683480543 
-0.5847240111537363 
-0.2948334895209617 
-0.007575303184056532 
-0.005243685790931029 
-0.01837762419698909 
0 
0.7919284108546315 
0.03265736081824583 
-0.02619034141150622 
0.1554690406227665 
0.6960769401756937 
0 
0.00386194067939987 
-0.04332426141203523 
0.2600714832945445 
0.2466049438579178 
-0.09754193956115403 
-0.7856001661901822 
-0.2119550010401609 
0.4927316840799199 
-0.0002113201844584508 
0.1547878816292907 
0.4036527976317554 
-0.00544107697858257 
-0.4734722568685551 
0.000192096801507148 
0.3895554661526916 
0.2600097143911189 
2.745488253826001 
0.005363568232170218 
0.2536047698188911 
0.3143724275847899 
0.007751588802480351 
0.1915402332552339 
0.01732054369880134 
-0.2675149130995039 
1.026475792787112 
0.06099351422951695 
-0.001581857730547438 
0.01652697488699926 
-0.02381671072942523 
0.3036878112128846 
-0.05008535632287158 
0 
0.05640049644420673 
0.245890043633987 
-0.03492960306022336 
-0.03646056136407576 
-0.03438651279419759 
-0.03802749493744741 
0 
0.1778653184837812 
0.1339668758731194 
0.6774153211354041 
0.09141521143941234 
-0.06826648118727444 
0 
0.003899417336197592 
0.000163322719002261 
1.69288455944819 
1.193326055458807 
0.006161920505524632 
0.7367046481608501 
1.244817493043474 
0.02472222832127811 
-0.03301399777986158 
-0.0007486843062079018 
-0.1018008325723803 
0.003904914471805995 
0.3047857232799284 
-0.2667900155195022 
0.1979282463868163 
0.08147632137413814 
0 
0.126156528874143 
-0.1098770154488608 
0.9765835912492766 
-0.09701620779155695 
0.107505297844792 
0.004915630749247273 
0.5637300534640761 
0.008759141904343095 
0.06674805063668252 
-0.007667387106434903 
-0.160762676375041 
0.1482323473231529 
-0.09663688107616787 
-0.002042726240863867 
-0.7182657826221603 
0.7534682050570037 
0.2003025133007158 
0.0644521999353878 
-0.2108822458976533 
-0.1804336308518548 
0.07099644466928295 
-0.4639666211426802 
0.264165431896085 
0 
-0.5392558016754251 
0.4293250407011627 
-2.084355562039329 
0.4335529816798615 
0.1385590517503654 
0.8836740209766933 
-1.125445931013051 
1.163050976800714 
-0.0314845359416199 
0 
0 
-0.1676518869638616 
0.2232639504987549 
-0.1250669574047204 
0.05922623815753933 
0.8343901360839029 
-0.03257199813169372 
0.3799450205017704 
0.6185644470366789 
1.755367648633257 
0.01815761697329921 
0.03371396806167867 
-2.420774744904292e-05 
0.5705093204323264 
0.0009691123978386359 
0.04754864401175399 
-0.08859798916357872 
0.00499174996720947 
0.2335915699816508 
0.003170778859582961 
-0.05624582657269928 
-0.2186900408506241 
0.3007376833896922 
0.02047961213008787 
0.0003645646922012557 
-0.1358656225405743 
0.05451648072840472 
0.001997077779169176 
0.137172460691434 
-0.2089744227812504 
-0.09096907696384829 
0.8394640468561969 
-0.1384064090338446 
-0.7833638408631683 
0.08839261006882065 
-0.2588029057679849 
4.379861280749888 
0.03506725128408804 
0.9215937353564172 
0.9034491846877037 
-0.1647113010280965 
-0.007725791481267171 
-0.3671443316005562 
0 
0 
-0.1760535375332156 
0.340472705768661 
0.04237974568934982 
0.07526051106754367 
0.05493360096475606 
-0.09463274179581962 
0.08060741409606251 
-0.04609952050674378 
0.00539192022961881 
-0.01454111795899355 
-0.103134621445146 
0.2463983085540732 
0.2522061980963008 
-0.0320805946350404 
0.7738602634310892 
0.4213237807837639 
0.3619231619112112 
8.387788172340079 
0.3184401194795597 
-0.1122103039310625 
0.08425782571303746 
0 
0.2949013074278097 
-0.01507497566590346 
-0.3185767744556258 
2.530022644407731 
-1.729510243289835 
-0.05325040531911972 
-1.015002552608379 
-0.07422062185522131 
0 
-0.0007891330082120986 
0.5247956240721087 
-0.411152219773906 
-0.1234416948482374 
0.2612738895218194 
-0.6253918738212026 
0.2445792915045248 
0.2715569382022049 
-0.3009416898268329 
-0.36563505413084 
-0.7637373629183754 
0.8455885574331558 
-0.01846166367567301 
0.06100590231086049 
-0.08280959330168197 
-2.559478153777262 
0.6546068578549371 
0 
0.8943580409332288 
-0.130497796584897 
-0.7171679256845795 
1.259123524707419 
0.002355744503927275 
0.02095016231913688 
-0.9074950712712906 
0.5915850410165359 
0.4174432400551368 
0.1032275770892482 
1.259079072428545 
0.202653937163455 
0 
-0.09327953346168769 
0.7420541487049744 
-0.0001156226702840512 
0.1794543871798557 
0.007545270618517428 
2.428457676130086 
0.04235114582833488 
0.2447289513306047 
0.1207328035063542 
0.1990100668639504 
-0.5324138494667594 
-1.682183817809038 
0 
0 
-0.01289512731925184 
0.006734003851718393 
0.4256016206341053 
0.1234179943411019 
0.1650219105306493 
0 
1.571231910981353 
-0.4470832881379152 
-0.007994001823881753 
-0.2205991113364819 
0.02577601377077281 
0.440361348443898 
-0.005652763306106017 
0.3602873050126897 
1.64584208855233 
0.6432371995704872 
-0.01585594093056084 
-0.1479242431811028 
0 
-0.4310534376034519 
0.2142039825768048 
0.4400068367078504 
-0.1879379562703718 
0.161860486335879 
0.08050194165483986 
0.001100061387296305 
-0.760362097427887 
-0.2503664872609659 
-0.7144366863167051 
0.411349589363903 
0.07773014873933923 
-0.01349554690869191 
0.2727928657296773 
0.04925399907366928 
-0.789458565993342 
0.7331648536023825 
0.05751084118849553 
-0.04797658210665254 
0.002569297941135063 
0.04852330527682763 
-0.03177343721117074 
-0.02758462217284273 
0 
1.054198399865963 
0.138651373199559 
0.07986992153225347 
0.3125113446760751 
0.5512033803456655 
-0.4779337018830665 
-0.281505965508577 
-0.1185344029921826 
0.6559667604900982 
0.005696859623714171 
-0.0001252787721873758 
0.06669967266470681 
-0.1199503983128827 
-0.3842742277101796 
-0.7052133196318056 
0 
0.01310939493400911 
-0.02151154212270978 
-0.004478930292494704 
0.2503681960586747 
0.01119659496577564 
0 
0.1911064333857756 
0 
0.6464537657040642 
-0.01991254512444718 
0.0417278855163396 
0 
0.178037246966622 
0.5881642565307588 
0.1112955658311961 
0 
0.08240319552583225 
-0.1266402607963091 
0.07946753210300284 
0 
0.09178545007802925 
0 
0.1155134673032339 
0.003801234509646144 
2.519935353655119 
-0.3399695606114586 
0.5009899179030252 
0.1469146269292821 
0.01781101035886561 
0.06412494309712813 
-0.13525030755401 
-0.2721519174918447 
0.001193008073426676 
0.0009442512479269431 
-0.2326453875156136 
-0.09540174431996062 
-0.1108940810273532 
-0.2225053902477697 
-0.06920051127227883 
0.4154605492538315 
0 
2.574779269521906 
0.2498012449758944 
-0.3184551918533222 
0.004136367439242833 
1.860970600677931 
-0.01051944763922023 
-0.03379082930578681 
-0.108368872359811 
0 
0.7309520115535029 
0.08653811385529139 
4.694608912084353 
-0.9922853285666182 
1.676275468667259 
-0.1469830059702615 
0.1537737542948637 
0.005315841200810469 
-0.6568466915127245 
0.3941373428600052 
-0.0306658698504 
0.02069384048733271 
0.2674087343209163 
0.1190857414614284 
0.0001656844658925254 
3.10963243334197 
0.007913547210106772 
0.03766984488267173 
-0.2530090586326121 
0.01426022052623005 
1.149491188099269 
-0.1300240773680905 
0.9001834902732976 
-0.0778742551441293 
-0.04191065881225716 
0.0618494007698696 
0.474548504325743 
0.001840329377232241 
0.1415663737383432 
0.3971245375047124 
0.01185699150713779 
0 
-0.03418073863381663 
0 
-0.3651658390373251 
0.2480678374441339 
1.27845335752664 
-0.07642775797904204 
-0.06717345494455387 
-0.1605567378616244 
-3.208334454762531 
0.03268896781857346 
1.584327898441955 
-0.08252274668238291 
-0.0008360057411699385 
0 
0.003554003407083062 
0 
0 
0.2603756777528811 
0.04100762429100473 
0.8592056618352492 
0.003959317812342249 
0.1071232280137578 
0.08284777115277589 
0.05413259885041307 
0.04511891258090644 
